5.108466136079204967e-01 -2.264705534504838913e-01 -6.286465959662740355e-01 -4.259707824267129350e-01 -4.143831247627149383e-01 -1.064521732597202730e+00 -5.302305639898349243e-01 -2.582770538387355042e-01 -5.052423395998678624e-01 3.722301445015713250e-01 -1.622041788232496395e-01 -6.693885154703491103e-02 5.666455604139096769e-01 4.995978806025033192e-01 3.298454219933810022e-02 6.417440501454682589e-02 2.169995787760840289e-01 5.602412110533958600e-01 3.125265761473816073e-01 6.709518072924230969e-01 -4.958626401238130921e-01 3.669816909680808092e-01 4.369910461767719800e-01 -5.593337683450428921e-01 3.471673032363237210e-01 -8.430208027145517924e-02 7.821209525582349942e-01 -3.070365694283008762e-01 -1.266418824280698685e-01 3.269797343775162068e-01 -1.147021854934403562e-01 -7.374586910674886253e-01 8.133338487022343521e-01 7.734273350862282959e-01 4.338206700056491671e-01 -1.649255461083385527e-02 -7.535364765537530540e-02 9.840943100108379138e-01 -2.393147787629767986e-01 -1.362527195022013027e-01 -2.492679213525294535e-01 5.567495424085173727e-01 -8.545012557306483902e-01 5.124612454094953223e-02 -5.000489875032194664e-01 -7.765659851288313487e-01 3.470530662940155553e-01 -1.221258270925963119e-01
2.039899795691073880e-01 -3.790386218139786823e-01 5.894207219081483151e-01 -3.274846571299669384e-01 4.441665674155949595e-01 9.164909929012808876e-01 -2.068227326538733535e-01 6.995775920996644137e-01 -7.799261430221119396e-01 -1.032925049732813794e-01 1.748322267544666631e-01 2.136258185352326866e-01 2.652681784344699256e-01 1.180231598173716034e-01 2.001630164479933360e-01 6.754214533658606801e-01 -2.934431378655417699e-01 -5.416502652250438921e-01 9.050361593159167439e-01 4.902673844666086689e-01 -9.048407038273276193e-01 -9.519261732527264375e-01 -2.618890176718933205e-01 5.493723277927496929e-01 -1.278552912363494940e-03 2.565321825958952195e-01 1.547372140631667892e-01 6.599949756724438066e-01 4.828073979529166615e-01 2.066670019740437375e-02 9.783177807703390405e-01 2.172103478540740318e-01 4.298555515852995473e-02 6.497224041626330493e-01 1.829342995808768413e-01 -1.563569945503018310e-01 -2.661789496227763285e-01 8.375266475396755950e-02 4.336176993348925812e-01 3.931638480233971139e-02 -3.460019490374900974e-01 5.809045850756949791e-02 1.856468677603863027e-01 2.502748194874594989e-01 6.298504579456912778e-01 -3.732539505503235655e-01 -1.828184397133692518e-01 1.630699467251394211e-02
7.124608956227397316e-01 6.705305559104185464e-01 -8.168739274703300524e-01 6.689112702927065834e-01 -2.773639022292136991e-01 7.344299929370430302e-01 6.209439806485453905e-01 -6.121361008058953113e-01 6.097095759637095602e-01 -1.964815774809750837e-01 5.844813546752333222e-01 -7.101585394353375769e-01 2.010439272099380503e-01 6.275061794761900291e-01 -8.975714605536297963e-01 4.230948243010458909e-01 4.863163781305528954e-01 -8.396178524034517143e-02 -5.103680651901928433e-01 -1.232651468774769027e-01 7.451413757480706002e-01 1.537589881777675915e-01 -8.163824909165868782e-01 7.885925128778096260e-01 7.425018216029635187e-01 2.728338848223206270e-01 -6.799371434703816997e-01 -2.641689110228045423e-01 1.195151899229747183e-01 2.665069097966016320e-01 -6.788874521528595052e-01 2.677276795863313130e-01 -2.785766159830068145e-01 -8.802402267443070194e-01 -2.139976742735962278e-01 -3.848398188813069165e-01 1.712703541487637093e-01 -9.951698628263969115e-02 -4.322031423262147065e-01 -7.299248278490543251e-01 -7.515869516127107186e-01 -2.630379598545189990e-01 4.576768450051384440e-01 5.157372041405872132e-01 5.368715190487227673e-01 7.448540566995787149e-01 -7.113787856743319926e-01 2.116761489216103242e-01
-7.192866131734695911e-02 5.275036696306795170e-01 3.215564789093517950e-01 -4.052670148628336189e-01 4.633977140296340336e-01 5.915431288787798003e-01 2.626933610081438886e-01 -8.593489993733467447e-01 -3.729672680274460084e-01 -2.744238950804783195e-01 -4.103030914981078969e-01 4.443382277420682147e-01 1.612600735083585465e-02 -6.098564541747698575e-01 -3.511814993696127929e-01 -1.175316870984743495e-01 1.807367628505547330e-01 -2.216164721063327292e-01 7.120653586181732164e-01 6.188426726071999395e-01 7.841150553882201280e-01 -4.179687349563878107e-01 8.299604788273847733e-01 -7.715458839775256594e-01 4.425651374595896553e-02 3.082428299019825402e-01 -6.891686986985372521e-01 -2.091600606631462966e-01 -8.501478440636441869e-01 4.680859688045001521e-01 5.146232560585690674e-01 -3.974775901968920500e-01 -8.395854684273356128e-01 9.510341659027689298e-02 6.219692595107336741e-01 1.283798540199548865e-01 7.655458394416556622e-01 1.838170314263194716e-01 -3.078182445797488787e-01 -3.069468702816098293e-01 -6.471906011277558379e-01 6.564389275745942109e-01 4.236858445628605696e-01 -6.468614992430443689e-01 1.133431004303431938e-01 1.858457859605126550e-01 -8.172819128881868567e-01 -5.764352200716511554e-01
-5.497304736731776220e-01 2.164615334167232508e-01 -9.930652588349501153e-01 7.085997146045180939e-01 -5.152010452417407071e-01 -2.201118758570249911e-01 -8.010516383397773277e-01 -2.026442618083449942e-01 1.369481564514918037e-01 8.510172162692994924e-01 5.471024300015141506e-01 -6.586589427678821718e-01 -1.970279797253744192e-01 6.868808742922744015e-01 1.861862158341364426e-01 3.357406766169601653e-01 -6.800748762442228035e-01 7.083322544837690193e-01 2.367235341090490608e-01 3.942458390342110652e-01 -3.863042472996655041e-01 -1.166031059109562257e-01 -8.905367498343819133e-02 3.215429524723473209e-01 -7.287757626535370514e-01 2.435489973924379603e-01 4.365400589601882153e-01 -1.149936732465283162e-01 7.289673984119757200e-02 2.618843425051378127e-01 7.067696042904666465e-01 5.737531506670658921e-01 2.864027050005221731e-01 6.273313493688105202e-01 3.266515531860140764e-01 7.791898068715218117e-02 8.614349118500470581e-01 5.494323800219212961e-01 9.286279332295918620e-02 7.943212890117009595e-01 2.410283777660071070e-01 3.917923986018632121e-01 2.839827608989587901e-02 5.984497577763110004e-02 9.789307856973335220e-02 5.019788839940860781e-01 -5.987951985439659008e-01 -6.772669913070082925e-01
-5.771875333516780504e-01 9.927011187408388837e-01 4.874179266738291605e-01 -8.866140618766922277e-01 7.318897298453964917e-02 7.548927909232101552e-01 7.778465223126260764e-01 -7.735765372487413138e-01 7.687464054742104702e-01 -1.551147819695017490e-03 3.214980498331657111e-01 5.919388358657937665e-01 -2.462574167967079009e-01 6.319450145836197352e-01 5.530718095377242655e-02 -8.783940790511318708e-01 4.998968703040653216e-01 -1.125125095744395676e+00 -2.525188464118917064e-01 -7.648622573786115764e-01 4.060151267902058492e-01 -2.618331362727695510e-01 -1.125544101931217622e-01 -5.967816133340340112e-01 4.280621231663287451e-01 -6.345092915464644046e-01 -2.266123755478847424e-01 6.203692836676911737e-01 4.049007287059656068e-01 1.777713722977725119e-01 4.991771609595236497e-02 -6.675095764339695759e-01 -4.761322622266685456e-01 -5.165582484843498356e-01 4.890947004626630679e-01 6.016550039719223975e-01 -8.541491492082350367e-01 5.122742806138793625e-01 2.173322738538900345e-01 -3.923653660103793572e-01 -2.619917057639847280e-01 8.523333928413012739e-01 3.780427336450115083e-01 -2.796244125833874938e-01 -4.594656721399866250e-01 -2.527668217909785353e-01 2.473850716012754025e-01 -1.541957780660163368e-01
6.377474875877872096e-01 1.551093284229886071e-01 7.595799299816955452e-01 1.462010476372719858e-01 -6.701740741133768164e-01 -7.363651704589944114e-01 2.289573239349836434e-03 9.461822804405949361e-01 -4.961713095744240132e-01 -8.435644650126837563e-02 3.595853148430491197e-01 -5.920921691876905868e-01 -2.984746829333873031e-01 -6.391271542516502313e-01 2.477128342598901578e-01 8.384894005919858451e-01 1.795770674403269485e-01 -8.309671207274356430e-02 3.478974289239712414e-01 2.456354873249939064e-01 2.497247599829493236e-01 -3.796766688145243873e-01 -6.882750031122371048e-01 3.194755226901079270e-01 -4.417963835257026073e-01 5.094022083026011893e-01 -4.576796146894681616e-01 -6.671501590788653235e-02 -6.023264334249562868e-01 -2.410347233274780510e-01 -1.684504595294125384e-01 2.602221991585418337e-01 3.873568789590461914e-01 -4.895580812780461755e-01 6.636031592594756820e-03 -1.536299124821383921e-01 -1.251933223279694807e-01 -1.290925296252236690e-02 6.885313860679861397e-01 7.746504093309862782e-01 1.797854139992667299e-01 6.570014595883459929e-01 4.905510381952789545e-01 1.936082436959611353e-01 2.928763462804831463e-01 7.631856774486139861e-01 -2.982270652193712013e-01 3.573113401718230331e-01
3.866030037763482086e-01 -2.730572826159306521e-01 6.356575574051807065e-01 -1.610011627159926573e-01 -4.994761780260349726e-02 3.824830112081891720e-01 -8.184074004592156726e-01 1.909661379272871717e-01 -5.159855504920600744e-01 -2.809843575036147789e-01 8.130116158777578317e-02 8.557985833830801248e-01 4.881730275086679227e-01 3.715719974990063790e-01 -2.572141490588277790e-01 -5.871315039936957358e-01 -7.257467937816902692e-01 7.397078604960901638e-01 -2.480200649684632941e-01 4.027498629298115751e-01 -4.745091138392362184e-01 -7.468497499504428427e-01 -5.609696548749361876e-03 -5.232100200846683258e-01 6.869432888405745397e-01 1.507398907517747133e-01 3.615216426877903011e-01 1.258588782230247449e-01 6.939549347972517879e-01 1.132444206094816302e-01 -7.296051936911013280e-01 -2.371776230960753185e-01 7.029644570332848064e-01 4.316199869198213135e-02 -9.249760988507689866e-03 6.770723083660750152e-01 -8.966287935346842763e-01 -5.624356340428953160e-01 -9.848550029936224970e-01 2.555049232742541698e-01 -8.499426132990439697e-01 5.441934966048759398e-02 9.397702327996695360e-01 -5.825904618999526718e-01 7.439997355995978667e-01 3.097230344683813419e-01 -1.660947136560768367e-01 8.294800502433026246e-01
6.020049787622713255e-01 1.200187658083922276e-01 -6.722791356930868378e-01 9.031216259095371512e-01 5.405320819272466659e-01 2.560790917420104409e-02 7.600026404248284573e-01 -2.653268963966843308e-01 -4.935703691407721805e-01 1.080041453903119564e+00 6.524150500620504167e-02 -3.305424680676875560e-01 2.698955677209879944e-01 -2.499401485538567391e-01 -1.415964808413453790e-01 -3.749488536356251345e-01 4.718308773238043541e-01 4.473625954202517518e-01 5.412761921769742024e-01 -9.059325217291983590e-01 -3.925656329118000776e-01 9.381228664187636346e-01 -9.132829072536434722e-01 6.124426912548919244e-01 -2.976744749226943321e-01 5.691550055712133460e-01 9.580407674712673738e-02 1.424400481204970148e-01 -2.260038687783192390e-01 -5.470468387313542902e-01 8.575477762657051084e-01 -8.333618284702095647e-01 -2.154917649489061227e-01 1.342041327446779342e-01 3.421644749451955292e-01 -6.631120054504782702e-02 8.155875784593725752e-01 -7.296805049735388682e-02 -5.343514974751849556e-01 -1.005982384292778864e+00 7.522628972766157718e-01 -6.019372149166506147e-02 -9.901111058484769467e-01 7.622885257454511398e-01 -9.211952679046426784e-01 7.906575225773223581e-01 6.967804069645066045e-01 4.826491939297889999e-01
7.908759563344827659e-02 -9.533103844285754080e-01 4.653723969385485937e-01 -6.807644302107163092e-02 1.374370030379735153e-01 -2.321164684878105622e-01 6.131348419950614081e-01 7.088179549407709334e-01 4.460171519660208750e-01 1.789749897354440608e-02 -6.528723855156078892e-01 1.783595081943378236e-01 -5.052718950428989469e-02 2.477130453021111067e-01 -3.878004891208222671e-01 -2.860639755468653567e-01 5.273783148408538457e-01 -2.238819474762327177e-01 -8.902967331791381556e-01 4.889018376901778096e-01 1.276369040686642711e-02 8.007433249512730944e-01 -1.488137606254900103e-01 5.228693593067864631e-01 9.626960863974295401e-01 4.429651008981097537e-01 4.324447609551813204e-02 -7.534713841959488345e-01 7.166266317292887544e-01 6.906845982367247894e-01 2.615748810662417712e-01 -2.706981869514391015e-01 2.498161956877464340e-01 -9.658276562561425582e-02 2.105610694087711732e-01 2.315827017056203696e-01 -6.731903172615533171e-01 3.168977200515938342e-01 5.472774279571424039e-01 -3.003624914718335814e-01 9.613089727717508137e-02 6.436237122546933920e-01 1.738144084134606859e-01 -9.314952767396533773e-01 -5.776408034449623807e-01 6.493976851497322567e-03 -4.425417546488545351e-01 -8.204707601624658952e-01
-4.740634736193008458e-01 2.093803272458938380e-01 -5.189162690351452056e-01 -6.014867830556789308e-01 -5.976916787190991176e-01 -6.423935181956054175e-01 3.651176320037347600e-01 3.913108735276585870e-01 3.608180314987745607e-01 5.083949340043184550e-01 -3.252130958477914002e-01 4.287409961385122981e-01 -8.203429383269699171e-01 -6.739466761164690789e-01 -2.487118341324673354e-01 -5.416035286050194797e-01 -1.088832935331371654e-01 -5.113460102470369639e-01 4.050527523424307663e-01 -8.518684440186982121e-01 9.775136433732767305e-01 1.106455067511115664e-01 1.544986832905017871e-01 1.063529826697824365e-01 -7.588248280811257240e-01 -2.326783614707978176e-01 3.869767326118745965e-01 5.203810745212977817e-01 -4.985306560387591790e-01 3.154767462856510329e-01 3.277223784118197258e-01 -6.129651962850453106e-01 4.934428052388484254e-01 4.296723338950163562e-01 -5.505616446953531806e-01 -4.341201742638892136e-01 6.423535084893891023e-01 -1.245291995119226919e-01 4.175357701015085521e-01 -2.224496748572155069e-01 4.314965758340386093e-01 -7.848330003568446678e-01 2.741640192461948788e-01 5.678516957624367700e-01 -8.862757833108935168e-01 4.182674037238856557e-01 1.204184025715953343e-01 -1.789438980043905891e-01
-7.419378716833757714e-01 5.113107164188891440e-01 6.220084057452038850e-01 -5.006830309206349305e-01 2.887891578512071789e-01 -4.033144497496370384e-01 -5.193568204576090030e-01 -6.812945788063639041e-01 8.048509949028413712e-02 -4.978778660000058864e-01 2.382248381856508224e-01 -3.178384413254878860e-01 3.986270898297338827e-01 -6.249136137920949796e-01 4.790275428590669016e-01 7.445374669322361028e-01 1.357514328123462719e-02 7.708368153995540650e-01 -2.771133481463493031e-01 -8.467252066657336707e-02 -4.119498691589652539e-01 -9.389655153634730578e-01 1.819477285980177494e-01 -3.410959936358056929e-03 -4.094967398536529801e-01 -3.012573623813589729e-01 -2.515413228764257769e-01 -4.557110189812872414e-01 -6.491735748013449658e-01 3.339109974605938280e-01 -3.000859299502745547e-01 -1.371064150167411455e-01 -7.415856021434371614e-01 -3.610731648400074545e-01 3.049331812494534069e-02 5.935782086839618277e-01 4.257799761164675068e-01 6.491131346391648682e-02 -1.284229031113645336e-01 -3.830740093079386677e-01 3.445361653124933698e-01 9.740349017731204928e-02 -5.144735712624320945e-01 -2.945403668438017486e-01 7.635590709889404915e-01 -6.469246038343208216e-01 5.234571973751718232e-01 1.669765650819470260e-01
-6.053557920574637041e-01 2.002051096007410706e-03 -4.358561292294020340e-01 1.530336476105998988e-01 -5.571183972861482037e-01 -5.536220580057444884e-01 7.371354212752445623e-01 2.752053775881477260e-01 -7.505479103212210346e-01 1.141445436906483257e+00 -2.695706998545965849e-01 4.624053481368337049e-01 2.152739363702017850e-01 -3.879234415750549836e-01 -8.008294577322326857e-01 2.506318588700356953e-01 -5.901368449309832842e-01 5.423580038780400070e-01 7.081708631573321311e-01 -7.544616632986714810e-01 4.425325759189934205e-01 -7.365961029860259579e-01 -6.153163569707864600e-01 4.621335583221961030e-02 4.537389236390571567e-01 3.172160351947292956e-01 -2.259919044875658145e-01 1.079950740388299524e+00 5.347347940388898213e-02 -5.013894952820531214e-01 7.341533797587346255e-01 -2.703430543833986732e-01 -6.514078940723158073e-01 1.592797272889902582e-01 -6.599443885862589232e-01 8.451498301678404823e-02 8.026071890884883819e-01 3.488759990212848133e-02 6.155864005681249695e-01 -4.211579741333972282e-01 -8.024239726294392083e-01 -1.480468980966121589e-02 6.831370604439152006e-02 8.378382390681968772e-01 4.086779999013449571e-01 -4.025526958934423916e-01 5.572926314243548118e-01 -1.571647599689295419e-02
9.130954521526686296e-01 3.430562959099169307e-01 4.885226398529619041e-01 -4.492301889355448385e-01 -2.634727135764631800e-01 6.166805049092624058e-01 1.294057352287803220e-01 -6.824338685567304941e-01 -7.052249312724081509e-01 -4.901665059835920157e-01 2.831738488091810613e-01 -3.280912110748441246e-01 6.187534330267038252e-01 4.792421715547218186e-01 -3.579758070537498171e-01 2.367818591167225872e-01 5.349973660869418168e-01 -1.144079060886250554e-01 -4.336362042778232340e-01 7.642210604121566497e-01 5.081199574559518428e-01 2.579866666998187896e-01 5.675628848125580106e-01 6.180463503900963662e-01 6.993291337245987060e-01 -2.717369435301921210e-01 2.754854387714918973e-01 -1.564169587998683886e-01 8.119946091196550420e-01 8.168313965659048659e-01 -6.050346266592385724e-01 1.958664200210842588e-01 -1.484156389603955295e-01 -9.003858490173457518e-01 2.073042705264108998e-01 6.405274480682396909e-01 -1.175652804132335305e+00 5.955263273370084987e-01 -3.846726589245322847e-01 -1.157746838328906624e-01 5.450927225576076562e-01 2.108123227022234702e-01 -7.862479506557501496e-01 -8.679712574765456878e-01 2.100940986455056003e-01 2.845887777213462755e-01 -8.163229600381161077e-01 3.703945251918746018e-01
2.324840571319180538e-01 4.272308917127087269e-01 -2.360837047708611858e-01 7.329588785569464138e-01 -5.086771456038009509e-01 9.569960517827905688e-01 2.463296486272437968e-01 9.908753600696503794e-01 4.628023751596195834e-01 1.029215911719325860e-01 5.321096938282654683e-03 -6.089064372682647663e-01 6.195057137811547099e-01 5.129993294941789239e-01 -2.354417623043998098e-01 -9.123931348004220565e-01 5.554864760314950356e-01 9.167595686643087438e-02 -6.269118475975601346e-01 -2.094157056169940745e-01 -8.623898700001822459e-02 3.931502521723498345e-01 -1.355192515937853059e-01 -2.425992544900994891e-02 -1.046934305315245367e-01 1.720159912128901569e-01 6.484738854472249514e-01 -5.360878587265252015e-01 -3.666466674215882460e-01 -2.415609348278784652e-01 4.541208784915804486e-01 -7.117293851873320865e-01 8.820387535634456322e-01 2.317303785896181745e-01 -4.661540730312905279e-01 -4.803660608031487533e-01 -1.056594460703938587e+00 3.078910063168159572e-02 -4.601088763966714179e-01 -1.974917956796557184e-01 -6.628876647981823966e-01 6.269031582767048416e-01 -6.765388842464009622e-02 -4.490140677116916668e-01 -4.313222489973750351e-01 1.237788394919511065e-01 -2.582175744889411151e-01 1.403757209850652332e-01
3.915601931456545448e-01 -2.624632237947974525e-02 7.860316500426930419e-01 -6.857125097634992894e-01 3.210168714717254179e-01 5.063570605593938900e-01 -1.008460569941512341e+00 3.834193218576564255e-01 -7.841462893899706632e-01 -3.548700917126400012e-01 -7.882543199634033104e-02 7.914794325658203178e-02 2.337014807630137248e-01 8.478867034499862898e-01 -5.516444523735723054e-02 -6.647325793314827758e-01 3.224359065565522986e-01 -2.230731415837472476e-01 3.780696913559755679e-01 -4.379276541417379542e-01 5.539123259685300171e-01 -7.158607857074528180e-01 1.990176321866021503e-01 -4.827457789352008755e-01 2.221186736142245488e-01 -8.925947534968133035e-02 -3.533692004399607844e-01 -2.134955176744038896e-01 -1.713376351027056932e-01 1.418341505527958013e-01 -4.274659578388199654e-01 -1.165709493038319250e-01 8.154089599762895380e-02 9.516299480941927680e-01 2.188313127297584759e-01 7.270651865701235339e-01 5.259341347366748298e-01 5.797986546230603500e-01 -3.881610307697638818e-01 -4.776808267172582001e-01 4.373539433104501328e-01 4.132432301804572772e-01 -1.209617538241581219e-01 -3.306942310555415210e-01 3.080723180289207108e-01 6.652072476038023430e-01 -1.517789298402359155e-01 -1.831657090915971703e-02
6.430242509647376981e-02 -3.611743275798072195e-01 8.392940706658892636e-02 7.299881370532906866e-01 8.834962727065314159e-01 3.731671650260203615e-02 5.787452309098202186e-01 -8.163891051666010146e-01 1.134138211847037225e-01 -2.952078547473528380e-01 5.429564193477400824e-01 -2.161171776853411663e-01 -7.932527027072951986e-01 -7.043793983425562510e-01 8.877353857155013683e-01 3.458632734809103382e-01 -2.321117275869624408e-01 -7.060820488973877929e-01 -6.373349177322659709e-02 2.463562903499483814e-01 -8.091469809531656177e-01 1.858750518424882175e-02 7.204772675743902344e-01 -2.742755865465665854e-01 -1.350748928704408047e-01 -5.954438615400089452e-01 -2.398205861782219950e-01 -3.278745704560536711e-01 -2.159666784438626363e-01 -7.305126232924009644e-01 5.505569993431944642e-01 -4.769715021824972451e-02 4.422702571712006647e-01 5.858915081543902836e-01 1.673784303555778813e-02 1.554543665419374776e-01 6.316030364065071678e-01 2.419877576884503848e-02 6.413643153252427398e-01 3.345504998387232587e-01 5.593222685153798057e-01 -9.359885744223059856e-01 9.475420003000160907e-03 2.890370426667163706e-01 7.413349162196368747e-01 3.594174155259453052e-01 1.599532190843639679e-01 -2.504917532583585404e-01
1.948021866902958921e-01 2.934457757776573472e-01 -9.824405833271734889e-02 4.656058167784812851e-01 9.189198953650420387e-01 -9.045578787519457098e-01 5.926244287825414847e-02 -1.359281373498220091e-01 3.081432453941229666e-01 5.495618513179065801e-01 1.119319371205531981e-02 6.908858211459499854e-01 -9.672393072024930705e-01 6.878951358136538019e-01 -6.707570072603401545e-01 -5.760070294363079935e-01 -1.224030837077122631e-02 8.633227477748536272e-01 5.629225458216192690e-01 -2.089312876393877583e-01 -6.987555428919561828e-01 -5.135691622053027983e-01 -1.193730766875052973e-01 2.998725070551629401e-01 -7.280913832878026515e-01 -7.256348928034679346e-01 -1.075010391653348218e+00 6.092095445167831080e-01 -1.201181930858220420e-01 3.043219222742423033e-04 1.412934397068429382e-01 -9.399932977206804097e-02 7.443783992266153060e-01 -3.608057259573192455e-01 4.861452643872946622e-01 -4.579851258634901057e-01 -2.816455905395642834e-01 -5.250475110901671183e-01 -5.875551006224191131e-01 -8.573484932085896348e-01 1.294233643004630285e-02 1.976008907338762388e-01 6.197497379902139336e-01 3.528358104341454138e-01 1.136342191916150102e-01 8.343986361618416225e-02 -6.685660359636255157e-01 -4.003985007372592442e-01
-7.242762714283275116e-01 -2.998106721291609600e-01 -3.075613619140735722e-01 -7.906831426463837298e-01 -3.102611058267842892e-01 7.930775170016508557e-01 -5.743806344970634470e-01 8.059941226155302729e-01 -2.432382767184052275e-01 2.766739199967037655e-01 4.530246890805340043e-01 -3.652226363678382492e-01 1.107783785123393150e+00 -6.241461620974650959e-01 -2.631287972699536404e-01 4.070216875981565586e-04 3.254703263200609542e-01 6.581042689653934241e-01 -3.084251118909591693e-01 -6.091911551798134816e-01 -7.534166009822537147e-01 5.990950432465026454e-01 8.255806862439756255e-01 -2.837121360371243073e-01 5.215758359708663194e-01 -2.174519300145674183e-01 3.313398948874579641e-01 -4.420191363604646789e-02 -3.490699722381863102e-01 -3.103454244511783533e-01 -2.214687925551697967e-01 4.784769447389132235e-01 2.104379590330508754e-01 -7.829269838136715398e-01 2.305612993363918839e-01 -8.389698433941149558e-01 -5.452724039188474592e-01 -1.340998533638403656e-01 7.416946369182156884e-01 3.684442694611086977e-01 1.702303980551419793e-01 -7.259377925750013505e-01 1.367528158024428342e-01 -6.879324789784193594e-01 -3.937808157548167154e-01 -9.288040641584647261e-01 7.289152975239613363e-01 2.053387344625295652e-01
-3.974990584011840467e-01 7.414399151696426937e-01 7.080928572306870450e-01 2.749799466991897923e-01 -9.391560208109949182e-01 -4.258063881416039864e-01 -7.348321711989703742e-01 -7.036239270822802760e-01 -5.703481805540431271e-01 5.550649414022067463e-01 -8.325091546862393166e-01 7.433762894090993889e-01 -2.620781300051305274e-01 -4.390286398341863849e-01 -4.155528787036652516e-01 9.987559214521929407e-02 1.591055025206793982e-01 -3.277690882806973821e-02 -2.041637630129413961e-01 -9.908332745613237513e-01 1.339653832210723206e-01 -7.617095780727044518e-01 4.813842487393524272e-01 -5.730984444737275973e-01 -1.197526564826347367e-01 -9.280486413379802624e-01 5.240294872336395127e-01 -4.890957077430646005e-01 9.276298989167874876e-01 3.205678699891349459e-01 -5.989793771868797689e-01 3.441545336500659857e-01 -4.265627925264844911e-01 -1.486627914727869371e-01 8.404339156430941093e-01 6.073655984692688525e-01 5.830584467805544069e-01 -2.092192702840023621e-01 5.681961792981592430e-01 -8.443366601080398715e-01 2.629786298482452156e-01 -3.756579418673773318e-01 -5.920250471404557568e-02 -6.690167141480456436e-01 5.010888538030849187e-02 3.159517267794396678e-01 -7.253018362447760659e-01 3.360232395576836506e-01
-4.246221769757415609e-01 7.180144066641650502e-01 -4.894785359752046872e-01 -2.619361724604938324e-01 1.904472335173304220e-01 3.052312413913242928e-01 -1.557311567390075036e-01 9.597825379309296023e-01 4.849260708265886594e-02 -2.412527049793240230e-01 1.422308143232765831e-01 2.892548863700092898e-01 7.670631549441534469e-01 -9.138020045378937306e-01 -4.456982325962487446e-01 -6.252178602286341536e-02 -8.347995916168168273e-01 2.299943426595763285e-01 9.077054006490321569e-01 1.533319767550348212e-01 4.790650658612008450e-01 9.441762526547395895e-01 4.566649950130968749e-01 1.472248345340972098e-01 2.763632186067142560e-01 2.053048087329343019e-01 4.616784479433327371e-01 6.470122766068794329e-01 -3.062534202263046956e-01 7.963829998110104613e-01 -5.776593564526585345e-01 -2.987922342012598320e-01 -7.949795340457724291e-02 -1.114073497360216353e-01 -9.201725008315740917e-01 -3.089978196283331077e-02 4.423357287540957139e-01 2.471863908497853868e-01 -5.188681742884037051e-01 7.098803781120558432e-01 -6.541372552901633108e-01 8.387552843309532824e-02 -3.555048514598994625e-01 -2.164947619617748065e-01 -2.147280187348034053e-01 6.518479444605286277e-01 1.098572241038585418e+00 2.211041482075787046e-01
-2.551381229602548567e-02 -6.086630242360443477e-01 -6.344279780994528141e-03 -2.683069882521050276e-01 -1.201992841257910893e-01 -4.046902230886894603e-01 6.608553571605437771e-01 -6.013650638888821121e-01 -8.825421854896722262e-01 4.109882992106353994e-01 -9.558239649760111659e-03 9.632537156532838818e-01 -8.795852457963839743e-01 5.854651788778613142e-01 -1.593621642898125634e-01 8.638524958767417328e-01 -6.601967557271296583e-01 1.349305528352193750e-01 -3.360296456180024705e-01 1.203993469468806615e-01 -4.641530872766316818e-02 -5.139350947355412202e-01 1.238874100615559581e-01 7.773511002986203122e-01 -4.481334610197498791e-01 2.344401505629789273e-01 6.373233746472007910e-01 -2.064445135201667392e-02 3.954934108393460268e-01 -3.325521472778006360e-01 -1.870260601280336332e-01 7.205553172079891544e-01 3.413714269493186571e-01 -4.311452323681305709e-01 -1.036958956840666968e+00 5.767709604018312897e-01 -8.661470693466255533e-02 -6.798970806816804213e-01 -3.306947232509067081e-01 2.315550728068288266e-01 7.021771255740147932e-01 -7.069125852136283195e-01 -4.049765044543114367e-01 7.880380146568837230e-01 -6.855871561814350645e-01 1.036206104925435190e+00 -2.219358057258281058e-01 5.295230644389377073e-01
6.669312161478654910e-02 -3.844432169395725074e-01 -2.866949327090642652e-01 3.354426526939606745e-01 -5.923746293935310270e-01 -3.391816933658768352e-01 4.298240207344649066e-01 6.527329430864700077e-01 8.161083875083557926e-01 7.115018118623185790e-03 1.365556828385361132e-01 -2.006290260747088661e-01 3.650110966695130355e-01 -3.533258612165939283e-01 9.459938520433476550e-02 3.808745952645479771e-01 8.797043499457144478e-01 9.987098188429233137e-01 3.030408893052464747e-01 3.614232159180386095e-01 -5.732890182668999302e-01 6.416514040894083504e-01 -7.706851302323260988e-01 -3.670526389531731382e-01 1.789832531762421408e-01 -6.407872161954229762e-02 -8.336918125709605887e-01 5.879987630216434447e-01 5.002367913084383444e-01 1.288427537553552271e-01 -2.212858015044847082e-01 4.476490224038898735e-01 -1.548339687047471935e-01 -1.012408953140263301e-01 5.457279429259372927e-01 -6.165361451766936396e-01 -5.782641045832574989e-01 8.239978798414183958e-02 3.117261857529791125e-01 4.416799216084644764e-01 9.412363164162218521e-01 -3.484400554343739520e-01 -2.581199272967713565e-01 -8.304529771754707301e-01 2.773818921500778023e-01 -6.101275007453009769e-01 5.638674335462809939e-01 7.911721865029480716e-02
-6.760327445492028686e-02 4.552827931752017609e-01 -6.881121227075915892e-01 -2.164285659240334225e-01 4.177622900086699204e-02 -1.170130085208283544e-01 -8.476741915974155273e-01 2.367432131431923825e-01 2.714730815895134985e-01 -7.849004549094847905e-01 3.806790940370993054e-02 -8.896388645813605445e-01 1.693835195936828353e-01 -4.301583857867601335e-01 -9.199381868132859574e-02 -7.251020341837751682e-01 4.002082013199326216e-02 -8.254315856893141845e-01 7.037944925054090417e-01 -1.802388653718063269e-02 -4.728809593447851900e-01 -6.465123422199507974e-01 8.856152997087775036e-01 -1.266362005523721246e-01 -2.390248975764338868e-01 -2.802398125113911287e-01 8.843310602800151521e-02 2.841142375867023451e-01 -3.530205750638394924e-01 2.047467385049107913e-02 4.798568750168974439e-01 -1.354543831803795007e-01 2.406723853901538424e-01 8.598141182878187017e-02 4.471416506132730451e-01 -6.981601890279330869e-01 -3.744119629923688408e-01 -8.416940179854667248e-01 5.694488601479917866e-01 7.197350378565571249e-01 -5.374691871074372962e-01 -8.141944667080500131e-02 -3.280133964131740770e-02 4.817164358901290244e-01 6.644030061212979898e-01 2.570682224552685025e-01 -2.062362859590611830e-01 7.540766103451755908e-01
-1.936428653250557227e-02 -3.016481526378027023e-01 -2.729566549382199669e-01 5.079762624139310123e-01 -4.170255695969209420e-01 5.639016523271452863e-01 5.921523995510029614e-01 1.736170767330279530e-01 -7.839942031733934669e-02 3.499306615249785091e-02 -7.319484071947377490e-01 -6.181198607617618412e-01 2.405710729801769643e-01 7.035271884953636645e-01 7.870600694418432575e-01 4.598950143402560919e-01 -2.922694840698467078e-01 8.697511793728888163e-01 4.752692631784748434e-01 -5.104127290094054858e-01 3.458770370932602589e-02 -1.062018139578314591e-01 1.033659601305296771e-01 1.907299894064308499e-01 -6.582776445350265737e-01 -7.020682502490226407e-01 -2.787855859250034651e-01 -3.869642999102797520e-01 2.583100459572124641e-01 -1.834593970702936838e-01 4.517246253778634535e-01 -1.410188742605885011e-02 -4.849027474475267052e-01 -7.760651170677899113e-01 -7.327298804901827278e-01 -3.412625175220128093e-01 -3.897304437678104638e-01 -4.089656834289955301e-01 -1.220817338381754436e-01 -8.375592633894932693e-01 4.920075231321098252e-01 -9.360904864094919953e-01 -6.978898489164683250e-01 2.844993446481198229e-01 2.290453807404026765e-01 -3.381828137339590312e-01 6.666092050258350943e-01 -2.072233999590955555e-02
-1.069757271584888397e-01 7.591489925547009188e-01 6.505742609850837521e-01 4.355286616027377322e-01 4.062661785803944881e-01 9.524461243124106025e-01 9.113351487501866743e-02 -1.580747178169822631e-01 -1.336214599865585273e-01 -6.146671714005149528e-02 2.653585040372170509e-02 -2.800380012387375731e-02 5.328372498508702204e-01 -6.098918312065419040e-02 1.549870368997660341e-01 -5.090682863596848184e-01 -2.746401442847662411e-01 -6.607812770333159058e-01 -5.963423893928733177e-01 3.283364233484015737e-01 6.065904695423367521e-01 7.007738427914779189e-01 7.133051163533905559e-01 -1.100679073000254249e+00 -3.343562497167312242e-01 9.427903870190146307e-01 1.662574517038972743e-01 1.885782424484244435e-01 -3.801796642458724618e-01 -5.429633343961164371e-01 -9.507113244623412174e-02 -2.174689383969519718e-01 4.876336672524828053e-01 8.734139013964865583e-01 3.268366707647949593e-02 3.889251412571717026e-01 7.694715494803569533e-02 -4.649953587646808995e-01 6.788836867206509140e-01 -8.464338306736135520e-01 -6.054794949282281680e-01 6.920249846856147968e-01 -9.802145635364724330e-03 -6.358201453825155225e-01 -6.435612269385362350e-01 5.946171336651658867e-01 6.518347985969572544e-01 -9.787054322300917653e-01
6.647143211449587641e-01 -8.157472161804807387e-01 2.996002152133661611e-02 -9.341519168788670058e-02 -5.352406457745279011e-01 8.147761405195170781e-01 5.314246662381600927e-01 1.740755598701792528e-01 -5.856778530294308727e-01 5.772929733632572308e-02 2.275695442945860070e-01 2.343312336536930995e-01 2.204647094239485794e-01 -4.049383288967219885e-01 3.972276378464405511e-01 8.196172242667729702e-01 -4.437943612124057302e-01 1.171053509244429636e-01 6.890904431967040944e-01 2.504888840478902701e-01 6.781129855395083839e-01 8.328264236212595817e-02 1.075296880326072346e-01 7.954809134068959731e-01 -4.347100169548615556e-01 -7.141055140000539536e-01 7.275402460327632381e-01 -2.054323572537641307e-01 7.886561455946019539e-01 6.360065659338878241e-01 -7.084899441154920430e-01 -8.641961382698633287e-02 -1.554905186774800663e-01 2.497958144446193185e-01 8.285647527669415258e-01 6.746465291802029585e-01 -2.471702308033600082e-01 9.135591002465448529e-02 5.189228040621869376e-01 9.954852314844496730e-01 -3.840254744232377559e-01 6.061640813443991416e-01 3.033289317347465652e-01 -7.665433026763307511e-01 -2.146780829321061346e-02 1.050724837119584032e-01 -1.011740681745634474e+00 5.398382510944383511e-02
-3.777342322245859640e-01 3.818593398012334189e-02 -2.073711780624080681e-01 -9.491370225691746487e-01 5.811932050279715600e-01 7.986813304547414338e-01 2.775474499732499822e-01 -8.064940801563468264e-01 -4.303699108761629422e-01 7.192815939565060379e-01 1.158619737597993138e-01 -1.823773272342252005e-01 6.835585893211475195e-02 -6.789605081667139386e-01 -2.846129489593303141e-01 1.646658931239883272e-01 -6.208521946912682887e-01 7.885450666188162927e-01 -9.625712094484558667e-01 7.285776100942507050e-01 1.332816979731531459e-01 3.345222014792989529e-01 -3.880335116481212765e-01 4.470406100720384357e-01 -6.441877654538731290e-01 8.965205760039938188e-01 2.994462065214598123e-01 5.525931494436833180e-01 3.367331075167013243e-01 4.236596974079999134e-01 -9.345870373069814496e-02 -1.943045870098203676e-01 -8.695600422152248710e-01 -3.405720914310816916e-01 5.887075257211386858e-02 -4.823794433546342297e-01 -1.590285133042865576e-02 2.568014167319743191e-01 -6.287080092137875553e-01 8.244782893842262927e-01 4.118918266261695216e-01 -8.076517599536654768e-03 5.180206822146109502e-01 -6.796354884116447836e-01 6.810907820311440375e-01 -3.640174259378351485e-01 -6.466833362096450211e-01 7.369761746769031285e-01
6.347982126591515950e-01 -1.814403198874708356e-01 -2.809947693810065927e-01 6.482940939695027716e-01 1.895950167409624987e-03 -5.458118698006015901e-01 7.337994523693771587e-01 -6.024791474227535470e-01 5.771649523477667687e-01 6.916531381418028479e-01 -1.660491410685056568e-01 -2.517555633739162468e-01 3.832763709306077904e-01 1.567067923647141314e-01 9.391326036972449387e-01 -7.291055845875066277e-01 -2.198175245787614140e-01 -3.246912808412263374e-01 -2.881702815663031089e-02 -2.700175328367221961e-01 -9.242787614435306331e-02 -2.330171121826315750e-01 -6.510336374109473301e-01 5.018434886998606181e-01 8.880009955954787371e-01 -1.687211407484162651e-01 2.945922763813943468e-01 3.436131537423662285e-01 -8.267392764468387556e-01 -5.840674620270496220e-01 -7.818040203790126430e-01 5.842589182257369451e-01 6.357213478152866637e-01 -8.078654929196487089e-01 2.046288190198022883e-01 4.746337733002197190e-01 6.960116600212232774e-01 2.450644855602464312e-01 4.252769740348885663e-01 -4.464103512763025194e-01 -6.524053462489485256e-01 -2.254548539379970795e-01 -1.108833127873566138e+00 6.156672579682983537e-01 7.295758655190424102e-01 4.063366609739026414e-01 -4.128882177411844490e-01 3.906025853789720226e-01
3.376129520385839911e-01 -7.856773637283606671e-02 9.579639338111832769e-01 2.433881330314218994e-01 -6.112470135911286101e-02 -7.891925130588607340e-01 5.309090980217648359e-02 -4.539283559777749777e-01 8.363507664755238658e-01 -2.996340345707441677e-01 -6.897259957792692964e-01 3.700762593091785901e-01 -6.341531499251255033e-01 -6.020810704804868685e-01 -8.899627485644799885e-01 2.035693943375623538e-01 -5.723423292329764961e-02 -5.649917084321588456e-01 -3.913101262879495335e-01 -4.975432014402176861e-01 -2.236070523993547721e-01 -1.755448500904070383e-02 2.408522052295570259e-01 -4.969806053214255726e-01 -2.076379507105512723e-01 2.470133742660610421e-01 1.597103948488299008e-01 -3.875571661813258517e-01 -4.516654539769650034e-01 3.302189744479848144e-01 2.469259206306176069e-01 -5.666599666574930749e-01 -1.367022240556472479e-01 1.180708253920740025e-01 6.207231250376881171e-01 -7.091676835028778436e-01 -4.982844436273722311e-01 -4.530368475874639866e-01 -3.034556393987805634e-01 -4.820802004285851816e-01 -2.393671275170582424e-01 -6.462978556900107474e-01 -1.853497737524174849e-01 2.597449547776957690e-01 1.828635347625472696e-01 -8.083966863988273355e-01 -5.175166077874713277e-01 9.145878329501242465e-01
-2.778821129012337132e-01 9.232496361316007427e-02 3.642720045822357526e-03 3.002528661662929102e-02 -5.076509793902662659e-01 5.658382972736255567e-01 -6.101082295629328689e-01 -1.939323217477365024e-01 8.650351295605539503e-01 -8.354724096757150109e-01 -4.513974706690399713e-02 -6.808142874650928711e-01 7.339018231711524898e-01 8.628401832253096426e-01 8.613941867828799337e-01 2.672676391505268700e-01 7.496291237196861523e-02 -8.815348554478665832e-01 -7.740842034542303463e-01 -7.504431442465228086e-01 9.343047925497386386e-01 -5.058521930302544156e-01 4.339446567100402885e-01 -2.980514349156634935e-01 -5.365323426565653531e-01 -2.287672970892698499e-01 1.507049118050812209e-01 -3.734282106932149681e-01 1.053913439675326025e+00 6.008925809624243719e-01 -5.900944457607087967e-01 -6.240457905913406877e-01 7.796167923344701212e-01 -8.399742259591120863e-01 5.216139069614134094e-01 -8.176773162978145937e-01 1.960155952697916620e-02 -7.029777209047406439e-01 5.480825727811355907e-01 -7.152052556477362932e-01 -1.976694149106098808e-01 8.763633473065993162e-02 -5.239017228174502883e-01 -6.583983065568935755e-01 5.022382669862747173e-01 2.485859772647439347e-01 1.049907433850782335e+00 -4.023141856873555522e-01
-7.189123095746864367e-01 -3.201453357216997864e-01 -3.899756513083170728e-01 -7.913270904555114171e-02 9.228257555549781999e-02 5.504565602545409275e-01 5.484506908379853662e-01 -4.713881949699393892e-01 -3.076146429242950231e-01 2.729098776457416359e-02 -8.263632532371170125e-01 5.611802677158201913e-01 7.345517914520002245e-01 8.546934210774431717e-02 -4.097023768036744257e-02 2.449728348071267825e-01 8.869739243707228105e-02 1.371878004853243349e-01 4.015072277272941359e-01 -2.129112292727415590e-01 9.098832022652150742e-02 -1.975589158410380741e-01 3.733003605805972902e-01 -5.872950410302729685e-01 -3.546440794569347688e-01 -8.456778494977361671e-01 -3.440356079130330591e-01 -4.663407541334098627e-01 -8.501132573780018076e-01 -4.416090064645071811e-01 8.008151536501629808e-01 8.481203854129178987e-01 -5.716090749909423785e-01 -1.736530997214486560e-01 -4.422391477873727911e-02 -2.849367468568224093e-01 -5.591762388326668720e-01 -5.591838995529048173e-01 -1.671993383191908156e-01 2.977656621279430871e-01 7.299745542946666221e-01 -3.223163060988554762e-01 -9.197042572269817917e-01 8.316023123417292107e-01 -5.545200346159937510e-01 -6.815196638514551264e-01 -2.003218012919548430e-01 8.161550898353427952e-01
9.237297283821532812e-01 -2.578144488958676872e-01 1.590229619583088949e-01 -4.539148560132648669e-01 5.685081949029464621e-01 -7.412730769474006332e-01 2.726880397948831108e-02 -6.148572260001602952e-02 5.956441618656749259e-01 -7.086202127035228227e-01 9.088942587710729937e-02 6.804733995661231827e-01 -6.656724649986168751e-01 7.573461416902806109e-02 -3.045789417235403307e-01 6.806741108320424338e-01 7.936001154549430225e-01 1.877981029874760954e-01 2.726887401984380288e-01 -3.191591246815883576e-01 -6.160060487342523539e-01 -6.495692862922370914e-01 9.190955390325701302e-01 -8.770692851342855312e-02 -4.572187151030903118e-01 -4.327968522146420915e-01 -1.704118399099426862e-01 4.297003269059437303e-01 7.340844609742499527e-01 8.856964763167581856e-01 4.018587566484007473e-02 6.315167154061026578e-01 -5.763831785037133448e-01 6.209673283971718361e-01 6.455536356550377608e-01 -8.812855499494042233e-01 2.010409556553852464e-02 -3.101374909579803218e-01 -3.789327626194297638e-01 6.506248916532072490e-01 -5.648299459784023036e-01 -8.646900101722268528e-03 6.417796385918765889e-01 1.268553826089105496e-01 2.388135574911975367e-01 2.530853909367574706e-01 1.068295392264985377e+00 -9.279288628154704899e-01
-1.600045621480711833e-01 9.951871147496885728e-01 -9.895939473049944479e-02 8.063862596522246573e-01 -7.028640004526290896e-01 -6.047456279720763161e-01 -2.156587174398823803e-01 2.410048348097866555e-01 -3.052692280860715424e-01 2.015225795390955532e-01 -7.611198644833695459e-01 -6.555465199622858563e-01 3.603486347817241864e-01 -8.963359188307684633e-01 1.035914438962570461e-01 6.680479436916558766e-01 -3.821897449331197461e-01 -4.179763785763312423e-01 7.858360205139633958e-01 -9.441022637753637703e-01 2.158046122973456549e-01 3.871439776509238290e-02 -1.876798464797145849e-01 3.649695242269312967e-01 2.606603779628144935e-01 -4.351559239949404634e-01 -3.046603838621935734e-01 7.848826422040626749e-01 -1.035724808509740802e+00 3.822522139108840145e-02 -8.008038116485867164e-01 -3.393128231896903046e-01 -8.203932319937091711e-01 -7.247583610528873788e-01 -7.893697979261611319e-01 1.136899418164544762e-01 1.875529330321795418e-01 -4.725125776396700283e-01 -4.762291439088883749e-01 1.300502450496465734e-01 8.106674700053978500e-01 3.263846134318776904e-01 -6.980758672504359108e-01 -3.835714338234457732e-01 -1.661970181624932430e-01 1.458517327112968665e-01 -5.657194042057201999e-01 6.242241323606894099e-01
-5.788176742014814469e-01 -1.418005829974404441e-01 5.099979972688238605e-02 5.222750122895530867e-01 2.240000459677636002e-01 -2.626198099023946061e-02 4.088940394544204882e-01 7.677594492727182196e-01 1.385066134477002942e-01 1.859782267865845995e-01 2.439224358763415201e-01 -7.178284810530466582e-03 6.801833531410901301e-01 -6.741892375910766289e-01 6.735720822350403925e-01 -7.238362703999422498e-01 -5.431775289477887014e-01 -4.816006549458959896e-01 -8.552883725363732426e-01 -7.964705397813109933e-02 -4.695852212365791423e-01 5.815744126122884827e-02 6.339734627505382303e-01 -8.532017834713463422e-01 -6.247700320584091971e-01 4.437188307480565697e-01 -7.612962535467503178e-02 -5.093144871163911569e-01 9.344258731655474826e-01 -7.899047448378655467e-01 -6.156116579917686460e-01 -6.593458614792335748e-01 1.483906776924009685e-01 -3.795404780789822241e-01 4.082471445473501714e-01 -1.670386691765740617e-01 -3.989982970664475714e-01 5.620377297834595609e-01 1.410837243824148435e-01 4.887721193533379194e-01 6.867594247524244633e-01 1.400463674250440882e-01 6.802481279249508184e-01 -2.078288013342545482e-01 8.026490260295890411e-02 5.543062262407301155e-01 3.021671755399402137e-01 7.259474065097764051e-01
-4.983825252161885322e-01 -8.138775444991781516e-01 8.983470288076008670e-01 -4.522330038236926364e-01 -6.634418089775027116e-01 6.167698010568952727e-01 -5.319498921976530958e-01 1.907157810390298358e-01 -8.718833729403435706e-01 1.824313454461379547e-01 -8.612699926488051050e-01 1.981419409940400056e-01 -9.092610975008882379e-01 7.168705493752765001e-01 -8.950879563939035943e-01 5.628124762866486552e-01 4.961095292215561559e-01 8.108455307169805115e-01 -3.602441995833819410e-01 -3.621942823758359520e-01 -2.200441355789932718e-01 1.360089113513429371e-01 -4.743441968869245851e-01 -1.414176851254172473e-01 1.988248420038674080e-01 1.788718259177621561e-01 -4.118127186799239170e-01 5.628845248665357293e-01 4.928855127493146360e-01 -3.575035033399258100e-01 4.616182378997378266e-01 -4.958456001304083205e-02 -1.641115433842209037e-01 -3.148273125019749319e-01 -7.200539257090057266e-01 -6.245090339143331004e-01 -1.321916640623407857e-01 -2.613708738040371737e-01 -4.368420968630456341e-02 3.792678248214689241e-01 -3.545443581286490953e-01 6.202736385558091925e-01 8.831817630160068711e-02 -3.536027729200746372e-01 -6.237835875871875491e-01 -6.737034060846922578e-01 -7.129178604329801106e-01 4.119813293924026731e-02
-3.641306684110347525e-01 2.403609635943853851e-01 -5.559402936200141809e-01 -2.323141848796766995e-01 -1.796259168655333638e-01 -5.229707277197213899e-02 -8.073307490802346109e-01 -5.266196284007754747e-01 -3.070203816692054222e-01 -4.505250443918104586e-01 -2.040542372587304254e-01 3.189745860581628678e-01 -6.632626282336541168e-01 -7.743550460944205183e-01 3.419696988081181999e-02 -2.909188705076208928e-02 1.476621461882618447e-01 -4.276167007950663623e-01 -6.855170438032734959e-01 6.152987625402570604e-01 2.121984419818054302e-01 -5.274292093202891385e-01 2.960584744732956963e-01 4.827679478511875399e-01 2.553119907656970500e-01 -1.252298926309685090e-01 5.780603860317395926e-01 2.820306114980317691e-01 8.021778684846567753e-01 -7.933671118687074530e-01 -2.891682976195874555e-01 6.602572283548590049e-01 7.054224214545997684e-01 -5.791053228792064633e-01 -1.318471479976356282e-02 5.770255969514874739e-01 -5.237350147599394434e-01 3.429251286308179769e-01 -7.553354620932874186e-02 5.648988981800879827e-01 4.655166964749197223e-01 -9.151692968736041545e-01 5.669221397045194621e-02 -4.426164571156986915e-01 1.171747570872337246e-01 5.277191923768420612e-01 3.479484258175833400e-01 4.811389919007333371e-01
3.588719452693233114e-01 6.318780720009078422e-01 7.973653891614329581e-02 5.219539880775815321e-01 -3.369682551239899237e-01 -4.701542417575746979e-01 5.997334734524696342e-01 -2.637498480255335287e-01 -7.095092702412366670e-01 -7.158095931039978321e-01 -6.925244455978722957e-01 -3.505930641175821205e-01 2.591665153687534584e-01 -8.712634249219373128e-01 8.765898918757589753e-01 7.839770453010032059e-01 4.506938332191739449e-01 -3.999974524535338666e-02 3.489292976446581318e-01 -3.518044266783435514e-01 1.571197281878234375e-01 5.437868266355777580e-01 -7.945992092035718546e-01 5.183441694557503476e-01 4.957970282206454193e-01 -2.214895803267643293e-01 -9.683690442051068326e-01 1.121426727793466277e-01 -1.046228587967074769e-01 -9.429696817677397647e-01 -8.017813415343320038e-01 7.259185284411282524e-01 2.688788160945685957e-01 2.070160763495913769e-01 -6.981801249731515169e-01 -2.461588578571745900e-01 6.440647316178019777e-01 2.235393413589924494e-01 5.376349641193572948e-01 -4.388761094165800625e-01 -6.517307578438645832e-01 -1.855078972507891444e-01 -1.526461612744252072e-01 3.565719344856952966e-01 7.239571588658744172e-01 -6.456184843949100416e-02 2.382425360002893566e-01 -4.242193318982625527e-01
9.534680294957409430e-01 -2.850722934903004990e-01 -3.452690334555792023e-02 7.077887495829923714e-02 -1.428114370492745422e-01 5.010261274440221957e-01 7.107604727945976419e-01 -4.728918870281534903e-01 -3.771747676299867513e-01 8.188568115800766156e-01 6.201434076112384286e-01 6.286416772408452980e-01 8.126765351994094111e-01 9.526776416672015912e-01 -9.297213569943382216e-01 4.026991887241525014e-01 6.106525993542930575e-01 5.504390124619044089e-01 -4.108291701321283018e-02 -4.827734539008525505e-02 -5.116947821140238606e-01 6.126212281735370774e-02 6.983150115210667863e-01 -8.386896536736752061e-01 -4.008911690963326557e-01 -2.492013561157495616e-01 6.124445685182871024e-01 9.361144214786503159e-01 2.382086360362712651e-01 7.961309716620625920e-01 2.306174901712829475e-02 6.779501876541073058e-01 2.143958330951698660e-02 6.733442823413909872e-01 -6.083734857376279503e-01 7.619140835344242468e-01 -6.115266969881738568e-01 2.080602984419188672e-01 -1.764830976222757364e-01 -2.295360733886095961e-01 1.051285721560754727e+00 -7.844980231699155704e-01 -4.177334226770256231e-01 6.778083556809995081e-01 4.417798825526640383e-01 -1.826187502895551262e-01 -9.252478786085730489e-01 -1.773960866496581412e-01
2.103751398597754063e-01 7.658990822745014304e-01 4.392300793665262493e-01 -9.718997234147119801e-01 -1.826787419254438383e-01 -4.695351091074755900e-01 4.913226911219260029e-01 1.001513378874298699e+00 3.006504857064313252e-01 4.047816129580632527e-01 4.621164356612166846e-01 9.717697705014333165e-01 4.509276323347765486e-02 -7.209767614339839259e-01 -3.985570355307140877e-01 -3.874975439707261105e-01 3.404586304345642578e-01 -5.613512430103488604e-02 5.238658947657537368e-01 -6.100957017918462455e-01 -6.170649829434939754e-02 -6.959360046275201439e-01 -1.154265753337258144e-01 -2.506298981450143515e-01 4.197266948131359587e-01 -3.103480068512622925e-01 4.972597716994933137e-01 3.456731238642405390e-01 2.008341420145507983e-01 2.177593532558880218e-01 -8.378015786710456270e-03 -1.576680622092818951e-01 -1.418088138849223079e-01 9.348495786848194378e-01 3.041880875671167384e-01 -4.683184480871570576e-01 -7.877945627389464356e-01 -9.156438077285855570e-01 -2.462986612663241037e-01 -1.333490575801557221e-01 8.408680087541452464e-01 -6.018386166867730758e-01 -3.909019864045299442e-01 5.982242851297490116e-01 -4.068278317212722373e-01 4.832247548061920916e-01 -3.794717661143839349e-01 2.807215117312896746e-01
7.410786921155463336e-01 2.063071339767507950e-01 3.233278052297327426e-02 8.321247806420719595e-01 1.656436112474724276e-01 -1.548214785428557450e-01 -2.228475480237738227e-01 7.118161370902797991e-01 -5.488708909085143750e-01 7.012003522349107010e-02 3.669880443965232164e-01 -6.750161693201316426e-01 -1.250723332873255322e-01 -1.281094998249065683e-02 -2.387998544184082306e-01 -7.003213426416882159e-01 -2.288765992948672556e-01 1.222946364612241266e-01 6.267020627100643448e-01 1.918254221110198554e-01 8.391070954322112918e-01 -1.387312978418058784e-01 -3.491522540243653383e-01 2.789437687095650542e-01 9.203183030137354059e-01 3.316095374582119226e-01 3.510738501514581444e-01 -3.925812357586413448e-01 -9.057106310529514648e-01 4.646124783849010509e-01 -6.081835104368980005e-01 -2.281759959962780249e-01 6.823219382193921323e-01 4.510227329117985073e-01 -7.507251187064899467e-01 -8.770474673448334091e-01 -4.406404929338377796e-01 -1.566597254324549604e-01 -9.407827616460564535e-01 4.860124760971269442e-01 5.245929069150496726e-01 -4.762664234315482359e-01 3.315212134504859631e-01 3.425322241143976543e-01 2.159815598162497796e-01 2.706848792218553013e-01 6.494691329069999242e-01 9.815758032506001207e-01
-6.946799737208075864e-01 4.176084834891900521e-01 7.982114149954175342e-02 1.691899813984174550e-01 -4.068312781526771671e-01 7.385884581211733524e-01 -4.174390893662129343e-01 1.012430662155540340e+00 1.692528575901743604e-01 4.232382653849516285e-01 -5.257108490584563310e-01 3.824685914736942853e-03 4.075199516564325664e-01 5.113839600494862747e-01 -5.661515202261630832e-03 -7.240774800097760089e-01 4.619011943690223831e-02 -3.888596877600847823e-01 -1.865195460605251487e-01 7.585149336723939761e-01 5.338878805848258809e-03 2.621927857529267603e-01 7.902411708103723731e-02 2.580428313157500514e-02 4.391856866063002102e-02 7.146607722772824189e-01 3.815851935862853428e-01 2.866503300997989834e-02 -5.077242571566246143e-01 -2.310057976609979913e-01 8.678000591173108680e-02 4.196913620475440365e-01 -1.010551761933152770e+00 3.035829006472826608e-01 8.549810149233204593e-01 4.367057030869316847e-01 3.148869565648238500e-01 7.621240059793303601e-02 -3.750169087505598742e-01 7.046860258673983690e-01 -7.911713960618608210e-01 4.071224632428738915e-02 5.339403116374403790e-01 -7.163369830983999931e-01 -5.773905675831498829e-01 -1.389029372194222900e-01 3.899117223569152912e-01 -1.921035644709727652e-01
-1.456359786948347168e-01 -2.769173701085036465e-01 3.097922815859728285e-01 4.417323570537239341e-01 2.537722119945085564e-01 -4.687694941772848622e-01 2.317121193924311651e-01 1.936369426818883022e-01 7.275016371905979051e-01 -9.590429995420352016e-01 -2.702362591797525249e-01 5.677743832868494822e-01 -3.979245025330223617e-01 -5.288247486471587822e-01 8.838982626993728831e-01 -2.203267663661892181e-02 -2.237739913227063393e-01 7.885019547242640980e-01 4.591305556239191898e-01 6.114247697457211306e-01 -8.272595383262393298e-01 -3.884442131419417986e-03 -1.317562700332234327e-01 2.985289414335788316e-01 1.511025109997067573e-01 -2.570442451386149019e-01 -6.588015688592329111e-01 -9.146969457092681832e-01 -7.849206328244073827e-01 -3.021655271267394416e-01 3.500354957304601666e-01 -9.941311502295951952e-02 4.799177797336416917e-01 6.799233572630021261e-01 -3.923278465629880807e-01 -4.143240384613145616e-02 -4.464337433737300409e-01 -2.885547581043931831e-01 -3.308796406685042268e-01 -2.038452767535604560e-01 8.149757409166134003e-01 7.883344206695519496e-01 1.846400919403892449e-01 -9.436263749473622342e-01 7.999726502680132301e-02 -1.044549311141502318e-01 -4.085669799794771628e-01 -8.057341884581009639e-01
8.941466377366297236e-02 -9.094375048328025013e-01 -2.265521357453024465e-01 -5.512517090957278487e-01 5.115109498296187551e-01 -9.376287901116745482e-01 -1.710043611164274724e-01 1.008560638479360172e+00 -1.161758910751921753e-01 2.957788927107123378e-01 6.367357842595974260e-01 4.369031233280499804e-01 -2.115465422075471225e-01 4.557678661668195241e-01 -1.077289438090819063e-01 5.126029764075266115e-01 1.117097155026763877e-01 -6.900662614454143584e-02 -5.901215913916511013e-01 -4.289585337595926418e-01 6.956735771918898248e-01 -7.341053493570836030e-01 1.825220888267864716e-01 -2.574877208205682555e-01 5.860560922776960613e-01 9.208328524252108460e-01 5.405749366654241106e-01 2.753465633386734113e-01 8.176284645943358020e-01 -1.014201047457327531e+00 2.000700095069075091e-01 4.283322996403920446e-01 -4.520543382877080796e-01 -9.451938739567625758e-01 -5.930710037507428423e-01 3.684002556759368718e-01 -4.825775475865226594e-01 -4.066179327811983990e-01 1.614613971154238714e-01 -4.239681122197120344e-01 8.283349179609813540e-01 -8.483175639117921385e-01 -8.122243593745499535e-01 6.607334659742578609e-01 5.676547826702229571e-01 1.616382428768149970e-01 7.519722697781369147e-01 -3.195263031615823701e-01
-2.696947865875414796e-01 -2.158128868738865003e-02 -2.848840825663382925e-01 -6.048857787998667135e-01 -3.922093407220430539e-01 -3.672593111519692477e-01 3.993196614324238114e-01 -8.160266089506269804e-02 -8.351038124510067051e-03 2.325546188331726813e-02 5.327008668723698381e-01 -9.883222236995038434e-01 -5.122698914005041626e-01 5.277798796894719313e-01 -5.047939727417715128e-01 2.725033743800858721e-01 6.309408115560370955e-01 2.290207992940640203e-01 2.113494399280690106e-01 7.041167752244381628e-02 3.487496435085015722e-01 -4.503452341546678728e-01 -1.790500755359133167e-01 5.290663720639725287e-02 -4.321618861143270984e-01 -8.887342246760174813e-01 -7.130454599427401563e-01 8.889706711908876846e-01 -6.865853551211461570e-01 -4.571600603203053725e-01 -5.419415464934835835e-01 -8.797754971142921487e-01 2.331806378239469901e-01 -1.024472997182834133e+00 -1.245494567768006822e-01 5.152278173138875594e-01 2.264844997652651903e-01 6.464918220754366507e-01 -1.928667267415675179e-01 -2.947042926662316042e-01 9.544788580832376246e-01 -6.533924695493753543e-02 -8.051485714901819579e-02 1.285463118777146474e-01 -9.154522950087653488e-01 5.699497295704311073e-01 -3.331033271077738500e-01 7.896663271160753172e-01
8.340544583643528798e-01 4.484388213396159339e-02 7.510024761402065430e-01 -1.600388750493537959e-01 4.804257884597770145e-01 5.843680601105406547e-01 5.043047867774242549e-02 2.237352506227910653e-01 -8.296598323287067700e-01 -8.222179840760270864e-01 1.659284655224958771e-01 -7.348016942240634952e-01 6.097719700429712342e-01 -4.726120345273906453e-01 6.242971591690180677e-01 -6.355958446659790706e-01 4.534288087402034151e-01 -4.596233761279955865e-01 1.499062218488627640e-01 2.354766097436911121e-01 8.202292920262347353e-01 2.532137470208793983e-01 -6.369306507451018007e-01 -5.569629687911995530e-01 2.020416012380404913e-01 6.154701789657232025e-01 -1.601763900746429325e-02 2.837839185321697211e-01 4.388690264580496492e-01 2.974010231292469331e-01 4.505316478440386518e-01 1.064711849640361363e+00 7.941417321379107275e-01 -1.345909027655162737e-01 2.832629010165663708e-01 5.195847639205325441e-01 -3.139340448172449685e-03 9.960256409088137364e-01 -9.218126277280606073e-01 1.089231735511869553e-01 -1.872151641880901440e-01 -6.318880745879542626e-01 -2.949299671887892216e-01 -6.448403745120671882e-02 5.643133687166623780e-01 -8.716678197405381967e-01 6.830705689429215077e-01 4.639072410476431652e-02
5.844181499208313084e-03 7.672823547691035584e-01 1.610264111714364288e-01 1.169383140115779346e-01 4.816738457084613900e-01 2.732671379323597938e-01 6.614063644556307520e-02 -3.410737114868797049e-01 -8.700696039531086168e-01 7.141453409239826300e-01 -2.203785356650457550e-01 4.688688763010672167e-01 -3.405674997717560437e-01 9.672575724172649547e-01 -2.755282150794484686e-01 -6.863529608699443785e-02 -5.743019231629211685e-01 -6.219123064796061584e-01 -3.108061590579953015e-01 2.782269985776109414e-02 8.093722566909782312e-01 6.307692616187970946e-01 -4.515265137790577116e-02 -4.810871964079436736e-01 -7.050024068997691185e-01 -6.335900790891061396e-01 3.701392739161584178e-01 -9.152930675117094961e-02 -9.145333853145422021e-01 3.793975376401796384e-01 8.886627985491548642e-01 -5.862274945038077334e-01 -3.842659732456692456e-01 8.699169193029194780e-01 -6.928291073471894990e-01 9.882673344300180185e-02 3.764451002926756940e-01 -2.002652577186529448e-01 -1.181001070655876388e-02 -7.928914480429168909e-01 -8.403372478056263528e-01 5.216103943403462839e-01 8.410513818838549760e-01 -1.608724588767496133e-01 -1.001147812326038222e+00 5.175418151211750306e-01 7.345729650070140782e-01 -4.369854126378136527e-01
-5.522522608913028597e-01 1.167468550205439173e-02 7.026673037433452951e-01 1.466019895471386836e-01 3.710207721380831547e-01 4.470723517981747830e-01 -4.541103966730751784e-01 5.366913273850550947e-01 7.376995336765480582e-01 2.192351800936375751e-03 5.703973509134040443e-01 6.046392734745010822e-01 2.955672922542057490e-01 -1.087811134761709209e-01 1.833698056640262752e-01 -1.963471392118913694e-01 -5.069800953711174341e-01 3.572764501345368493e-01 -2.087205665400661270e-01 -4.238346595628399993e-01 -5.640822895275258153e-01 -2.567412609685074815e-02 1.995509421385156801e-01 1.892404465995270735e-01 7.720292749584578562e-01 -5.294983686466879780e-01 6.318176413389733348e-01 -7.804317724599362238e-01 1.573125142559386458e-01 -7.518481486477561759e-01 -8.418391699215439505e-01 -7.499132612527149577e-01 7.562139367540317014e-01 7.594265703857876471e-01 7.273930751724266841e-01 4.230090224600916993e-01 -8.196952866113137171e-02 2.609957352995334601e-01 6.906252587651402486e-01 -8.846763344063084400e-01 -5.888888383330961318e-01 6.484530928482143963e-01 1.712161584662692249e-01 -9.164091870426244180e-02 4.162658628556772239e-02 2.663728519855819710e-01 -6.621761352552877344e-01 -8.237622961842328007e-01
2.459115008082658413e-02 1.322180991818984741e-01 -1.919006505219102154e-01 -1.908607885448242447e-01 7.762979590815971553e-01 3.152403201277814010e-02 1.763275775635778642e-01 -5.298183941684188672e-03 -4.336734308852534768e-03 1.892511408614500346e-01 8.700844580828868136e-01 9.772828656150440718e-01 -5.804917765689098230e-01 -4.421284863435965273e-01 -7.442316879947525887e-01 2.174130279875840510e-01 1.721041900280628756e-01 -1.024271297271066139e+00 2.308302475212063998e-01 -3.192504050731188037e-01 -5.947161862262120291e-01 -9.030766060709873866e-01 -5.940583900941023288e-01 4.708968995130145552e-01 -7.062762971817960755e-01 4.435860803585280343e-01 -6.145406594274078760e-01 6.407429275755232023e-01 -4.693596307198397710e-01 3.041410335114964891e-02 2.255749222379861418e-01 -2.789100580779325100e-01 4.951625955366169562e-01 5.242727702071764417e-01 -3.392624561352064472e-01 -5.266835422245176312e-01 3.580440081855165158e-01 1.627482350760154350e-01 -3.475522306144535611e-01 4.507238092390712658e-02 -8.927188723143859583e-01 7.546597355269880625e-01 1.803521884917740903e-01 2.124177329168351336e-01 -2.904738460839498271e-01 1.648900799786966742e-01 6.086158562645523906e-01 9.664742368341329160e-01
7.149352154602184317e-01 1.339302946019261219e-02 -1.351514009230328495e-01 -2.952530687759081229e-01 2.119580099237390047e-01 2.800648861390576672e-01 -1.387966926528685085e-01 1.375609055066429609e-01 6.307652801813578014e-01 3.139141849931933459e-01 -3.148947268016237810e-01 -6.658781752796291142e-01 -4.667922475973076413e-01 1.000073132693600320e+00 5.838656659351480066e-02 -8.358874475002300297e-01 2.750201455806793316e-01 -5.200451701602741839e-01 2.758535909747575343e-01 8.555305843931413357e-01 -5.346832965861736398e-01 3.059620156801814428e-01 -2.406813337845358503e-01 -2.391610064522668444e-01 5.559737008522307178e-02 -2.891259785220737233e-01 5.613083961105717057e-01 -2.183221381874562161e-01 1.077213646169982386e+00 -5.411944535348118812e-01 2.950758649347781093e-01 7.675397699293466935e-01 -4.780912640020372750e-01 1.906057811040744454e-01 -8.492184193214962207e-01 -4.254911387890707164e-02 -6.068116823233214996e-01 7.827147338926391251e-01 3.829825157780603062e-01 -3.053980833683870855e-01 9.814979959545976351e-01 5.806153200170948159e-01 -5.044493358850956621e-01 -4.797487273895069682e-01 -5.161868925138500541e-02 -4.837547471187753634e-01 6.604734318083110844e-01 -4.679649602649377238e-01
2.869848674865617122e-01 8.377639055735651707e-01 -5.803618164691433101e-01 -4.511371655834360839e-01 -8.690718625877877357e-02 -4.500764682961670426e-01 4.365390070004451228e-01 4.228186577390264933e-01 5.625835857865865187e-04 -6.796263030517087911e-01 -4.795085457684269969e-01 -7.086183984462017804e-01 6.759101052386917718e-01 -3.536363403164290986e-01 -1.064229303599600884e+00 -4.764756165269808941e-01 -4.642041305865665657e-01 -3.549302645274671208e-01 -2.698563534977503897e-01 -1.938598008072259238e-01 -1.618656437478447341e-01 2.382535557277438709e-01 -6.655629322585700225e-02 -6.875858466038592409e-01 2.934438233646042837e-01 -7.852969898070715216e-01 -2.611536628538081994e-01 -8.642192657471752248e-01 -3.378659418562603434e-01 4.926039941770176678e-01 2.957989747251176249e-01 1.578070392826761703e-01 -2.027156633446709211e-01 3.252101650043277559e-01 5.605967790291949138e-01 -3.371139774193843835e-02 -5.133900535122727371e-01 6.942119924837728551e-01 -6.323755439694722646e-02 -9.836047461068602171e-01 -4.266835041680972496e-01 2.330457993219311463e-01 -8.276778902535090188e-01 7.149416324630670783e-01 2.605142952140835910e-01 7.467727970081737832e-01 1.372270382806882183e-01 -7.977104402896818547e-01
-8.092593801803980857e-02 3.726280416556783104e-01 7.613970062809524153e-01 3.201990108237385280e-01 1.099351475624082142e-01 2.179153914084699939e-01 3.575572606085980487e-01 4.900853364864316553e-01 -4.617779401058220712e-01 -1.535508104899203363e-01 6.439331156277433577e-01 -9.727547400716758386e-01 -3.975744396181568052e-01 -1.098365449530330079e-01 -4.348279269907486810e-01 -1.995838815622117124e-01 -2.835754738406645048e-01 -8.221192946963230552e-01 2.574387498534306262e-01 4.561807342954488642e-01 -3.363030891133370615e-01 -6.129366188251201830e-01 -1.619188139560079620e-01 7.811796246352346040e-01 2.301672656127309591e-01 -4.548809183409994183e-01 4.147051760957756184e-01 7.650588246169891526e-01 -1.353848366822970328e-01 2.184609778929215707e-01 4.700467251784622991e-01 -3.598792663479740694e-01 -5.002272397363092260e-01 1.265052419339374179e-01 2.899068222525085226e-01 8.328658751393338555e-01 7.849195783377421742e-01 2.870216149455246391e-01 -3.416245318919102769e-01 -3.360582458009124251e-01 2.195268188409906229e-01 -6.277890166227818591e-01 1.961050007596240041e-01 -7.133526206382053703e-01 -4.540584566661939880e-01 -5.216261063234550743e-01 -8.790746570440411967e-01 -4.790830927876428835e-01
-4.532144995620002170e-01 5.294307570980928412e-01 6.885068046069765524e-01 7.055138353831941211e-01 -8.162874232820610532e-01 2.969998263831337693e-01 2.630289590477646877e-01 -3.082387004861744662e-01 6.895888634394258254e-01 -9.314368105251955576e-01 2.596683308809562551e-01 6.486549900362553744e-02 5.910836785046847952e-01 -1.665807493812527240e-01 4.292578594778251877e-01 5.100223511980128688e-01 6.786202065475930301e-01 7.963602168457200037e-01 5.156135086916209254e-01 -4.609781665590901856e-01 1.044851089826908774e+00 6.424725075985584510e-01 -8.170978294420213617e-01 3.950390099298374258e-01 -2.241307975519935547e-01 -5.160356207637273318e-01 -4.872880374376611368e-01 -3.021719673423656771e-01 -7.710428105949171940e-01 3.676961387756108035e-01 -8.808858976373685756e-01 -2.682985900953358538e-01 1.018111380839137603e-01 4.826215132643070227e-01 4.399601495126551631e-01 -8.464827903880209892e-01 -3.634445282735730975e-01 -8.301713995962500814e-01 5.894725879681363967e-01 -6.389602239728792155e-01 8.966023000378178232e-01 4.670401732109366599e-01 1.162901801797587842e-01 8.615424775494046061e-01 -1.390698281877424669e-01 5.838756121499663054e-01 3.003375818467929892e-01 -4.390347322878233594e-01
-2.036587223507615174e-01 -4.987557555396331388e-01 -1.516752312544118186e-01 8.701796015270125695e-01 -7.013339346236224792e-01 1.299983692327974227e-01 8.126083154245914431e-01 3.786780872240900764e-01 -1.751734682392434572e-01 6.564127706860648503e-01 -6.775942495079908534e-01 5.642622433481130351e-01 2.730650149823304340e-01 -6.076223633647345919e-03 -3.032779252781175328e-01 5.889211679074050076e-01 -5.536107949545600038e-01 2.629682475726456969e-01 1.148226100391649823e-01 -5.126272393194348798e-01 -6.099389912162113125e-01 -1.982167343015996674e-01 6.931069307349617681e-01 2.137903624701936178e-01 7.259137223259690685e-01 -4.962344571969542484e-01 -8.819795330638803277e-01 -3.631545465600316547e-01 8.994480920650582689e-01 4.265002033223982414e-01 -9.341522271554922874e-01 -1.106737437724984563e+00 -3.703393347517825451e-01 6.669132230642510484e-01 -8.940375147320391847e-01 3.898396325005799024e-01 8.764242632563751245e-01 2.170724285329413417e-01 -5.129654805281906871e-01 -6.627315203824760692e-01 7.831697096811790493e-01 -8.948704861574761082e-01 3.187071421120953318e-01 -5.204625393930263355e-01 2.195470845592994713e-01 -5.911482649473063233e-01 5.283016801603102053e-02 1.389522950454120387e-01
-3.234493603597940470e-01 -6.559375119726978953e-01 -8.766149422953771753e-01 -9.974414957617410149e-01 -5.567867217896239895e-02 7.454417005314970535e-01 -4.707091994705319693e-01 5.456410339155456368e-01 6.457234276442681553e-01 2.600380850657963983e-01 8.889005202022449703e-01 5.596979345240211678e-01 -1.461788080124017397e-01 -4.194788387614981073e-01 -1.440349185996741719e-03 3.013319232004089687e-01 2.583603142703407851e-01 4.068765600109785496e-01 5.726773452999013303e-01 1.761561643558194890e-01 -4.915358061805504275e-01 7.160151645845310719e-01 4.292246114099035337e-01 -3.688636343365115922e-01 -4.090543215889746453e-01 -8.687881730969632121e-01 -2.481081117185612861e-01 6.818204881676747098e-01 4.253418756421787489e-02 -8.755931232098033146e-01 3.825168722916821862e-01 7.297163992580746328e-01 -1.472590329444632973e-01 8.192884210629497455e-01 8.268447648547551099e-01 -3.262267298627953560e-02 5.863638261558695719e-01 -5.290624594961620408e-01 9.895624546365490160e-01 -4.291885736149181341e-01 -6.098150641501287605e-01 9.560483104171301205e-01 -7.472865188600894548e-01 -3.073818086123351889e-02 -7.273002245623950701e-01 6.512666077829989408e-01 -4.668204573470813301e-01 4.635446964276926200e-04
7.799088036965888537e-02 8.587614107418581888e-01 5.360738364943137269e-01 -1.029264713544887078e-01 -1.281871972691323025e-01 -7.552810443191189105e-01 1.980846769575743127e-01 1.958311629419401678e-01 -5.541932095336667974e-01 -4.454418083486079705e-01 -1.833369105153931922e-01 4.082827399598428775e-01 -1.264547096611895460e-01 4.331746042078583048e-01 7.478895695026911428e-01 -8.126498369055271676e-01 -8.217984635224623302e-01 -8.678291298210777382e-02 6.430246943713660013e-01 1.579344446591444406e-01 5.713461529613864665e-01 3.394651199599679758e-01 4.563281086904184825e-02 -1.548409449712876695e-01 3.834130175664552942e-01 6.519094975389395641e-01 8.427978144635127622e-01 -3.290894857968730269e-01 -5.186367000297708030e-01 4.904994041749949907e-01 3.520185503446924408e-02 -2.967898761695464960e-01 3.063296996866436972e-01 7.735289232635598200e-01 6.408324292523009946e-01 9.707369753672130397e-01 -7.302461232972461413e-01 9.049185807951504179e-01 2.056612740112203630e-01 1.274942120402018653e-01 -5.158404628605171016e-01 -5.230979364482492011e-01 -3.769847580825663735e-01 -7.999656384504587603e-01 4.271890980824720463e-02 2.421906809462744392e-01 3.675766871044720552e-01 9.098416341147266481e-03
-7.753938690353336105e-02 -8.180602635579395931e-01 -2.496003264854914638e-01 8.239547113880316687e-01 9.803200166383238545e-02 -3.731750898747764333e-01 -9.003819224595864812e-01 -6.315158878563656986e-01 7.081267118311256326e-01 5.259527303060327341e-01 2.197989503725701066e-01 -6.887638694566793340e-01 -7.633971306781675015e-01 6.690872357029794548e-01 7.425484497419037044e-01 -2.093644571619101002e-01 2.744019395916581505e-01 6.500685260374553520e-01 -1.288240946675647813e-01 2.632517811894455328e-01 -8.322733480774237025e-01 -3.917090078098628414e-02 4.070098427068636893e-01 2.007713371900150534e-01 -3.554726663893651994e-01 8.576049971740147271e-01 8.389833559651832529e-01 -9.676020357251823301e-01 -1.894756836348766016e-01 1.935140359509018582e-01 -5.813416533804808273e-01 -3.051646360118640544e-01 4.864101943608035161e-01 -2.495290397701536156e-01 1.127555359450649886e-01 4.466044713017674472e-01 -3.320782983355492490e-01 6.362159666759650833e-02 1.640463465028504930e-01 7.680751415576438923e-01 7.921047217589223532e-02 -5.906727724459032158e-01 4.561388193146533321e-01 -3.335424989145222008e-01 -3.281436392651135847e-01 2.133414019184522170e-01 -3.022221191106791438e-01 -3.009978301738564510e-01
-1.688614175497286929e-01 -1.367378644765599449e-01 -1.061054018087662365e-01 -1.525618633460578688e-01 -3.252938640182866936e-01 -8.228777624640248867e-01 -3.993988273537520395e-01 -7.278697720378993208e-02 -7.362199585530733448e-02 4.327960271952727145e-01 9.192059590779202427e-01 -1.631924488736849754e-01 6.942451060863208401e-01 -5.002764715565176656e-01 1.836911969394740968e-02 -8.709213300343839892e-01 -4.609756296092235583e-01 9.055736423830519355e-01 1.120346546503233759e-01 -4.646277239856581587e-01 -6.302531052262881905e-01 3.278350383347526376e-01 4.653583361945048957e-01 4.277999875326718993e-01 2.182895037077471900e-01 -5.975364170582685430e-01 -2.705688512203965890e-01 5.955697092266148962e-01 7.816788014226430104e-01 3.719723177077215448e-01 -6.760361514384125581e-01 1.761161700259848140e-01 -8.076381391245777142e-01 4.886218772610554928e-01 -3.662913186825619283e-01 -4.664688007183001583e-01 -1.063534763456509991e+00 -6.252811288968301850e-01 -8.854820950141065183e-02 -2.103465979924839524e-01 8.511522041309023123e-01 1.559583909728593787e-01 -2.259711032271533027e-01 3.185161141637224413e-01 9.520500049579325719e-01 2.378019787489717152e-01 3.672704979186768304e-01 4.207031942030305116e-02
1.469344191216462869e-01 -3.873428434526129394e-01 -3.864595515885600463e-01 -3.173936375975930924e-01 -7.741819094621904540e-03 -1.299822419241058458e-01 -6.643693659888308956e-01 -9.253256853548616490e-02 2.178773720056143004e-01 -7.926598559344241179e-01 -9.210287015356805398e-03 7.912406538667320355e-01 -7.916449859522202148e-01 -3.877361705355145682e-01 -2.961353609325747538e-01 -2.578457086064863679e-01 4.209017838500070940e-01 2.499366288274288139e-01 7.305249167513233610e-01 2.906328215883415833e-01 -1.775628361369503416e-01 -9.675395722891681760e-02 7.795575551569189354e-01 5.669368592118819716e-01 4.010211132285705915e-01 2.310044763054355244e-01 7.290855047788191712e-02 -5.419992501900802173e-01 -4.120738828020034661e-01 1.200971787552492787e-01 -9.210445494632726882e-02 6.084275302140125241e-01 3.894385663235335748e-01 -8.968641129116374788e-01 -5.166398985133912047e-01 2.253107496847835123e-01 6.010325486511365334e-01 1.290497076690845790e-01 4.881413914234984941e-01 9.945929157041853985e-01 -1.257668268449460836e-01 -6.916170906561391885e-01 9.444075813606915837e-01 4.907890960188132090e-01 -2.038291434723166762e-01 -8.072766311253791738e-01 -5.501509892169023086e-01 -1.316331522904330975e-01
-2.276166394148443350e-01 -2.175195232468810913e-01 -2.323340914288447578e-01 3.103613670068858799e-01 -1.856095723290073496e-01 8.948837889451851657e-01 2.562060886252409131e-01 2.417848816394206277e-02 -6.857079167880306692e-01 -3.545992218486329062e-01 -8.292133538874180143e-01 6.024682250232279435e-01 5.893541901780358083e-01 -4.168938386645715810e-01 -8.803433111935377031e-01 8.527887901201289256e-02 -4.239192895756299651e-02 -9.876342416349642717e-01 -7.992589153222594556e-01 -4.833375737675302819e-01 4.186636085377061223e-01 6.310332394804470946e-01 -4.334017748723937857e-01 1.496521604796709481e-01 -4.811692034747144242e-01 -3.205443655161551164e-01 -2.393385043967536513e-02 -1.350584749571044907e-01 6.693836259355319118e-01 -7.157042890551010283e-02 4.149680594578419868e-01 5.021710683135214293e-01 4.702652174213590719e-01 -1.028753231319634587e+00 2.848383955375077825e-01 -4.936187499842685789e-01 8.753111010752577803e-01 -1.659401461151403800e-01 5.189596610248120578e-01 -7.441241356650940553e-01 -7.436392665163494842e-01 1.549103962479911056e-01 3.369426658762630922e-01 1.859236630433181228e-02 6.035311818310615806e-01 2.874567486842650732e-01 6.418245205535204612e-01 9.604158365723658441e-02
-3.764909324526812262e-01 4.641855194696389297e-01 1.903083425751687652e-01 5.309010299547780587e-01 9.142496536202460167e-01 1.012368723136800597e+00 -4.893326946684753431e-01 8.027079617489482621e-02 2.562319419429399669e-01 -7.749997614419016356e-01 -7.776505802446951332e-01 2.735253601966118331e-01 -2.942190146939226980e-01 -2.700478490630252582e-01 1.987227594303395128e-02 -8.880723566988094064e-02 5.620884435148300051e-01 -1.640868422721166245e-02 -1.950600033653745180e-01 -4.069457114877811366e-01 -2.897620942964768687e-01 -6.876143263231285219e-02 2.927995843531713271e-01 -3.880016170760887673e-01 2.865341174508755917e-01 -3.572031764095878192e-01 3.724527473589850923e-01 7.735590368897657942e-01 -7.350204987380198896e-01 5.330513053137095336e-02 -1.905210249166578995e-01 5.497768333529539503e-02 -4.093803663064597975e-01 4.576835265600086577e-01 2.616603789388067813e-01 7.427120289585111834e-01 -5.635615515329224223e-01 -6.491967900354338461e-01 5.898903566218469674e-01 2.021352491033853449e-01 -5.151982612585981336e-01 -7.038910306607191192e-01 8.068170060225212659e-01 -6.040927849279769113e-01 7.128984692118673916e-01 4.469341458123261140e-02 -1.253679150796836728e-01 -4.295535122473618239e-01
2.374955594214163968e-01 -1.303206052485227917e-01 1.120453483406130379e+00 -9.694716505277980456e-01 -7.029073214037535600e-01 1.598820608015969480e-01 -7.043736434123243351e-01 2.052874831088911944e-01 -1.868486981752321141e-01 5.618250314894704944e-01 -1.113759995743728373e-02 3.377340171293116144e-01 9.801939946640930712e-02 5.124410073014802336e-01 5.178180472065363471e-01 -7.539428888418333585e-01 -9.919933492301473699e-01 -4.100859577731688077e-01 -3.361926143959551583e-01 -1.393773695572143867e-02 -5.041678995171812172e-01 -6.598451489210743759e-01 5.320792126775402142e-01 -8.300593853526507804e-01 1.954878645392260916e-01 -1.681633412227761526e-01 -2.066542738976461513e-01 1.814932462639100852e-01 -3.758023170353064768e-01 6.379316795800359374e-01 -4.726788301214492061e-02 -6.519749726946402202e-01 6.298393443356606891e-01 -9.243396372514693649e-02 8.633021568517305067e-01 3.097120342590355957e-01 -2.679054663153419003e-01 -6.441721573844975124e-01 2.757609554189687229e-01 1.216201841486916624e-01 -6.808455842211420528e-01 3.274024609937896124e-01 -1.064664472931112327e+00 -9.114735389291611645e-01 -3.642549723688771057e-01 -5.948035733632532907e-01 -4.626414319087084337e-01 9.359464247781019708e-01
-7.482494353631377049e-01 -3.756828450834006072e-01 -5.913452756225795470e-01 7.824356194983252966e-01 -4.681407966109625285e-01 -6.650275095084008381e-01 -5.971400022413735353e-01 -7.844738420504195897e-01 -5.615612631016382306e-01 8.166300801662956799e-01 1.601916274591003858e-02 -6.658874977850615107e-01 2.935632381067571073e-01 6.000480037076666440e-01 8.086966062644164177e-01 3.819383276387775528e-01 9.696680873375203014e-01 8.561226578323940517e-01 8.372834334099917009e-02 4.861883683863859607e-01 5.193599797449156147e-02 -4.228185485804881738e-01 4.191702272402542118e-01 1.054221215242584636e-01 4.638019369482623833e-01 -1.715759437046960323e-01 -1.515123157357986527e-02 -5.383926513634150757e-01 9.183456437494357250e-01 -2.334295548764032946e-02 2.074739157638250675e-01 6.453991530468080606e-01 -3.357480404007648911e-01 -9.027227165534925657e-01 -1.672019110690798060e-01 -9.074119514267647846e-01 2.505031186792074371e-01 9.071610981638005278e-01 8.244485018484797312e-01 5.796730026103042999e-01 -4.004651041586487770e-01 5.692602789007116248e-01 5.546173226684836255e-01 4.255185955655272911e-01 6.401771367256680056e-01 6.431116606269129399e-01 -5.432750481235906204e-01 -3.713231455920820018e-02
4.595529614600947221e-01 -5.075391551413205304e-01 -3.819269498253541895e-01 -5.109365257859336262e-01 -1.795071046953448379e-01 -5.869067578998323764e-01 -7.288878390499765603e-01 -4.990551626966116538e-01 -9.474437702188888144e-01 4.766631990410847425e-02 2.521753640532566343e-01 -7.495626728871592759e-01 1.826088683427485315e-01 5.023408251442805783e-01 -6.031428531433918883e-01 2.572719706097170711e-02 -8.071394095824180326e-01 -7.909251604867951757e-01 8.842118027274205039e-01 2.131004491002785051e-01 4.674790768241414707e-01 -3.505368697235645703e-01 9.347387989676242404e-01 -2.007508559300233142e-01 3.736304376974328711e-01 -9.813394434799370680e-01 -1.075498384959158588e-01 -8.130588248591696932e-01 5.590583593622636821e-02 7.821587071741417652e-02 -2.671734004547839381e-01 -6.329366434098461502e-02 2.950230175895435791e-01 4.914466635592908833e-02 -6.105008590675684577e-01 -8.352414971664589780e-03 -8.352170370506415420e-01 8.237352152678754091e-01 1.990481661554487636e-01 1.977370684599991102e-01 -8.170275101393350559e-01 -4.029257114340985269e-02 -4.346338639458864894e-01 5.623170174015758027e-01 -4.006040425541853023e-01 1.162905325374879728e-01 7.340925693183268652e-02 7.138159300015236575e-01
5.300382972447291730e-01 5.038773695269743724e-02 -4.106580182548580926e-01 -9.077913414549070303e-01 -5.001821118510040298e-01 8.750431152075973662e-01 8.759246842399047717e-01 -5.037706677498339225e-01 3.044283822718290011e-01 -3.202751743739772339e-01 -1.818348751036180933e-01 1.264288832857934641e-01 -2.383717090827822127e-02 5.616854067114205318e-01 -2.836165660960691115e-01 -5.409938144495120005e-01 3.727726037847547413e-01 4.241145390388560976e-01 -1.613530461045718234e-01 -4.220170257552288140e-01 2.447575164771655376e-01 -2.739523567122968406e-01 -9.220821243567584036e-01 -4.185253951359331204e-01 -9.952229503766194529e-01 7.382546091574662128e-01 3.542236349705811804e-01 3.687183692718254413e-01 -7.874819111407573846e-01 2.230349177385543835e-01 1.145972344372716001e-01 6.317718900359984291e-01 -3.366220982543897677e-01 6.411826984080467584e-01 2.410744032542125881e-01 7.262544262807447693e-01 1.759917830492635782e-01 3.356172271324928819e-02 -8.966546005894584668e-04 -5.906710651213702423e-01 1.243821775679760377e-01 7.860540951249117558e-01 1.247279469275974946e-02 -4.025155246568268286e-02 -1.611873086641586739e-01 -7.089545742347577555e-03 -3.932524051268725396e-01 7.184420426015191152e-01
5.345476274461526123e-02 -1.865533735984245822e-01 -2.469317596640190626e-01 4.712232335164656671e-01 4.261000905823108531e-01 -8.090130911327142460e-01 6.897997338032783865e-02 -3.158913757856606219e-01 -1.033475420695036257e-01 2.655322266994462610e-01 -1.037715636877290099e-01 -2.508554312390983698e-01 4.444517948061283974e-01 -8.325338039743828134e-01 -7.505152606884755162e-01 -3.513313509105133181e-01 -5.254849121839700876e-01 -5.101348561123910663e-01 -3.614221886213356272e-01 -9.491283254843463357e-01 5.887089734557989784e-01 8.131478723782034068e-01 5.053559494367225735e-01 1.706370683195181925e-01 7.085332128915506900e-01 9.917870892206387401e-01 4.685203285695573872e-01 3.715052112692693864e-01 8.189139428649608310e-02 6.433537770688740887e-01 5.827477614685468987e-01 2.658501021073734760e-01 2.821013188940688643e-01 -7.697638019842666379e-01 -3.489624801837515888e-01 7.435172013091932985e-01 6.898838140480972880e-01 -4.138166171407672289e-01 -5.024736381093295456e-01 8.638559631887094969e-01 6.977846865875468874e-01 -5.728767008156302465e-01 -6.044468645296470211e-01 8.633203222223601037e-01 8.298682148402445335e-01 -6.186757439015500015e-01 1.339894195848031211e-01 4.790624716407127504e-01
-4.380506991574892664e-03 -6.350047732040191573e-01 4.933526482100979993e-01 7.800607250965001516e-01 1.632309110437137889e-01 -5.759131818157543492e-01 -1.227453450661027262e-01 3.052024986438891530e-01 -4.765956649396356493e-02 -2.165426146328191248e-01 5.867489629424413877e-01 -6.582334677338101681e-02 -4.393601951196910438e-01 4.962700021028780273e-01 -5.309171280552166250e-01 -6.437331561236688815e-01 6.476634683971129736e-01 2.018860485732859589e-01 -5.976389484557643739e-01 1.045584436022062441e-01 -7.827176632289495339e-01 6.304679427803917546e-01 -2.552932967816372023e-01 3.121479413780835488e-01 1.438482916286335789e-01 3.078667194307612709e-01 -7.107089561279941181e-01 -5.306169053770366517e-01 8.384524540913120827e-01 5.549233280291888670e-01 6.009306984301892030e-01 -8.573345977415324226e-01 7.826309967006047641e-01 -2.603882282495692535e-01 6.660865242861169211e-01 -1.007536649014117547e+00 -4.422650552093895793e-02 -2.287355053545969963e-01 3.136004808545805184e-02 -8.218287306294425054e-01 -4.682889950791990774e-02 6.623485801283641727e-01 5.873257243424168106e-01 4.076631686670762617e-02 7.987774043552897663e-01 8.471297007733156192e-01 1.045459846645733215e-01 4.623655110169921367e-01
5.428917718695269734e-01 7.202823298404282815e-01 5.915041745482751967e-02 2.812529660332609982e-01 9.677899731635282443e-02 -3.879529913767073013e-01 5.078187378274348074e-01 -2.578532312215192634e-01 -4.037568744045172756e-03 4.246693434219507846e-01 -5.338781117446456115e-01 -5.187548700553874514e-01 -1.142696634489469565e-01 4.819090875836731791e-01 7.699939713447073730e-01 -5.011197217235802137e-01 7.786300488637425132e-02 -4.671964929176010695e-01 -7.623655437668227508e-01 4.100490293349981497e-01 -1.171348752267218907e-01 3.157842042783455261e-01 8.981043735586216256e-03 4.594783209964232729e-01 -3.343352004588837079e-01 2.207825676620385480e-01 2.358185851466643168e-02 8.857283216387064340e-02 -3.383113355343637108e-01 -1.996520744666568578e-02 2.196777231079514170e-01 8.755681561586904360e-01 5.008807387999724137e-01 2.391318923836838195e-01 2.036253219335317222e-01 5.046704609481737075e-02 -3.261166969192754173e-01 -8.103118095208998728e-01 -8.528421828037400232e-01 1.031961361147227585e+00 -6.045434942979791559e-01 3.210506628146970187e-01 -5.999175105928812313e-01 -1.089603834756613654e-01 -2.338159637020463533e-01 2.498152175603884084e-01 -5.148905986512707367e-01 -7.418519792282940450e-01
-6.561896849185661074e-01 -1.400451868746930839e-01 6.752833752398149647e-01 -6.564258958303746949e-01 5.331918396991124354e-01 9.622159103356736631e-01 7.849223155483766590e-01 -5.952189701734756921e-01 1.903697089537658704e-01 -2.208637997720225288e-01 6.857072686016443264e-01 1.120163434699693816e+00 -2.941769212645034548e-01 -5.811500443365141821e-01 -3.127213942962223658e-01 8.421264232060033939e-01 -4.438104041900944874e-01 2.832602563188433287e-01 7.554715049698422780e-01 -6.432878181715383503e-01 2.761502750767769188e-01 -7.833138836267230509e-01 7.787772433544362105e-01 7.191215694871273545e-01 -3.469250058138297343e-01 -7.122192283217526620e-01 -3.800373685499027210e-01 3.742304072206544263e-01 -6.093017939027490781e-01 -3.020438008832330157e-01 4.746081878788354635e-01 -9.081461561857733233e-01 5.718738790282293927e-01 7.758477638806171583e-01 7.287462918456026895e-01 5.655002505286327308e-01 7.085410183772622439e-01 3.643881978102010977e-01 -7.850702599746265387e-01 -3.839879088216888725e-01 -4.961908275920686173e-01 -7.344804953105001921e-01 3.443290873604403779e-01 3.313343153310191469e-01 -5.233913666694686162e-01 6.961228739261565712e-01 -3.600774039293138662e-01 -6.575801069091419260e-01
6.056077582281461646e-01 2.904971247710242399e-01 -6.819561071845349209e-01 -8.292919145710470064e-02 -4.235318614709882579e-01 3.775962835658634026e-02 -7.075877829669902086e-01 -1.125143570085970768e-01 7.301847572695983057e-01 9.246678720843047872e-01 -1.509682415488544371e-01 5.940242630327351447e-01 2.131185748935522373e-01 5.346902083168314501e-01 5.246736147001960227e-01 1.947831767983874418e-01 3.679702304576813049e-02 -6.611633797894893583e-01 1.954476417177706260e-01 -1.011074576651092904e+00 -5.166534633782066122e-01 -1.267069776544521853e-01 1.025927783375654295e-01 -3.412058160366291948e-01 -2.705209886720182366e-01 2.637996738974136002e-01 -7.261930684093425015e-01 -6.297967191819250354e-01 2.871836820728134732e-01 -2.815550050412805178e-02 9.034782147241522676e-02 -1.102712853088575057e-01 -1.635301332615640146e-01 -4.438166888685819433e-01 1.780718461659369367e-01 4.538689649343791710e-01 7.735082282712872903e-01 -7.618559067410050067e-01 9.668455174769001736e-01 5.028732461578214741e-01 5.956804326314290021e-01 3.964249539720306470e-01 4.767692263541803421e-01 -8.939593493158123905e-02 -1.034511471930332549e+00 7.537709794436395772e-01 -7.678200215317478872e-01 -2.388940212849225142e-01
2.699171494551445005e-01 -1.018628573676377408e-01 1.067508955860535652e-01 1.116052195160833066e-01 1.929187403877358209e-01 -4.218944335693263215e-01 2.678000365962510676e-01 -4.966216577012584898e-01 -1.158209309716836805e-01 -1.899559764668176665e-01 -4.116484678016294474e-01 1.153436895873053009e-01 -1.209170609887339487e-01 -3.306214455933881302e-01 -2.614185865974595901e-01 -5.586793504412734812e-01 -4.627729329107239664e-01 4.312603315597717257e-01 2.834983698620069936e-01 -4.625009005291312869e-01 -9.543927064162939511e-02 -2.554719644336841955e-01 -5.230412550342610212e-01 8.524297804496218101e-01 2.080604424556093124e-01 5.069462260147428179e-01 -2.686527471179007698e-01 -1.642048396258254939e-01 -4.582202634138419772e-01 2.115429828273980573e-01 -4.719418110323710946e-01 -4.730117061053608629e-01 -5.561849632308205615e-01 5.303035703191170125e-01 2.083456517762933558e-01 -3.609599137241721323e-01 -3.732700726067374464e-01 -2.414377221417560171e-01 -5.559467183409906588e-02 6.949656858852202301e-01 -3.079397183544435937e-02 4.551458077720902384e-01 -7.857874259657942062e-01 7.654020000605467056e-01 2.291744486666014990e-01 -7.135137586361244288e-01 -7.261429506681046364e-01 5.096522007822565925e-01
-5.902591120805346092e-01 9.288536437772083598e-01 -1.414796807598084905e-01 5.184920094363629217e-02 -9.338576507880431976e-02 7.427243997385963858e-01 5.825970347490609658e-02 -7.129845001605822352e-02 -1.246148781433011055e-01 1.004081336182989920e-01 -1.156807310118288384e-01 -5.911324563424920076e-01 6.742536022001468510e-01 -9.274525768968459871e-02 5.781816020863923544e-01 5.304422562329393909e-01 -5.434412251563213170e-01 -3.058957100986627320e-01 6.876960368283205893e-01 8.057310652496416647e-01 7.168399759884915845e-01 -2.663897970045093211e-01 -2.188256312211807886e-01 -5.973185372643695645e-01 9.769257973549046181e-02 4.614017196272034438e-01 4.648287737942708997e-01 -5.215709014262787102e-02 1.503433140061083140e-01 7.422389809362114343e-01 5.653479112076998936e-01 5.362087321988858735e-01 -3.206732384454943907e-01 -1.498452882456376978e-01 2.428007147118884101e-01 -3.772899055422858083e-01 -2.079338427892814256e-01 8.858008297103471262e-01 -7.325985070658356246e-01 -2.866616456205576813e-01 1.033176685113115445e+00 -4.239100626076931499e-01 7.103037797652210772e-01 -6.033197635837377337e-01 -3.253884235379722600e-01 2.494887356687600921e-01 2.524752787324839876e-01 2.326818006510987247e-01
-9.862530783336117546e-01 -8.849433923249001577e-01 3.654608364530670950e-01 2.540349495369194632e-01 -3.854537425665092165e-01 5.602574440750912599e-01 8.763270142835671850e-01 7.420917904577443158e-01 -1.317693871128435001e-01 2.811569392702208958e-01 -1.078693712382115671e-01 7.500208437191135946e-01 3.281243708037171469e-01 -3.023215520468598427e-01 7.555471697942664489e-02 6.567369807312410934e-01 6.642676144218303547e-01 7.539231704109479182e-01 -1.057150216891175887e-01 -6.215898234839506431e-01 -2.794472953866807274e-01 4.236633725918644844e-01 -1.525119291502226859e-01 2.182148682399441889e-02 1.079626693064287712e+00 7.654755303910344699e-02 6.374520216387140614e-01 -4.328458571294535040e-01 -5.135705980437157980e-02 6.659900832010268168e-01 -1.046047348657641818e+00 -3.770903025957623722e-01 1.324445820289023024e-01 -2.170714303006724410e-01 -8.191135527359174606e-01 2.527425839138021102e-01 4.980079775131098646e-02 -6.212635388751932553e-01 -6.217568734300544797e-01 7.162798300368715676e-01 3.828599719880183549e-01 -5.737924669699003832e-01 7.074586086207698132e-01 -2.383686661409658569e-01 2.545764194479767650e-01 -3.038360269455878671e-01 -5.367393320693513159e-01 -3.563218266410536073e-01
6.696540482777371128e-01 3.660879292066884227e-01 -6.263892825420830368e-01 -5.074066071972672676e-01 6.689958040639041315e-01 2.703789305048055480e-01 -2.007569420455311004e-01 -7.161461607510956062e-01 -3.418791801663080832e-01 -4.015705723855305664e-01 5.696151999578851211e-01 -2.456345801641724447e-01 2.211189448049111217e-01 3.635412375522861783e-01 -5.124248893385383585e-01 5.552839081854364922e-01 7.088993456908833091e-01 -5.708778965444895048e-01 2.061813922888086348e-01 -8.631466950797600513e-01 -1.237890024699681291e-01 -5.295276097098710055e-01 -6.434401338722073316e-01 6.684663790723862631e-01 -2.777450813699882184e-02 3.135621108846782801e-01 2.257593411120022153e-01 8.701185129737759594e-01 4.807461528795270445e-01 -1.301693866143165679e-01 2.127200468600226879e-01 3.237872242595650762e-01 7.141324286128541976e-01 -5.649401141064772786e-02 9.553202756922567485e-01 8.917401435316915648e-02 2.256504186242116183e-01 -4.891744003591343981e-01 6.503757384560578114e-02 -6.939928653980051987e-01 -3.986986584362621766e-01 9.690885025345828685e-02 3.592749000344713783e-01 -4.751489473742519405e-03 -4.767901879032581114e-01 -5.314997485543260236e-01 -3.359217675090507838e-01 6.875719170022250859e-01
-6.685983114430615881e-01 7.735279663895415769e-01 -7.076697530114892665e-01 1.376211928212379421e-01 -5.847905615390482925e-01 -3.278663567347055996e-01 5.173262805428897604e-01 7.503276559024826264e-01 5.041706244654562408e-01 1.060158919652926940e-01 1.070264535652114823e-01 6.831083944229906502e-01 -3.691582737034906220e-02 -6.110358716391426359e-01 5.557819478980968730e-01 -5.993780296112271033e-01 -4.447926870493945639e-01 7.178167767288525791e-01 -4.911852401106575061e-01 -3.083973626702478377e-02 -2.694250881176273871e-01 4.510048297878733181e-01 3.080669290952310901e-01 -9.314275932369796562e-01 -8.749981014386711831e-01 -1.352852684058039601e-01 -2.468130639373675161e-01 -5.240296947085189283e-02 1.179125242634316700e-01 4.604928758420447354e-01 2.901934817961394075e-01 -3.329973289062664321e-01 -4.009007288730558893e-01 3.241917088959195281e-01 4.339540328668016200e-01 -5.313734212747149854e-01 -2.002863640708671122e-01 9.198323202689259181e-01 7.777945587908522418e-01 -4.198668898836636076e-01 3.235694849538982565e-01 -1.222964647805299121e+00 4.510058485401990946e-01 8.148367294152746299e-01 -4.238294807366409234e-02 -8.880498162554393282e-01 4.440457080511965304e-01 5.965167623141987008e-01
-7.555013130173446334e-02 -2.341482546792765518e-01 -1.239629565440304310e-01 2.346088177873469627e-01 1.518736934817201401e-01 -5.262516618742060226e-01 -1.032633513531849845e+00 3.083787100572835671e-01 6.972179214730519492e-01 -4.560263397763443874e-03 -4.773951904465649765e-01 8.229992879163171571e-01 4.097260721176886888e-01 -4.982406331108341080e-01 5.302485055027821303e-01 2.923642093121729957e-01 2.355348172495866643e-01 2.753916344585934928e-01 -7.441051388132975675e-02 4.513185278659502253e-01 -3.490990462592556409e-01 5.707213088664342404e-01 -3.190933797380336445e-01 2.824804879237789446e-01 -3.513187589202511618e-01 -3.864595642552732246e-01 5.502954550556437008e-01 6.204741218923450763e-01 5.210636129299389685e-01 6.274183251812075479e-01 -8.635716423032011591e-01 -9.150512022674928136e-01 -6.323753077903061515e-01 -1.941879880752243881e-02 -5.981149055842430867e-02 -1.041648580514966671e+00 -3.551721836606338556e-01 7.111225043364964860e-01 1.016260159636512173e+00 -4.263966106655951438e-01 -8.519391087971486254e-01 -7.324541058443476693e-01 -8.503344924849142172e-01 7.743168520400870447e-01 6.882071040068873380e-01 -5.803955139834457988e-01 8.511146713761866822e-01 -4.453189541252534911e-02
4.525411068834062078e-01 -5.425709600116520592e-01 -7.308433177042679418e-02 5.136229083222696445e-01 -5.577040604392331791e-02 -7.958327316651175876e-01 4.614243052408606438e-02 3.376407560644026362e-01 -5.153530703729747309e-01 5.938436412575853751e-01 2.440548083674164148e-01 -5.080814666240873745e-01 -4.878585272554833430e-01 6.455044058281199648e-01 -4.424957329500652237e-01 4.027169742895935767e-01 4.003237992401658119e-01 1.692116559190238179e-01 -7.273225894413511972e-01 -3.263488322084446280e-01 9.454766538152880040e-01 5.197623532761523890e-01 -5.299980713283776179e-01 4.498676121889871315e-01 7.814715932095030182e-02 4.558950750125000950e-01 1.570861063897952270e-01 -4.053876554275560040e-01 2.791605667470370422e-01 1.161056649911406530e-02 9.446874828976835337e-02 -6.752451361197884250e-01 6.635427620069372923e-01 -6.662556317170688358e-02 -6.508910073076984437e-01 7.519373263753773573e-01 -4.635585345253276368e-01 -3.107305341868626947e-01 -5.026022938362996184e-01 1.101051825497245673e+00 6.373304413031288806e-02 4.292776369576986606e-01 -9.278816084450433599e-02 -7.941713669509612439e-01 1.240798204995497145e-01 7.887067774304974410e-01 -1.006715175068073620e+00 -4.289621738914208282e-01
-5.793579021330866885e-01 -6.910999779761013428e-01 3.351040351631386915e-01 6.977820708651020221e-01 6.268676832170543278e-01 5.232419070535566652e-01 -2.923920256884334767e-01 -2.013433618143134207e-01 -2.174082583674673552e-01 -6.143024655570427095e-01 -8.731468698731357225e-01 4.048236155506963474e-01 6.362362832507370003e-01 2.467614219019355626e-01 -1.180688769263392168e-01 -5.517737093108724400e-01 3.570237707070379463e-01 3.572507342103225514e-01 -1.952430482451011085e-01 5.411009073714807549e-01 2.063751677680690164e-02 7.717583051719894005e-01 -7.782740716453221408e-01 8.256708945487543916e-03 3.403247977961066928e-01 -2.353265344353789312e-01 8.172934677447496465e-01 1.345005022748654855e-01 2.755871164663051265e-01 -9.243718362298245506e-01 -7.269106342648415930e-01 8.176870413117162117e-01 5.185710008673730664e-01 2.552480827944131336e-01 -1.055480536559882054e+00 -2.351346444939944880e-01 2.859261812789992141e-01 -7.727768395244375421e-01 -8.029029471783334371e-01 -2.584134228887470242e-01 3.404223952990143576e-01 6.148438613758734350e-01 8.884439886379709161e-01 -7.572470816631865498e-01 7.508845664381603724e-01 7.574598379467525344e-01 4.846948091525763447e-01 4.503285007599528433e-01
-6.174291775733848908e-01 6.390655612721971579e-01 2.564350237888312067e-01 -7.993303663159321282e-01 -3.741589947086009782e-01 3.362174295985949080e-01 7.455022409574159070e-01 -8.381884778306744055e-01 2.770409621305406356e-01 5.316143640875545806e-01 6.690296804150699383e-01 8.583667132488773666e-01 -3.161187159534504243e-01 6.232132452768918834e-02 -5.550031449639265535e-01 5.488484174444813180e-01 -9.176353698604856612e-01 -9.149940644134815226e-01 8.055644015573120154e-01 3.258258118776745649e-01 1.304536210285759390e-01 -8.873880495830440696e-01 2.937185631174406633e-02 -2.465731129469907745e-01 -3.271156815064649725e-01 -5.887495651231119398e-01 -3.393771371639145995e-01 -2.378678933664904738e-01 2.593069418063125853e-01 -1.765458916918766497e-01 -2.830605520815023327e-02 9.103312199588897702e-02 -4.072193905372396006e-01 -9.790495297805984487e-01 -5.393250791072246031e-01 4.874516094630236829e-01 1.413297423801261610e-01 2.480116995970273880e-02 -8.243032135882777389e-01 -2.803585577523912686e-01 4.252654881397275877e-01 -3.272187266138355533e-01 3.929415721800726402e-01 5.724861916496549741e-01 1.694666907396310401e-02 -1.751402802086050869e-01 7.778485943558679505e-01 7.190711561188815049e-01
2.263537133194405693e-01 8.761490074812774420e-01 -1.838150467451923897e-01 -8.309973685570359869e-01 1.668465485570731766e-01 5.859228492981874981e-01 7.307932610891872960e-01 -6.173406164806426455e-01 -7.800277882350065140e-01 -7.001481036924029899e-01 3.441246566802813045e-01 -4.358329733045071541e-01 4.377782074070931118e-01 5.134140102015137819e-01 -3.739927760829493408e-01 -3.756642745617307100e-02 4.846686963791345670e-01 -1.762710810780059312e-01 -8.822328608378354753e-01 7.521249971962167269e-01 -3.909258446422729794e-01 1.984634982434660411e-01 4.734888799163098905e-01 -4.462726096527857012e-01 3.658165598301424959e-01 -3.354043704182072538e-01 -6.415152976302822552e-01 -6.337433253634731090e-01 -8.651017877377044085e-01 -5.537109780666471526e-01 4.417741216283918027e-01 6.596710384639422609e-01 -5.011956004715433233e-01 -6.628166285703155358e-01 2.126886040050877669e-01 -1.009417089266990697e-01 -3.616931114271459795e-03 5.833015426059577901e-01 4.014711701754128947e-01 -5.964967423293243698e-01 3.350882741772064355e-01 -7.676568662973278778e-01 -5.371560832349471237e-01 3.066744867081048764e-01 4.649276224994668416e-01 -7.266448771394553585e-01 -4.834113653288610313e-01 -1.060507371404585397e+00
8.361266209764472296e-03 4.541862092277504370e-02 -7.518188204170319633e-01 8.567245508574611312e-02 7.784138517538190527e-01 4.806071985762066512e-01 -1.018983032419424201e-01 -2.956258122472381622e-01 7.291485005945939069e-01 -5.081062858104475888e-01 5.426591344380683468e-01 -1.542796517629916597e-01 -8.946325637748325788e-01 -3.749617779781329596e-01 1.188800967437469436e-01 4.697601540821000898e-01 -7.534020661749041281e-01 -3.392720001306124833e-01 6.717238041923959679e-01 3.835899711230268960e-01 -4.042893274575388163e-01 7.871413182044368906e-01 -5.887618410450892181e-01 6.958819505561459895e-01 -5.554090211510528396e-01 -4.832142364778894694e-01 -4.731307095763710446e-01 4.014517728328032553e-01 4.492915642951333943e-01 6.498684261506153526e-01 -7.725091828017841555e-01 6.270440312589539156e-01 -3.127379453452046043e-01 1.726073019195805136e-01 -5.484572921625820996e-01 4.568549387692397712e-01 8.446015730096634311e-01 2.736470404781988774e-01 7.298152992334275280e-02 1.992798611071704834e-02 -2.360676783070299878e-01 3.051880743824315553e-02 -5.589962711314565569e-01 -1.809307075340388093e-01 7.709402120626945853e-01 -4.922149734418878042e-01 7.477372704926726898e-01 -2.127600298173273896e-01
