-3.567453619938630582e-02 -6.433449470259047787e-02 1.056907341834146564e-02 1.824741541498461211e-02 -3.723745562056832159e-01 -2.065443229303512984e-01 2.247906864917413317e-01 2.172503616699358597e-01 3.362463134505328660e-02 -6.182366783554359146e-02 -6.300621242030118863e-02 -1.100028431197320328e-01 -2.340670114804989377e-01 1.393689663705673099e-01 -5.195117982511531646e-02 -1.227377313743830550e-01 6.718204741713743045e-02 1.688197473820180206e-01 -2.060656007872396223e-01 -1.176168391833841420e-02 2.223194767838564817e-02 -6.773645458734388336e-02 7.556426258901282125e-03 -6.612013111150519262e-02 4.152078827720295101e-02 -1.407130538264825259e-01 1.781401616990959114e-01 -8.761378874007282047e-02 1.646985303937265332e-01 2.170721229706363831e-01 -1.357033769066297302e-01 -2.128208810933137074e-01 2.663432180611685629e-01 1.208072966861632458e-01 -1.880474799700870836e-01 -3.657965950290472668e-01 -1.959321007604790388e-02 1.013404817287312104e-01 -2.837956420487998052e-02 1.279135968801104473e-01 1.960733741928757656e-01 -1.855862166155555215e-01 1.390167014278050894e-01 -3.153005923934683319e-02 -1.950716588641374649e-01 4.513247578963230228e-02 -2.242034964343846137e-02 -2.596316363579964648e-01 2.083200177332736602e-01 -8.206392780236998474e-02 -4.100200191501461588e-02 8.023862551109085806e-02 -1.726473235289841257e-01 -6.565720565447280554e-02 -2.137611241996275335e-01 1.184669484254405880e-01 -5.570712070699463531e-02 -1.102215990185463762e-01 1.830022436300531852e-01 -1.467221877234880234e-01 1.484305575717273784e-01 1.854297287715784559e-01 -3.524251346223851167e-01 -2.414023794068926101e-02 6.798034651799989003e-02 5.261357379791649358e-02 -4.512043339025135352e-02 1.509293542301714253e-01 -8.587280050552700827e-02 1.177988602458058393e-01 2.130467318971780363e-02 -3.530463741302811154e-01 -2.881322608141736324e-02 1.255770988691005674e-01 -1.018232002169598416e-01 1.656258996147053630e-01 9.941909687121396055e-02 -1.348115142106232345e-01 -5.656576534804830247e-02 -1.159500060338021638e-01 -6.065571687586165939e-02 8.422055290002962089e-03 4.248060271944335137e-02 -2.882679066219176467e-01 3.916154828607477933e-02 3.558177023893538404e-01 1.423791027764621242e-01 2.882260821211595214e-01 -1.492808835598374850e-01 7.720204829223513421e-02 2.295674199899270726e-02 -1.642603203289347835e-01 1.177531245905863999e-01 -1.883771624485718887e-01 6.441804765685975320e-02 -1.190584455118033763e-01 -1.096628193094714293e-01 1.097258044356397844e-01 9.223517259296411253e-02 2.882444112725667251e-01 2.109655159051436468e-01 -2.458959444077860879e-01 -1.233460620105882311e-01 -4.300631148190795644e-02 -1.181565145673398182e-01 2.324303331654218874e-01 2.779986697074232280e-02 -3.452446973606586034e-01 -1.959405529117966005e-01 1.248232177300210577e-01 8.273053178929355711e-02 -3.021978836956525430e-02 -4.226946633387475560e-01 3.858167116462339792e-03 -1.420873988876474037e-01 2.325054195185515538e-01 -1.480179656732471538e-01 1.169173911867328469e-01 1.699692206683776907e-02 5.339422631132336589e-02 6.026687599260905498e-02 -4.119767509734207911e-01 1.868478817646616053e-01 -4.005075655376404142e-02 1.283949232295971687e-01 -3.580585729446257581e-02 1.642891360361334041e-01 -1.749135062045049926e-01 3.289440644484626364e-01 -1.038554069115132095e-01 2.732254616750698362e-01 -1.499247233557288728e-01 -4.295014855437255530e-02 -2.786924827153648976e-01 1.769584116672820798e-02 3.179688866345069947e-02 -1.480774400571448386e-02 2.822080788208314872e-01 1.711130618524274102e-02 -4.930297153125937429e-03 1.072324164517551581e-01 -3.013471624402838667e-02 -4.811736124179930019e-02 1.878461223349986720e-01 2.715118274213366642e-02 -1.383210039699415139e-01 1.849155299801720775e-01 1.055977703692356356e-01 1.545359660485468301e-01 1.431223541220287832e-01 -4.764670264847550157e-02 3.548858682931704117e-02 -1.954801786495392324e-01 -1.267508207194841148e-02 -9.972110591920294032e-02 -5.796032154254505443e-03 -1.100015179602420456e-02 1.410146429433735416e-01 1.145850421577718076e-01 -3.349986999527416326e-02 9.750662545217694821e-02 -6.899120804553986186e-02 -5.467621326900184292e-02 -2.351615980212889978e-01 -1.267296854533171147e-01 2.561488522190999984e-01 -2.379568795293534322e-01 2.564468540163267196e-01 -1.321955372641483994e-01 3.135850624552835586e-01 2.419418647209618523e-01 -2.280125926533737857e-01 -4.334509612321852529e-02 3.574488377817366946e-02 1.608093893353721576e-02 -2.597109967206380765e-01 9.986549776192787942e-02 -1.186062491871010399e-01 1.201481755323627054e-01 -3.312986464005334142e-01 2.554579983150686018e-01 -1.602398430214969360e-01 -1.419158422117694218e-01 -4.181651447556725826e-02 1.031577100725254437e-01 -1.333397412215058808e-01 -2.795884141530192157e-01 2.154922261151399621e-01 1.206308651684119271e-01 -2.770261599181096310e-02 1.226959993567210278e-01 6.259959298137982020e-02
-9.469159522718488542e-02 1.239942851073188440e-01 1.138601396606739730e-01 2.376129754832759788e-01 -4.149029104199629218e-03 8.932039251413950720e-02 1.499205918640860169e-01 -7.821737295995886963e-02 -1.775761340057207816e-01 -1.459744005112584841e-01 2.070752629555330515e-01 2.947363367168960302e-01 1.031012702539282622e-01 9.378504948616385450e-02 9.841742479057985493e-02 1.272681471833405631e-01 4.363255934816790554e-02 3.215993215673244032e-01 -9.349824332062883769e-02 1.805809616312830934e-01 2.300276079400752627e-01 -1.854749204458356060e-01 -7.138928898905883003e-02 2.088597678683994097e-01 3.753907720930189235e-02 2.381840198841015180e-02 -2.328265163905774982e-01 -3.885130636601462351e-02 -1.213361683234064209e-01 1.156636074912431728e-01 1.632545225504841158e-01 -9.177813794064830499e-02 4.673522661229807806e-02 2.117914402554766928e-01 -1.172601170460982611e-01 -4.524712933462294445e-02 -1.576006175331912118e-01 1.907969576872251272e-01 -9.724618695073532215e-02 1.016586695864691303e-01 -8.287459888846464284e-02 1.344282669001090058e-01 -9.842679235568085883e-03 -1.638944662388750195e-01 -8.135239233911979728e-02 -3.912223604962825757e-02 6.106727361745447474e-02 -3.711378058418123710e-02 5.710148693644765544e-02 -5.704945449944374969e-02 6.103578951774885769e-02 3.186622287263685821e-02 3.279613858995905629e-02 2.777373771348909046e-02 -9.787446832413555786e-02 1.525175906466660070e-01 -2.503924850655633305e-01 -8.584067595873111356e-02 9.173769290209035643e-02 -1.389592748660359034e-01 9.454479257340735535e-03 2.281584766950227328e-01 -1.752624069110433336e-01 -2.167729561333818500e-01 1.135957795112574331e-02 -1.210991613853128618e-01 -1.553739950012863469e-01 8.149474875905991789e-02 2.397884694018059468e-02 2.818381247774668363e-01 1.569183676715717735e-01 1.461436454335114654e-01 -1.791000228275831663e-01 1.006635999768894368e-01 4.141181825592031296e-01 1.884604649101190577e-01 -2.645982940943031880e-01 -3.902727344028490419e-01 2.214156310901978786e-01 2.717416076754723409e-01 1.271794104823529281e-01 -2.050885707211383413e-01 1.119635322578406283e-01 1.415179235280750736e-01 -1.040234168591061721e-02 9.868937874442323607e-03 1.324606932671717474e-01 5.811744428610518542e-02 -1.625326837601361873e-01 1.844962792829498155e-01 2.865147341720596375e-01 2.023865022063201791e-01 -1.990555834633686849e-01 3.188529637050038779e-01 -1.843752978769473694e-01 -2.735241040355640973e-01 -1.889748633924963617e-01 2.013371077537800258e-01 9.490039052050118495e-02 1.944737097341517340e-01 1.052902400351294621e-01 -1.359581791855179744e-01 -1.435197392331536044e-02 1.486751123421096721e-01 -7.317755917770467355e-02 2.732398348864663040e-01 -1.958079982605301916e-01 -4.061160582195814245e-02 -1.449940965517831082e-01 -7.162439430457663569e-02 1.238569942838919913e-01 -1.739459229549074337e-02 -6.500617821208343194e-02 1.446568628397519041e-01 2.592397487591284119e-02 -4.953104911636061619e-02 -4.747263081909845750e-02 -1.413762076113237176e-01 3.348077381456547319e-01 5.529954674623129007e-02 -8.364756386353844331e-02 1.924382937055088560e-01 2.665496070136854634e-01 -1.204962659616147236e-01 -1.630999061915060777e-01 6.644066456158369272e-02 -1.329447346498563269e-02 -2.729503791021442236e-02 6.154265319394779110e-02 2.018503950749676590e-01 2.110803663529378926e-01 -4.376960818136665932e-02 1.423683212085651018e-02 -1.409999962865068901e-01 1.425526823525030164e-02 -5.093157723013577026e-03 1.722340911607693759e-01 -2.962499536202677433e-02 1.980833035843218570e-01 -2.618541815165943976e-01 -4.284898480039653346e-02 2.138035615950671098e-01 5.929229852077150253e-02 2.933250065405229035e-01 3.435030854419267310e-02 2.424213589023262727e-01 -2.616484564479570202e-02 -1.590853048693128269e-01 2.236689148489046375e-01 -6.162935611166613092e-02 1.400662858651719189e-01 -9.718655673825522812e-02 8.112895709644145359e-02 1.140784773863493667e-01 6.337253645914436850e-02 -1.154029303529052752e-01 8.686328497061629808e-03 1.051422999386250612e-01 -9.239302004609525887e-02 4.874418289783329084e-02 1.435969573006279087e-01 1.135376552047830528e-01 3.538908219536840427e-01 -7.140600099404352530e-02 -7.068867148830237923e-02 3.704906552326408392e-02 1.407684030931456894e-02 -4.241564285443875926e-02 1.674738861909443322e-01 8.950810965539317265e-02 -1.527180933319124412e-01 -7.051335040349805683e-02 -2.501638627940294124e-01 4.634135311467604823e-01 1.979841664384565311e-02 1.463768544955730833e-01 -5.116511456620870951e-02 -1.169096230770316630e-01 -3.455540504158126358e-02 5.947672561800796537e-02 2.179701541954172372e-02 3.159607404835562683e-02 -7.904702977193456270e-02 -1.853577766153293171e-01 1.144062243505947207e-01 -9.089349197034246597e-02 2.769544132460979857e-01 -1.596976639952438215e-02 -1.998905687959984592e-02 -9.862351155052122287e-02 7.896748176637487238e-02 3.924981673283050969e-03
-5.141631695399235397e-02 4.005037840713183139e-01 -2.364714230604384182e-01 3.111934530627026921e-03 -1.661143886468203490e-01 1.310372975593241951e-01 1.209623760993380204e-01 2.226853085250743713e-01 -3.307191767180862052e-01 2.340250689226470726e-01 -2.078135440737114426e-01 1.619500540313328629e-01 5.620118918063828073e-02 7.969198165069026063e-02 -1.864698177740214610e-02 5.952755012101614701e-02 3.064282483622401965e-02 -5.829973358893567048e-02 1.204408852335361463e-01 2.465382621802990684e-02 3.474832703189912469e-02 -1.028726670570756785e-01 8.459487107215236945e-02 -5.551648937409729007e-02 -4.159458057201590453e-01 -6.762016108886466370e-02 -2.399247001198431817e-01 -7.927076467364985168e-02 -1.424632796167952242e-01 2.403804073511459638e-01 -1.764205757938815400e-01 -2.245485232828204059e-01 2.111862809936945196e-01 -1.389889532340151113e-01 -1.359381880698455336e-01 3.506709959723098846e-01 -1.498033611494211104e-01 7.792433301218547152e-03 -4.701153809047773496e-02 1.392514436325982263e-01 1.583941979997409155e-01 7.999334235598672127e-02 1.038969974128042296e-02 -1.419137613216441829e-01 -3.794055838515293932e-01 1.958866196846187346e-01 -6.736643645239248634e-02 1.905895918497635122e-01 1.089305501333117376e-01 1.874510219590331539e-01 -2.582189139402357170e-01 2.467926268429667946e-01 -2.925005258687547044e-02 -4.468708908806337532e-02 -2.118577913744963126e-01 1.217925423950392411e-02 -1.213688720052105985e-01 -1.223209774900190921e-01 2.226621012283449240e-03 -2.113458714818005901e-01 -3.374423256741810456e-02 1.627074811406973853e-01 -9.816319791301945930e-02 -4.808054424732117332e-02 -2.543721963000791231e-01 -5.461825706871060310e-02 5.626832318073601152e-02 -1.370369169377844143e-01 -7.523328072878862627e-02 -4.668422428789829604e-01 -1.389984912886985287e-02 -1.075652383417434882e-01 3.568470412189973101e-02 -1.034794958720418462e-01 -2.971921043513860439e-01 1.826565548951314399e-01 -1.891181729929623245e-01 1.572242573283079425e-01 1.433464537141518891e-01 -1.455295904858871503e-01 -1.961373137560252361e-02 -1.782808616107601496e-01 -3.122508844531236005e-01 6.403762059463692646e-02 2.495292324093417446e-01 -1.807751044898132931e-01 -1.752700259504719194e-01 -3.116250798731097782e-01 1.095012633088469078e-01 1.652621114696125465e-02 -1.102539903600478904e-01 4.077850595736320360e-01 1.825958384997062034e-01 -1.220219738094225313e-02 -7.429068941746354293e-02 -1.141111694697386353e-01 -3.891731689530922300e-01 2.291469815279617850e-01 1.110689918155447348e-01 7.638599655791333820e-02 1.597459535876516734e-01 -1.921069105869331051e-01 1.030046765346157855e-01 1.997462632658733306e-01 1.966722828269806544e-01 -1.412924184051138621e-01 -1.601452913323231642e-01 -1.404130075889966078e-01 -8.318246374308819677e-03 -4.244135778569380069e-02 2.438804024223253930e-02 1.083317844944895747e-01 -3.853475688551082773e-03 3.044907080143525735e-01 -9.317482267379222083e-02 9.343956644408867029e-03 7.140466756595903464e-02 4.086048842949892984e-02 3.368675129009008479e-02 6.854959588154696699e-03 -9.962346711919653486e-02 -2.721687407162353689e-01 -1.085135222013099837e-01 -2.116603841187533405e-02 7.627078661530324599e-02 -4.842065165071792604e-02 -8.828138935865584291e-02 -1.426555200013991664e-01 3.298306042984128911e-02 1.625349115205734218e-01 -1.726690843285048349e-01 -1.873267516688424672e-01 -1.208747666128726500e-01 -8.178167239588794712e-02 8.870160959403754208e-02 1.200080395600244265e-01 8.358233896183876743e-02 -1.998780091211583010e-01 4.799544959684658163e-02 -2.468532797089502684e-01 1.590743919261538020e-01 8.965264492240193617e-02 -8.271179139066782426e-02 -7.572360412462822779e-03 -2.879739154656132394e-01 3.983836391056242987e-01 -3.906548391687468813e-01 -1.846797232605321692e-01 -2.288421402135169258e-01 1.176198587568605958e-01 1.002942918263184102e-01 -1.691313251879430768e-01 1.190974307471688032e-01 -8.849228092318199568e-02 1.421624480737598839e-01 4.608916384954291762e-02 -1.541047881665059682e-01 -3.107465043869312438e-01 1.944124210690034160e-01 4.221087392326549476e-02 -1.769098099545956815e-01 2.725395520657040160e-01 -8.037711418503343253e-02 3.958651138542517711e-01 1.070698770622084961e-01 -2.510683789367033070e-01 4.522006610773898760e-03 -2.577349023198883260e-01 -3.037346718390484535e-01 2.877604151113574964e-03 1.295883044363805581e-01 5.369060700678188192e-02 -3.500067337027676917e-01 9.369172045946586036e-02 3.127784407616842621e-01 2.402294404717719434e-01 -1.984120980613213181e-01 -1.974800552471411841e-02 -1.579036110154238282e-01 1.097289751740389424e-01 -2.121884319040168443e-01 6.386164817214141920e-02 -3.457285407434420449e-02 -1.054182030527844594e-01 -7.032567133029218875e-02 6.799834475948461632e-02 6.196772754597815180e-02 -2.385181065480592721e-01 7.561493351389657336e-02 -2.648581627132728378e-01 1.305794954872305791e-01 -1.921947592053101228e-02
-1.833269591330361215e-01 -4.138819388376128311e-02 2.149370057802085787e-01 -8.275609536376005160e-02 7.079601683506242527e-02 -3.244209279942275592e-01 1.791561469183304556e-01 -4.825218190503172133e-02 2.194893096003756594e-01 6.231055858763808603e-02 -3.995367269447401837e-01 9.452617540824917453e-02 7.766695703868191358e-02 1.476069474274246396e-01 1.752706432579329010e-01 -1.923883986207182706e-01 1.665896699900299427e-01 -9.882276458001336417e-02 -1.941390047823876308e-01 -1.320040720682959801e-01 -1.914571456937439603e-02 -2.386189678528948532e-01 9.121696957540230410e-02 -2.521236740054435543e-01 -6.004436407138243753e-02 -8.682172015512221175e-02 1.429155870884765353e-02 -2.022977643452416319e-01 1.298443932887367175e-02 1.644479416500508329e-01 -1.052545117535913857e-02 6.268344835924662128e-02 1.288393203751670990e-01 2.359982169064980539e-01 5.658195878368517222e-03 -1.736060986843203932e-03 -4.553006062803437864e-02 1.024741305461518565e-01 -8.668270220672203222e-03 -2.300651137950286695e-01 3.120719859592031575e-01 -1.436352909343266426e-01 1.539377783155242152e-01 -2.272056197612886547e-02 -1.594731517681667043e-01 -3.666147224467670301e-02 -1.352380552305350592e-01 -3.466477975008768614e-02 -6.979867992045722669e-02 -3.481570456256266599e-01 -4.468225014975617942e-02 1.429627059878582629e-01 3.058950607185096926e-01 2.021701188114585213e-01 -1.308496727910683777e-01 -6.827458635256170028e-02 1.494176309107814182e-01 -6.614998339205450939e-02 -4.064355508005757650e-02 1.632083164668620134e-01 8.288638575861712043e-02 -2.804715585108189524e-01 1.178814898889721796e-01 -7.707332937830706221e-02 -3.183851083765599221e-01 1.699958815261620459e-01 2.771151712305441328e-01 -1.565874263037653202e-01 -5.267960263991522396e-02 -2.097127375716958952e-01 1.025514632322988874e-02 9.987801543862724618e-02 5.359567754153292396e-02 -1.227706123651081949e-01 -1.995345783497890491e-01 -6.258724695098775992e-02 2.007980720234497363e-01 1.487691561646822536e-01 -2.099724946517617929e-01 -1.650493325713064952e-01 1.511370168891020827e-01 1.523311846407404968e-01 1.638471328802803828e-01 -2.584710177990539107e-02 9.027518879873910884e-02 9.606040316415821734e-02 -1.976053352030748000e-01 7.228000057282771285e-02 -4.937066273420231272e-02 1.168462668718692754e-01 1.010526805155068097e-01 -1.359685255108622481e-01 2.162638868493307887e-01 2.168826540740063230e-02 3.540654748183653250e-02 -1.083310530306573656e-02 2.764935861081735391e-01 4.642888443346273458e-02 6.543572327146468526e-02 -1.831251723283950916e-01 1.725953630145990736e-01 -2.040446536333393734e-01 -4.029889506357355738e-02 -1.355844779796291644e-01 9.489196949802292114e-02 -2.658404654098898146e-01 -1.598245146256818960e-01 -7.901045129418486634e-02 -1.187097458523373172e-01 1.499624869520174986e-01 -1.080533461931410949e-01 -2.999225786764384560e-01 -8.993850966808021596e-02 1.239296147977168583e-01 1.323301988415825914e-01 -6.896328309677211832e-02 -1.244342389903938667e-01 -4.449050644325622250e-02 5.567235592498531033e-02 -2.570171966317671714e-03 -2.736245437887964427e-02 -4.873764865292953830e-02 -8.075392656170242434e-02 1.497427409562348266e-01 1.881422160685972678e-01 -1.496036183296684252e-01 -1.523174561233641040e-02 -5.264334080520063214e-02 -7.516840456528148251e-02 6.217004709641251597e-02 6.324583474130185401e-02 -5.392951671803480028e-03 -9.926043480598309432e-02 2.850964336511618846e-01 1.595771700521897429e-01 3.079811990494017437e-01 -4.825087918423430766e-01 -1.903817418664890126e-01 8.639374518427318014e-04 4.021243934986153123e-02 -1.488778636345211180e-03 -1.134964550811344425e-01 -1.317470709296107156e-01 1.491580564781617435e-01 -2.845808840968691578e-01 1.547830361580130043e-01 -2.739096564336868100e-01 3.355708930888705310e-02 4.721012600569431117e-02 2.028258392479395655e-01 6.866211989402290494e-02 7.845493313894531806e-02 8.985594575723465649e-02 -6.343406644539696659e-02 9.451264854800543735e-02 -2.468817412999493588e-01 3.456067560712264980e-02 -2.476792536418410129e-01 -5.560922242311654856e-02 2.654428074300792528e-01 -2.848000909340578021e-02 1.303622347650246205e-01 -2.451251691702123203e-01 1.612055637937520880e-01 -1.551179333706850794e-01 -1.170881636742581583e-01 3.900635883021499883e-02 1.269634224244199083e-01 -1.057257304161589306e-01 1.270614555091843234e-01 1.279300551959292598e-01 5.602101724923268071e-03 -1.600355077077493249e-01 -2.709711159911605272e-01 -2.412911306561517921e-01 -2.849518579850472411e-01 -6.564086636596166979e-02 -6.258994377411079835e-02 1.932748321751566120e-02 -3.747176017310231005e-02 -7.505710428052943251e-02 5.317980635848825743e-01 -1.846980689204493625e-03 -5.889383229937279057e-02 -1.816001368826898055e-01 2.157339719786150953e-02 -8.970753983457668834e-02 1.396008736102098413e-01 1.303449450339621007e-01 1.124820208688638440e-01 8.127464735370350246e-02 -7.750027497988321024e-02
-1.946824089533260027e-01 1.188073466842932691e-01 -4.358746722926828271e-02 5.262381444498058503e-02 -1.855353057838532993e-01 1.270771234932865923e-01 8.349186268740643735e-02 -5.819346533556259138e-02 -7.650102009865475394e-02 1.144337803234725254e-01 -3.156305474827977853e-01 1.006169375348804802e-02 -6.523585958957427156e-02 1.936053454948885033e-01 -1.538744545777701311e-01 -8.296174088427624160e-02 -5.290314058150000914e-02 2.003237032143840787e-02 3.974531269980526721e-02 -1.210167335832221941e-01 1.627633099442638842e-01 -1.420610086320047982e-01 8.129626424074495872e-02 -1.233336523376939026e-01 -1.894173237713236979e-01 1.111302143457590201e-02 5.557080595028824482e-02 -3.501073685469097835e-02 -2.588561995462768106e-02 -1.670674190772073742e-01 -1.394103481230510866e-01 -4.232237809348022434e-02 3.443286944214011269e-01 1.051070176094631020e-02 -3.397207083505526803e-02 -5.985883600972344981e-02 -5.237779395492098838e-02 -3.858431792062620019e-02 9.875538401827178847e-03 -4.739354941129312465e-02 -4.731719293448596875e-02 -2.123214280676084253e-01 2.756772568841395904e-02 3.052844482854093489e-01 -2.012495825246533865e-02 -1.136300156007220147e-01 -3.681000459090718463e-02 -9.298328605505863653e-02 9.118070468802463857e-02 -4.483537549787168508e-02 -1.026064276678124443e-01 -1.895700433820790842e-01 -9.662346551252429250e-02 -3.782660410777775595e-01 -3.460629696366146479e-02 -2.539378688202389642e-02 -6.489304747051832800e-02 4.636195061276613544e-02 2.575400099146341742e-02 -3.611131085281043401e-02 2.365691867363621248e-01 -2.583959179090684066e-01 4.335919396920257657e-02 -1.082794562203353572e-01 -6.680561387770021786e-02 -4.127641313878493978e-02 4.544387613099597559e-03 2.040805471958467236e-03 -4.229069702549446280e-02 -2.421266571378844490e-01 1.985706597692483944e-04 -1.302699387427984912e-01 -4.618587147970679152e-02 1.129225203197218308e-01 -2.355214213086738728e-01 1.040861036162240988e-01 9.413218191268205026e-02 9.433023334161402818e-02 -3.106021717225450063e-01 -1.217706042763918722e-01 7.469302305310300538e-02 1.797580597117926504e-01 -4.244537060739124457e-02 -1.617338351827555809e-01 1.142503847315792520e-01 5.842988154526940203e-02 -2.556721298483849436e-01 -1.412020875333090848e-02 7.703127229166634171e-02 4.185750043723014679e-02 8.777827696603399121e-02 -9.148478820634062258e-02 2.785440947808180412e-01 -1.159097312251952810e-01 1.231141967002104820e-01 9.624539378664746792e-02 1.604536151769443003e-02 -1.406532913452160638e-01 -1.151163029679437046e-03 -1.435611218952391466e-01 4.211154686572999850e-01 -7.953801083686394546e-02 -2.502200306049063294e-01 -2.537741877616206398e-01 2.163109055842714901e-01 -8.104668320947281540e-03 -9.629644294628970924e-02 -1.936255061795877641e-01 8.036088989421877327e-02 5.056368701146413819e-02 -1.290366103955053849e-02 -8.431676224259421204e-02 4.634810945887193195e-02 -4.650733295698146474e-02 -4.001748183513149093e-01 1.333763226124478896e-01 7.330206436866630593e-02 7.431790038733383785e-02 8.728217685677089333e-02 3.829325705871831909e-02 -2.158642552913940804e-01 -6.271134574348934121e-02 4.752814914763428544e-02 6.123409982326363798e-02 1.185132674068491987e-01 -2.320552292910125769e-01 -5.927555924884454763e-02 -1.676566123844623335e-01 1.998759994468436441e-01 -6.720509196119851814e-02 -2.507105915570181365e-01 2.468645855759165064e-01 -2.828258929093999119e-01 -2.371144850860350435e-03 1.194462457292297247e-01 1.386861082839802584e-01 -2.531423872313939838e-01 -3.200818536398742364e-01 1.163048058159391746e-01 6.169800932467481291e-02 -2.055855978743393320e-01 3.839734021750764587e-02 -3.041432190386051532e-02 -1.909531317684236840e-01 -1.223841208294146332e-01 -1.632567256307449199e-01 -1.355938646607406373e-01 -1.337197085130246432e-01 -3.751984028235957197e-02 -1.345222067583494718e-01 2.180696204701479957e-01 8.122545841397917077e-02 -1.887602996856200532e-01 -1.488380696097601208e-01 7.128913943569706313e-02 -4.298253898866510186e-02 -4.642887597952354353e-03 -2.497129267994235291e-01 -2.936066540812517014e-02 2.451586068818291386e-01 7.105483203593306388e-03 -3.207843636106768037e-01 1.942581766005536947e-01 -3.466738488939026530e-02 1.591425298241949948e-01 -1.234883784713473528e-02 -1.493098991544506149e-01 3.387730865068901420e-01 2.408314251822074314e-01 -6.113064789680647954e-02 -2.418028867517481306e-02 -2.327769285951375167e-01 -1.890596818884018315e-01 5.179028732716613181e-02 -3.536859101484391421e-01 1.707498096072936067e-01 -9.327632124148309278e-02 5.795840812543603948e-02 2.193480202739939156e-02 -2.023845735413815627e-01 -2.008674070865836825e-01 5.090204964478475119e-02 -1.518119582936496570e-01 6.379299593532317125e-02 -6.180547936686458382e-02 -1.096147214779960577e-01 -1.823766159122842956e-01 -1.236219814137013151e-01 1.148569048253633151e-01 -1.081553843032510981e-01 -9.850458101867728966e-02 2.275145371479215251e-01
-3.593302968622458793e-01 2.398451869296206601e-02 1.005853177097444928e-01 1.830370143940436012e-01 1.841041233445566902e-02 2.417871252779552893e-01 -1.812914444629351862e-01 7.202427944740564386e-03 -1.402028917485637419e-02 5.708399044402706624e-02 -1.154659706767054012e-01 -2.357194727114214974e-02 -3.039941612978826480e-01 2.363148418427215083e-02 1.037054216386577993e-01 -4.194737466106823048e-02 9.311181216968177077e-02 -4.303821593953379154e-01 3.918861664930095579e-01 -2.417723765519969314e-01 1.370114822750980454e-01 2.449418682192285382e-02 -1.066483506071709136e-01 -6.784241806083517179e-02 1.418097301400114418e-01 2.935055195022042152e-01 1.543289250954324454e-01 2.670981438231975202e-01 -2.865014672668546036e-01 -3.129422433171502038e-01 6.231930267430544831e-03 1.046365721262828147e-01 -2.251685080084384616e-01 -1.912289667666034199e-01 3.187744937942040002e-02 1.079262255888970984e-01 2.149621404047141193e-01 -2.734445986698742503e-01 -4.121043677950064765e-02 -2.455063441938840074e-01 -4.365658778580873423e-02 2.948918678576670227e-01 1.516455498270207480e-01 -2.910731929710312360e-01 -5.247365829689583372e-02 1.650356155893737409e-01 1.234404410587555262e-01 1.461706476871868221e-01 4.042796896574642890e-02 1.339926486633759295e-01 -2.106947621601990561e-01 3.496829035407277020e-02 9.475482128112171221e-02 5.638825729488869398e-02 6.621395022642535821e-02 -1.346207552310109412e-01 2.345436373765606985e-01 -2.673520845686148117e-01 1.493279192469064709e-01 6.087313136521162182e-02 3.685145609963924040e-01 -7.647378658728082312e-02 -3.151350008910262790e-02 -3.241906112149779418e-01 -4.813920982044579688e-02 -1.422365776459389164e-01 -1.496900135644538832e-01 -1.660071585405114847e-01 1.886432118848400674e-01 1.777069605179610601e-01 -2.138695481373846241e-01 3.246457913222489111e-01 3.647785785074814102e-01 -2.159430030372400666e-01 -6.585735028165018608e-03 -2.571166412966470194e-01 -1.877489147889757903e-01 1.403483550162456239e-01 1.514901994824590092e-01 1.539843769288053998e-01 1.673892261212849286e-01 -3.127448184094319683e-01 -1.195622779848579988e-02 -1.285669140648727504e-01 -5.758554229371893457e-02 -2.387217578522799477e-01 -8.933160419684867126e-02 6.611822224206044540e-02 2.693687672154720936e-01 2.398021055201705887e-01 -1.826589190966811382e-01 3.177400197344397714e-01 -1.762299931309238565e-01 -2.566371415501831343e-01 -1.116611872003643730e-01 -1.658078991711119110e-01 -1.094945160125419398e-01 -1.030507079884131205e-01 -4.844386984658093087e-02 4.186122964668510110e-02 -2.203498508957402180e-01 -4.891200444512236109e-03 -6.757330360784273744e-03 2.489825483432093478e-01 -8.664054222493015878e-02 -1.873201601984875175e-01 -1.399026804590606243e-01 -5.162314459143003270e-02 8.008484543547375600e-02 1.793414364314442067e-01 -3.925400324101243482e-02 -2.439023326229748379e-01 -1.806399708665833159e-01 1.057073770591164946e-01 3.630040048056975555e-01 -5.010432388857516406e-02 -1.275076260504299785e-01 1.345067912956343925e-01 1.514644311209846494e-01 -7.163842601450498560e-02 1.303910261395276327e-01 1.422434095073361882e-01 -7.448345225927717472e-02 -3.876908726404488734e-03 8.283761320193994138e-02 6.044978624663620986e-02 -1.162032912513896732e-02 -1.247241075295871943e-01 5.895304666297552371e-02 -6.350340966893974065e-03 2.333492291725686174e-01 -2.004881473136700398e-01 -1.563226035092434574e-01 -4.654037847150449547e-02 -2.352021612563107711e-01 3.253372503391200321e-01 -5.408468292497279478e-02 -1.071129298856900725e-01 -5.902647863547054452e-02 -1.419417274109808502e-01 -1.853836631556649572e-01 -2.918123928630850239e-01 -1.152540536123290021e-01 1.298429677601126431e-01 -3.949386863928740221e-02 3.238899766368241034e-02 -2.151071790922436944e-01 3.138438114530151674e-02 -1.538086697375526668e-01 -1.234235229625408187e-01 7.296819797003321895e-02 -1.490676198044111611e-01 1.956385106163472942e-01 -2.337891354953996331e-02 -3.515417995878734880e-02 3.087923627035945098e-02 1.320405459245606039e-01 -1.497563579388890287e-01 2.776918721861709044e-02 -1.040580552861412461e-01 4.048518780193807731e-02 1.787774026253710347e-01 -6.035994370092762767e-02 -6.052947750372528191e-02 4.811992662298535638e-03 9.852764318285453515e-02 6.612173273208697688e-02 -3.517526001697465210e-01 -8.946441868123106156e-02 -3.759480905592040012e-02 -2.338017054906385839e-01 2.525420952012577547e-01 -1.322602399197313379e-02 -8.668393335426739787e-02 -4.249888683030603742e-01 -5.982897529194648040e-02 1.834324071375408316e-01 -1.549384803374022623e-01 -4.004444160640988071e-02 2.533583562422450641e-01 -1.420233524956717730e-01 4.378656658526706158e-01 5.782487106507529923e-02 -8.469288649260788004e-02 -2.027129147877235193e-01 1.173535388755024972e-01 1.991282887853865896e-02 1.499424739769045223e-01 -2.186371958239370361e-01 1.415606934045249010e-01 -2.380832350141147968e-01 -7.986408274201269031e-02
1.951477085692243651e-02 -2.947103759441277449e-02 -5.582691393550812120e-02 4.167608505458685053e-02 -4.286266534961333946e-02 2.252279644749600185e-01 3.516895000653677550e-02 -1.998232954261467409e-01 2.370008142209140689e-01 5.969892933391747480e-02 2.396440416613275226e-01 -7.187478497300074654e-02 1.558161752614326545e-01 -9.329959108371917165e-02 -4.893655474689545537e-02 -2.329649679471476886e-01 5.800945642880130787e-02 -6.441578709988268758e-02 1.725449928089266283e-01 -1.649946487373945281e-01 1.601045805193894445e-01 1.898162421851794235e-01 8.054439593908224726e-02 -1.059616602528994922e-01 6.320938086170066472e-02 -1.056750007538476491e-02 1.854879966568942773e-01 8.317483049407102536e-02 1.977845728631456024e-01 -1.576149737361900727e-01 -3.121644759282496406e-01 3.713609446791394514e-02 -4.240035294161255755e-03 -7.687252045897013941e-02 1.444841178431396922e-01 -5.089525629875569362e-02 -3.577818687783854840e-02 1.475105488870316894e-01 1.715362314234301355e-01 9.158612446481557978e-02 -6.570786596279849789e-02 2.101846161441769251e-02 -7.982697391909832074e-02 -2.432529910689367608e-02 1.860660592351483233e-01 1.051736930756141768e-02 -2.258127964271419152e-01 -2.399661353859220414e-01 7.190795468429461712e-02 -2.392767006510083255e-02 -4.856159518955110999e-02 8.339183521537585353e-02 -1.508553501583586864e-01 7.138753873912949410e-02 -1.193043992075004528e-01 3.920816926516349464e-03 -6.466700637517310002e-02 -1.704298657842537590e-01 9.424931697546212739e-02 1.060849155749621006e-02 -1.735287393866477013e-01 -1.576186050537062289e-01 7.536710397163988440e-02 -1.073689825165471401e-01 1.277781040622290865e-01 9.225332907609132271e-02 -2.141118499005690567e-01 6.505574742948999623e-02 1.470646841166642349e-01 -2.015032196181570090e-01 -1.478554049232390089e-01 -3.227592847874923704e-02 2.170005525655563927e-01 -4.194886299012410419e-02 1.606435244689466968e-01 -1.643969053318334872e-01 -9.431606478922964498e-02 -5.320479295617474430e-02 7.648266772614720210e-02 1.032123705108148465e-01 -4.894656479574958571e-03 -4.592233557892072202e-03 -5.044159921728054441e-02 2.238747656312138970e-02 2.810092035950469413e-01 -7.666330316470254536e-02 -1.002310173171889612e-01 -9.772465942005221368e-03 1.858767008872524162e-01 -1.759019395944533548e-01 -3.381996811639512851e-02 9.880999119893951743e-02 -1.061573147115442151e-01 1.331898440102921022e-01 -1.618673541943269345e-01 -1.218851607051774609e-02 -1.156246421856448325e-01 -2.553604088756044055e-01 1.430072332510961275e-01 7.448039966502739695e-02 2.112356830707078914e-01 2.131539530751623834e-01 -1.056617037911620621e-01 -1.217938952758529231e-01 1.623613092198707142e-01 -1.729511756537950584e-01 7.910570430813879117e-02 -1.182865386746561193e-01 1.725630931250520805e-01 -6.527345755381865067e-02 1.095265728282884821e-01 1.290586797006572362e-02 7.622918695730750149e-02 2.148961921523895313e-01 -1.347765682203035109e-01 1.519972680806183085e-01 -9.400278793380255349e-02 1.232274126396554204e-01 -2.549522864952311618e-01 2.572385434685262734e-02 9.558443194518694008e-02 1.499763503354845928e-01 -1.647265824044175098e-02 -6.748173323538357582e-02 -2.057328415093784557e-01 6.216231390863314471e-02 -2.031682967463265543e-01 1.558475772113989896e-02 9.362117082730497808e-02 -2.495821003088483092e-02 -1.027575236392896108e-01 2.627944731179692739e-01 -8.749570876522576313e-02 1.173505903313699084e-01 -4.968374214403532135e-02 -6.997497195628160638e-02 -2.506241326270721159e-01 8.283846832985515551e-02 -4.132885767291025192e-02 4.136432966072227380e-02 -8.264945250411462330e-02 7.612765579363642288e-02 1.668908489965813258e-01 -1.038620643835999058e-01 -1.306035061902757755e-01 2.361367658278612780e-01 -2.140736205919351876e-01 4.895619238036423571e-02 -5.929813507333209222e-02 -2.179667447751043596e-01 5.482984388164818812e-02 -1.172089916163478358e-02 1.430735352546979589e-01 1.000254006230978515e-01 7.168747383606488555e-02 6.266030932066224413e-02 -1.740275580036871605e-01 -4.564256197711300672e-02 -5.305484043177130515e-02 7.894485339883969277e-02 8.908692662593004075e-02 -8.901498985400990716e-02 -1.623320025203866535e-01 1.795934639130381261e-01 -8.415087503142235081e-02 -1.417373104935261141e-01 4.464125384628814946e-02 3.543683370592061177e-01 -1.794678800209753289e-01 -4.900235005558928325e-02 1.855372204540995384e-01 7.823089688780716922e-02 1.463674117519563334e-01 -3.106871615627176952e-02 1.063706179852156736e-01 2.263025230359685669e-01 -1.743660541361808369e-01 -8.276383078577670416e-02 1.348605443108421599e-02 -6.450243010243685016e-02 2.701140762618334246e-01 -8.128082129541286394e-02 -3.820071137029929908e-03 2.978699619310433699e-01 8.774690992396252942e-02 -6.286261781945545746e-02 -2.009273560043895457e-01 9.578270988661191643e-02 -8.923722869993878926e-02 -3.276491638233213211e-01 -1.697464679661865317e-01 2.079543310118869004e-01
-2.773129163292009647e-01 1.753237981370213971e-01 2.696393864642341320e-01 -1.325524846050862848e-01 1.481685250056185080e-02 3.771793853454569450e-03 1.743500927191368455e-01 -8.411114322759703776e-02 -2.499700796438745487e-01 1.756779247999900873e-01 -2.186474677865287708e-01 -1.276627221384677158e-01 -1.122369916888495134e-01 -1.177663681673745549e-01 1.599788376166232373e-01 -1.197097916245942056e-01 -3.069411820335105068e-01 8.355915848082053066e-02 1.091911038682212426e-01 3.339660114462733587e-02 1.249385341771224872e-01 -2.702617568615467425e-01 1.378985972480778754e-01 7.262846757330355951e-02 -1.564220349578387126e-01 -2.120793879141814886e-01 1.434032411784847694e-01 -3.066751837110127249e-02 1.674757514658282986e-01 9.260318446820811275e-03 -5.681779790119918794e-02 -3.042852702717201985e-01 -5.630042885484910775e-02 1.113997147929166182e-01 1.449706163061970643e-01 -3.449181262050209779e-02 -2.560173591387427394e-01 -1.738965668512109861e-02 -2.585078777442151865e-01 1.425553432795248210e-01 -1.060668466872148608e-01 3.520987192537387567e-01 2.195988218111780479e-02 1.071487760815168638e-01 -1.895662313607980876e-01 9.656456850110967105e-02 -2.930809244970528082e-01 2.947187704184452417e-01 -7.743023215667212134e-02 -1.558227997964836964e-01 2.157149501134197345e-01 1.680437148946103965e-01 -1.710756651846541410e-01 -4.790503545443925565e-02 4.993357300435605564e-03 7.696539279940360634e-02 -9.907162075557261749e-02 -4.033521181263857031e-02 -9.269868937942769838e-02 4.452216879105422298e-02 1.440789595927738087e-01 1.523823406546101211e-01 1.058928487224154204e-02 -3.609452254137036631e-01 -6.928138829486488182e-02 -4.248492568446750328e-02 1.000926060334138001e-01 2.443897753368804160e-01 -1.693778533551442700e-01 1.059519135523271094e-01 1.276402875891806121e-01 -6.553170486738239819e-02 9.614551986381884852e-02 -7.457766710792830545e-02 3.213987823397149168e-01 1.631768336403024988e-01 3.533386229917623994e-02 -2.711230229412404102e-01 -3.563979998204417354e-01 -3.853686336505255522e-02 2.063991780377578272e-02 -2.937518036519348730e-01 -2.185359716542241426e-01 2.335595421018598628e-01 -6.630843839611104407e-02 -2.883117327660054130e-01 1.446961169549401682e-01 -6.469720260236233589e-02 1.605254460673362082e-01 1.076039402806488327e-01 1.208858210873720723e-01 -1.708889727347912280e-01 -2.057260046240717566e-01 1.238753046230940402e-01 -2.276431766399331438e-02 -2.873224462312545247e-01 -1.065286645524410741e-01 -2.386482716539932158e-01 1.407802887393403701e-01 9.599553162527307837e-02 1.688902977923372184e-01 -3.444225930381876188e-01 -2.534819738846594804e-03 -4.804381237348154948e-02 2.626933720201660716e-01 -1.172304324190676789e-01 -7.490889884848795505e-03 -1.131783534545175302e-01 1.421756007029248703e-01 -1.054698867871643603e-01 -2.607135363799653258e-02 -1.472975946604651032e-01 1.426585174205005982e-02 -8.957212853002838315e-02 -1.898640843479240670e-01 -1.649952148203084890e-02 -7.435021852263951070e-02 6.606360583739721848e-03 -1.303356531283198297e-02 -1.224577251673771433e-01 1.529960499381251325e-03 1.821251879172788024e-01 -2.897054482145557802e-02 5.075649069033724703e-02 -8.464496613750217835e-02 -7.719323503002195608e-02 -8.049682411002555271e-02 1.063998820596646355e-01 -6.545111155726396346e-02 1.208119494069279098e-01 -1.949295155190296919e-02 2.215219820604073242e-01 -2.272710997138617794e-01 1.973906285004780048e-01 1.043580574779815334e-01 -1.424035125683711933e-01 1.221721149822696667e-01 -1.349870143463857697e-01 -2.347441822616044560e-01 -8.880665650096453145e-02 -1.149242367118812891e-01 1.463627269257634367e-01 1.890203627439464296e-01 1.056188182348146570e-02 -7.839833373250509885e-02 -2.516833153465790861e-03 -1.158868160319316831e-01 -7.897846697863995791e-02 -4.222851229320657984e-02 2.660721883533441745e-01 1.761004953709172094e-01 -1.607594530474335814e-01 1.600476718399820864e-01 -5.098573726742244155e-02 -2.909845516389697115e-02 -2.500679529353149189e-01 1.276575703041582521e-01 -1.380827466141011095e-01 -2.952936912108267142e-01 -7.450914844755426869e-02 -1.986621013495768473e-01 2.081668586592044443e-02 2.104112400212663214e-01 -7.494365720171936029e-02 -4.770961350284842750e-02 -1.466753876342551666e-01 -6.427858313049904238e-02 8.195889417083496165e-02 1.284544630326716896e-01 2.347100719027703508e-01 -1.584413811293566843e-01 -6.294225924501242742e-02 -1.468443708971126083e-01 5.480433310594368806e-02 -2.906766872860970796e-01 3.210788276087557791e-01 -2.452437976790117213e-01 -1.413327800222139996e-01 3.124698682445084877e-02 1.409119660670357099e-01 9.817556572510906243e-02 1.864291327989608116e-01 2.861295335490114319e-02 -2.019417056423924647e-02 -1.261590143622784710e-01 -1.738401672323706265e-02 -2.035654130287502250e-01 7.024815614805545241e-03 1.072950445045170592e-01 -2.348329954049238333e-01 5.319861098406590549e-02 7.645932687658398008e-02
-1.034977581464170543e-01 1.285534418234336451e-01 9.574602754446014108e-02 2.248426369292673074e-02 -2.537793445080843702e-03 1.847522575383940269e-01 -4.299681315354873107e-02 2.562387562261269625e-01 -3.401097293244638164e-01 1.899308061343417675e-01 -7.699282352480714409e-02 2.118306233965240870e-01 -2.596386288464866410e-01 1.509362947490269224e-01 1.614289091197361470e-01 1.743475916998123241e-03 -1.447098716262043283e-01 -4.605099340983465073e-02 5.704351666381932834e-02 -1.486082766639803057e-02 1.725020842648660735e-01 -1.395189154496785100e-01 8.429978733104884214e-02 2.360349032691781979e-01 -1.118509787530437977e-01 -8.848859870284735141e-02 3.696023657460043021e-02 -1.023717171084813082e-01 9.973077252798220882e-02 1.281751726439480377e-01 9.487381721098880893e-02 1.059839363463658535e-01 1.201637682569281218e-01 -9.218128182383242275e-02 2.094696849862213439e-01 -1.174054305277970472e-01 -6.477550999168384636e-03 -3.308591306637576057e-01 -5.778146386429478670e-02 9.176478534195560421e-02 -1.247063330569048584e-01 1.378785633690980672e-01 1.505871781434045542e-01 3.860948896165539851e-02 -1.056752884942421811e-01 3.220362944378209885e-02 -2.940036457992381558e-01 2.068852507751590963e-01 7.881277646551590466e-02 3.794628961185084748e-01 2.034267120102622728e-01 -1.111471365536141342e-01 -1.353005218382052066e-01 -2.675693702311187500e-02 1.326376748374574754e-01 -3.196099308006136730e-02 3.338093299546038978e-02 4.339267394204327985e-03 2.680733571022146933e-01 -6.158770013719182257e-02 -5.803108297275875321e-02 1.486128145622646057e-01 2.339669119952913004e-02 1.414215683809049440e-01 1.751743290210948031e-02 -4.722771718215072745e-02 -6.878726870435003526e-02 -8.304073944655104844e-02 -4.790164532229052724e-02 2.227890671484080432e-01 -4.069175101947987427e-02 1.744710482989633715e-02 -1.478646009255041582e-01 -1.407851683143627741e-01 5.009577876204807101e-02 1.777705918207953539e-01 -1.598182253583735613e-01 -3.257260393836382273e-02 2.974417528368130670e-01 7.390864603718462836e-03 3.004651598310272703e-02 3.040560758983506043e-02 -5.445181754472348812e-02 2.041090914821133695e-01 -4.463040438075961680e-02 2.170715090068208938e-02 -1.066746339318167119e-01 1.333407695009976857e-01 1.922013590008714023e-01 1.334422726802297725e-02 7.047610057811812267e-02 3.543383342502759437e-02 -3.259817138487963641e-03 8.184158703088770248e-02 -1.194811698579813369e-01 -2.533720739463494742e-01 -1.178755843490935096e-01 2.977260149955047314e-02 -1.200135484171341860e-01 3.334370310976475515e-02 2.166072241352890171e-01 -3.154508109199385957e-01 -6.473561070739478063e-02 2.008658379697961793e-01 7.394019847652244515e-02 1.688535446947368734e-01 -3.588642569226149076e-02 -1.120036785835345633e-01 8.271039903304437668e-02 -1.262790942239440939e-01 -1.277785179537466453e-01 4.008289166817267414e-03 1.894821740909198582e-01 -8.084290719914553891e-02 -2.364804619851541834e-01 7.240924546864765943e-02 -1.901134671700600021e-01 -2.390477883989589741e-02 1.562118404455937193e-01 -2.534219412034545427e-02 -4.452921883001575987e-02 -2.251514061827277480e-01 5.284611032216156301e-02 1.574214612564461269e-01 1.525809825880410087e-01 2.310773016989669526e-01 4.605412538224496616e-02 -1.921015027981060885e-01 2.236379585347490206e-01 1.218381086906476438e-02 -7.978490122603133783e-02 -2.121929094944657312e-01 -1.314544413189449590e-01 5.326527114920404787e-02 -1.407693130868314380e-01 2.733158175252994315e-01 2.939556710809630435e-01 -6.893887526414937961e-02 4.024074537221673277e-03 -1.017117792771953799e-01 -1.179392344472833115e-01 2.975383265752576945e-01 2.421687336589288531e-01 -2.716577799106745239e-02 3.336073270475761743e-01 -1.767239014851400628e-02 3.900977759254459221e-02 -3.866967164113610522e-01 1.119306852699690075e-01 -3.182116770162744367e-03 1.553969424425636348e-01 -2.039432343549323623e-01 -1.163937159506242720e-02 2.876868966230786695e-01 6.823575319924721216e-02 1.567898518437105815e-01 8.852274367231416363e-02 1.133427356643036538e-01 2.598402113659180612e-01 1.495145040589132557e-01 -3.710688013615825315e-02 9.819577985215095783e-02 8.254890292989994216e-02 -1.555807872516962731e-01 1.006259071682034378e-01 -3.452803453723952976e-02 -3.519811200465269158e-02 -2.743644159804776717e-01 9.077298386921389683e-02 1.684728125967140666e-01 -2.986594791798399470e-02 4.217358943411273625e-02 -5.624047347159021049e-02 1.556820453930294335e-01 -1.619341242938185654e-01 1.407025641097899848e-01 9.204771670153283347e-02 1.994133379141170906e-02 5.163819922424269654e-02 -2.155383682596895556e-01 -2.473109118634307657e-01 8.235813415383556879e-02 1.706529333975646268e-01 -6.559669874440468562e-02 -4.316928220824881729e-02 1.239011281334413545e-01 6.661926500096312931e-02 2.680010595607539015e-02 2.437525971735763353e-01 1.939257132812363671e-02 2.230843124783139231e-01 6.333086854263213911e-03
6.536717867080112099e-02 1.906997666337005917e-02 -7.342748488307843102e-02 -2.858249190128082096e-01 1.778924565905705135e-01 -2.558417050599178389e-03 -2.292189326958083417e-01 -1.697194058297077646e-01 5.460244671372146280e-02 8.420720992154342999e-02 2.429363166480604519e-01 -3.199195519812869648e-01 1.622447316772865633e-01 -2.511916807709159705e-01 5.872050768282432304e-02 -1.437209188764705936e-01 5.034185628085554448e-02 9.693881864948000748e-02 2.935240071156211550e-01 1.067031681386261949e-01 -7.793663465771956400e-02 2.004025214069393435e-01 -4.536538693648478615e-02 -4.078745853635080132e-01 3.305464195191974985e-01 2.126219280878520468e-01 4.057886469465814272e-02 2.706795538789133482e-01 4.071705554343947875e-01 -2.320134008289350958e-01 -6.030225698938493362e-02 -1.416029164578975694e-02 -3.331279935825845473e-01 -1.654619086694797750e-02 2.871999961965420733e-01 1.060134175899437453e-02 -1.303630887359578383e-01 -1.388435908047672973e-01 -1.127741229163270985e-02 7.879171491252465187e-02 -1.197808393683958902e-02 1.996081853269786877e-01 -1.620507403524510948e-01 7.832028838772990553e-02 -1.223410020397249082e-01 -2.846752875827648355e-01 3.488004534533817314e-01 1.555257923097341788e-01 -5.942365390780667694e-02 2.026202517625567689e-01 -2.664598469853459162e-01 -1.069275811544114219e-01 -4.350606967741663805e-02 2.020791991292660572e-01 1.425571073110518117e-01 -1.177888466569040893e-01 8.575210024703218414e-02 2.907281689819272708e-01 -3.539887108055669307e-01 -7.034817404293247645e-02 -2.052974877813482646e-01 8.365763260180053562e-02 2.413918730598558771e-01 -1.146314750499979884e-02 -3.092263394065447035e-01 -1.786399782036844630e-01 2.208062464929545429e-02 2.548052274698772712e-01 -4.919710853369033306e-03 2.628672983620460313e-01 -1.676402552597104911e-01 -3.384221538426688408e-02 2.452538553155593215e-01 -4.551207420168880136e-01 -6.553095140111532546e-02 1.859719854548424200e-01 1.180146457340927879e-01 3.802674480651397487e-02 2.377881362837806489e-01 -2.058085931844777783e-01 -2.933675263639141106e-01 -7.563147678018848630e-02 -1.802562064917127005e-01 9.248457413645164160e-02 1.133464652430343916e-01 -3.434122183512432480e-01 1.388883218602579295e-01 2.359044173154531965e-01 1.363277726852888394e-01 -1.451216650352094850e-01 -1.953232496567275378e-01 2.877441275631783049e-02 2.823214435481301576e-01 1.603105740363104104e-01 3.837526689777811389e-02 -2.352157000866309244e-01 -2.746449184020050560e-01 -3.610700473806316424e-02 3.712591415693882735e-01 1.634922736288665357e-01 1.245504998141913761e-01 -7.317551968348777469e-02 1.978567295784768310e-01 3.543661046232448597e-01 -7.745746588523030191e-03 7.451587027915554384e-02 3.076194249402248657e-02 -1.514525887643090318e-01 7.137318051940690078e-02 -1.843849697423042278e-01 4.916074801669899352e-02 -5.624822740718523478e-02 4.866162084510143593e-02 -1.261909611921870067e-01 -1.607777147986261534e-01 -3.390332357253683648e-01 1.136890219929579393e-01 2.703422956478737649e-01 1.994322578566785076e-01 -5.554628224939841402e-02 4.018087283459378933e-02 1.688583711345636729e-01 -2.247242375135967418e-01 -3.499797164375738345e-02 2.997039905753317024e-01 -2.860066757437205176e-01 -9.977002974576792971e-02 2.422457368353949370e-01 -1.340332854902270832e-01 7.059966871850231751e-02 -1.972068917355131457e-01 4.099663090703244139e-02 -8.410315668464107830e-02 6.953184904282795620e-02 -4.668829144587728630e-02 -1.796510266397833844e-01 1.986149585042729926e-01 -1.852771680548382927e-01 -2.163969969488932776e-01 2.051882374987727964e-01 -1.378176157893775677e-01 -4.280419211516109032e-03 8.090981690276174976e-02 -4.996502284657875492e-01 3.316715639586554909e-01 -7.174668948680981706e-02 2.271565495888438202e-01 1.854830165547079190e-01 4.806674837777142467e-02 -1.777372996436962782e-02 -2.371512881311545196e-01 -3.481997874302310003e-01 3.465377813939913842e-01 2.196844040391723596e-01 -1.921964989497573217e-01 2.274393763187476103e-01 3.407651423661207102e-01 4.192213861121983631e-02 1.850425617066805140e-01 3.637464521755064129e-02 -1.323979753064259690e-01 1.657263160796441370e-01 -1.694056424120958526e-02 -3.698858786861160177e-03 5.942525908922443451e-02 2.595248326713129328e-01 2.888090621550386539e-01 -3.394625577230259705e-01 -6.979793804030795523e-02 -9.562007279690303008e-02 8.760559025159565805e-02 -1.890631229823817039e-01 -4.320884656207393121e-02 -1.761247810866985730e-01 -4.109352249882461394e-02 2.946131183059654268e-01 -1.057949057034554136e-01 1.796103007628701339e-03 -4.405091661285163163e-01 -1.423048017602676352e-01 2.286986265165530385e-01 -2.288234489865339782e-01 3.026807026007304335e-01 1.093994820131889423e-01 1.640174478203491881e-01 -9.822558643981449400e-02 1.034578986770274961e-01 -4.332087372413760684e-02 -1.477278186904543433e-01 -3.393585554553306682e-01 3.944428846659525298e-03 1.163028127635043624e-01
3.769665213750833521e-02 5.385652388037565769e-02 2.194892897936021603e-01 -7.162025434519134204e-02 8.012884394459535847e-03 3.205389654112796721e-02 1.317184347218909035e-01 1.017836746192099379e-01 -1.033427417580572855e-01 -1.334425156794932232e-01 -1.550057047829898060e-01 1.273923366252502909e-01 -7.460646485209483647e-02 2.986939325379615040e-01 1.344745097612743967e-01 -2.232240134978093725e-03 2.432950251785683804e-01 -2.938463872228919138e-01 2.223483521276585495e-01 1.801687869769260653e-01 7.857555518603082101e-02 -2.628699523522245660e-02 4.278616190608880432e-02 8.739583673062568947e-02 -1.412656057613583260e-01 1.825664179143503957e-02 2.447486800137612939e-01 9.753670400453556821e-02 1.112944066720319806e-02 4.867936935016044242e-02 1.864671395489951033e-01 -5.749545331771555023e-02 -1.641096196154886722e-01 -4.239944493687721611e-02 3.306016570714243041e-01 -2.244904637009999260e-01 -1.057253140695206817e-01 -2.058123182018213870e-01 4.300172636729143044e-02 -1.296852938317802004e-02 1.516766563161571768e-01 -2.513143128141029359e-01 -7.680102109211989214e-02 2.538339706923806172e-01 1.017286643559565662e-01 2.200041399350782800e-01 -4.825611023562952767e-02 1.655538824945073095e-01 1.106195948516278810e-01 -1.593742382840610261e-01 -5.707077331461239689e-02 1.311086647890924439e-01 -6.577782782229617264e-02 4.841810528248421779e-03 -4.940195239956571976e-02 -1.020814069155741161e-01 3.641477338546500898e-03 1.748342338020665880e-03 -8.963028139139099515e-02 -5.097735909321118170e-02 -2.291877894590374776e-01 1.092490133670376423e-01 7.541343808960048953e-03 1.942660488177963274e-01 -7.231043961365307693e-02 2.053233392306316740e-01 1.919405168585915644e-01 -1.986385362992641457e-01 -7.605978899655745085e-02 -4.238040183837955138e-02 -5.339635081260694222e-02 -8.684522481882631095e-02 1.450539379433369858e-01 9.867528185311551236e-02 1.001397471090213348e-01 -6.506967020105947075e-02 2.445230281319752952e-01 -1.173746594369740881e-01 1.440410514276879994e-01 1.089319748386107373e-01 8.855272396050932471e-02 -1.420150142048765829e-01 -2.258955585275261302e-01 1.413663759191531311e-01 -2.207190606864138996e-02 1.480079410655539829e-01 -5.989093408626133819e-02 -5.556933631291241515e-02 1.363584845932439005e-01 -9.662105437189784374e-02 4.522057409240860526e-01 -5.062627105631437030e-02 -3.221401859752449082e-01 -3.732709014866095621e-03 -2.593663739842614127e-02 1.112087128001893882e-01 -6.702777535391811654e-03 1.723273129229064005e-01 4.603800397295539082e-02 1.446724006152600994e-01 1.134009518922543674e-01 -9.826420569136701949e-03 1.282659439423243508e-01 9.412010651406012285e-02 3.024088410691563311e-01 -1.803962302750795887e-01 2.449799638742986563e-01 1.952309009826739064e-02 -4.572009232617738755e-02 -8.937033768722174587e-02 1.485223386378988208e-01 1.557665508318422654e-01 -2.645489040067482978e-01 7.623301219317007126e-03 3.567078873059734839e-02 -2.686056028789371788e-02 5.288747123528487332e-02 1.816814897157389419e-01 1.218300390348511369e-01 -1.186145322631534799e-01 1.231482071778908505e-01 -1.425931025373672612e-01 2.988389560329517414e-01 -1.465862102951030477e-01 1.699824060300366146e-01 -2.781565435988160861e-01 -2.037013602884543695e-01 1.316151056888929249e-01 2.410898768644255952e-01 1.278114519696590123e-01 -1.646751875907676854e-01 1.945454515507962501e-01 2.420089404597852364e-02 2.072121044740499740e-01 -4.961189746607194001e-03 2.658334070736861898e-01 -7.372533088919756838e-02 -2.069046635763356068e-01 -1.634402498921334601e-01 -5.508215549461525223e-02 -5.175257850593589087e-02 -5.061577870521445643e-02 -2.440913277358220390e-01 -8.529138339380998302e-02 6.560551791007018969e-03 -2.119608826085266073e-02 4.772841410156692527e-02 3.101743745623229964e-01 4.994146295873797339e-03 2.868557268437122998e-01 -1.071778824826192938e-01 9.199903429376406205e-02 -1.219780658849645566e-01 -1.475825127097512290e-01 -1.396590517087604455e-01 9.334381309596501142e-02 1.638652459358817814e-01 -8.974997735036259472e-02 -5.648265309326189892e-02 -1.320368336806193310e-01 -1.837885399245446083e-01 7.556822436999888204e-02 -1.996652481793382838e-01 4.349486972326004897e-01 8.641993506447254517e-03 -1.723439913855313865e-02 -2.368757140960879234e-02 4.438872683090832466e-02 -1.362465600308268576e-01 9.715423240070972244e-02 -1.432273876395140921e-01 3.086038564909081034e-03 -7.007302396951578527e-02 -1.886312157674356060e-01 -9.313112538689301279e-02 7.849532807923735936e-03 1.431224051901749672e-01 2.271114847584075891e-01 -3.040114634156626527e-02 1.692860119624584603e-01 1.525392211189950942e-01 1.541446473725461251e-02 -2.554208535185583662e-01 4.245707984630955889e-01 -2.572822286958763305e-02 1.155589452042726506e-01 7.190571419993402325e-02 -1.350980429555407036e-01 -7.934321686075142266e-02 1.798846793392982479e-01 -7.517819413300054487e-02 -2.221815679295662330e-02
-1.236636960366126192e-01 5.438251761568595882e-02 -1.055960171240973855e-01 4.278931298681907386e-02 -1.454901357197707634e-01 -1.071439706525123686e-01 -2.664227084396400200e-02 1.254685838707752521e-01 -7.284885774255982216e-02 7.216845221848913750e-02 2.319207993263375789e-01 -1.726993834295017516e-01 8.872108447697027445e-02 3.940086550712642438e-02 2.148844814058241057e-02 -1.944466160216106465e-01 -1.194408158241204027e-01 -1.150354288654730807e-02 -1.319747439586921867e-01 -1.187691031139239128e-01 1.982095109184489334e-01 8.816601473160849689e-02 -6.282492305045367376e-02 -1.540626518493898034e-01 -2.639627360046494231e-01 9.224903507381050638e-02 1.048580724163418881e-01 7.328744646648235883e-02 1.362880767720373865e-01 4.834909394381697867e-02 -2.552277413533710626e-01 -1.877628907280198128e-02 -6.180701099117774135e-03 2.726913796410668916e-02 -7.279680041184605210e-02 -1.303924691846572274e-02 5.381834638543867705e-02 7.202387277001955079e-02 5.419332956884356789e-02 1.888215608676655777e-01 -8.384171803588558181e-02 -5.871185657858758733e-02 1.388768306132585617e-01 4.273552901535346282e-03 -2.738266962066722154e-01 -8.913742363810153724e-02 1.834545126290191841e-01 2.196337542076688132e-01 2.204298863817431287e-01 -1.104124914538438668e-01 -7.040031129171833713e-02 -1.442811793111083984e-01 1.124981974238146165e-01 -8.211830718195704815e-02 2.740706629191178578e-01 2.000721836275480281e-01 -2.186777369282956185e-01 -3.849401585344251059e-02 2.950650169655073540e-01 2.092132629051404458e-01 1.160600596693178721e-01 5.651453467635007832e-02 -3.384675191168988739e-01 -3.080312600011355650e-01 2.129258394324569717e-02 -5.566428080040994320e-02 -1.615542657970727436e-01 -3.594135993987412903e-02 1.846033177240575529e-01 7.623023790615066075e-02 2.634727658675933143e-02 -2.558663422774822283e-01 1.720839387325942549e-01 4.574733078922843532e-02 1.091445035910392908e-01 3.289053865872770821e-01 5.375653363454550859e-02 4.147465992972402399e-02 -1.080647069701214970e-02 -5.627631039198227603e-02 -4.870118274927413143e-02 -3.331416843889983825e-02 -2.647933474788820296e-02 -3.185723390394237103e-02 2.176427309954538647e-01 -9.504281405397084492e-02 3.151463893638430797e-02 4.470089242709885391e-01 6.651537990597554406e-02 2.614974415578168870e-02 7.685976570842402433e-02 1.133273435221058417e-01 -1.807093606792493576e-02 -6.294534794576613773e-03 -4.278543906454289336e-02 -3.040478513045644648e-01 -2.239321893479934156e-02 2.209945651631539665e-01 -1.044693388104639548e-01 -1.566993774326047584e-01 -1.019560307229051555e-01 -3.106876079006966052e-01 -5.076279357707981499e-02 -3.250350238936466907e-02 -3.026417321309422120e-02 1.562706746633137911e-01 -1.632113400978089657e-01 -1.500368564988861231e-01 -1.976665103444642801e-01 2.500751323019971828e-01 3.212817297626562874e-01 5.842194246121388233e-03 -9.193627395484700593e-02 -1.960261928698033840e-01 -1.286459486907307881e-01 -1.182398122476756158e-01 -2.580511338559407508e-01 1.907579150223920883e-01 1.111459587678544358e-01 5.541178894303701308e-02 -7.274209727081083939e-03 -8.237009343036591491e-02 2.068329685693170647e-02 -8.182309171355890698e-02 -6.824728991397509270e-02 5.891606257805886288e-02 -6.847574631808749090e-02 -1.569253462084554407e-01 1.854508450901223293e-01 8.243299342635323698e-03 2.439358060690944296e-01 3.932965877779929370e-02 -8.550068190148150948e-02 -3.661844341107698964e-01 -5.371693570323065464e-02 1.359357950051224839e-01 2.120094607955405330e-01 2.018332968009915740e-01 -1.799923633248542987e-01 7.258982069315896013e-02 1.861330977343060300e-01 -1.436663536371280414e-01 3.375653388988376219e-02 6.207730298926222162e-02 1.061601821943729124e-01 -6.283979804828669635e-02 3.483803303356015207e-02 -1.492180586744072945e-01 -2.591267547426173018e-02 -1.185522946294650104e-01 -8.661003486444782129e-02 9.440164195193911922e-02 -1.069674616026519698e-02 2.514323590857649449e-01 -1.418914681131711875e-01 -1.021516340565032689e-02 6.931328004125603126e-02 1.092215367656177993e-01 7.573935550563405672e-02 7.275674727761653748e-02 3.341252787167357102e-02 -4.264126717695402441e-02 1.795839324036853091e-01 -4.327456769571598194e-01 2.379641177065846547e-01 4.551400260791002572e-02 -3.336431473983395013e-01 -2.059978539645699880e-01 1.978438183790164340e-01 2.749148988354708778e-01 -1.166171314933867192e-01 1.630906539680501699e-02 1.025357300452229836e-01 3.040158908342057223e-02 -2.144750645770421293e-01 -2.226833020764688309e-01 -9.725738382758730705e-02 7.315513231997887444e-02 -5.067401949298720731e-02 -3.068820482022647234e-01 -4.217835659281918281e-02 2.569036701693427904e-01 -1.771143707890180385e-01 -1.021597991533106375e-01 1.192398625852975763e-01 -8.323647734090611205e-02 -4.663338586156016291e-02 -5.801581469710834563e-03 1.118730714061126480e-01 9.394689506172111682e-02 -7.006887799433990371e-02 5.842612411760695484e-02
2.180660828064716894e-01 1.644968992188931001e-01 3.530551789817883979e-01 -7.219195710968518732e-03 4.942968878603910127e-02 -8.585399569505861028e-02 -4.318943172845269435e-02 1.772815311314249187e-01 1.425999249396205648e-01 -2.274363882357169700e-02 -5.946787376406600240e-02 1.238875220050665305e-01 6.653849327495479915e-02 3.803003784986946217e-02 1.194453185333835404e-01 -3.587662532994305518e-03 -2.405682312889925178e-01 -1.581634003874000383e-01 1.574354031376130891e-01 -1.719647551502933303e-01 2.343192928998142632e-01 -1.330910440335045519e-01 2.567772744461254142e-01 2.144313330926278238e-01 -3.951521660851650686e-02 -2.845932166186381299e-02 -2.260299560770111238e-01 -1.106105798904665621e-01 4.326865852984999594e-01 -9.490911769433953496e-03 3.637571426586037188e-02 3.274375668852952392e-01 -6.984031047983367546e-02 5.228744622096544864e-02 3.027577077084310231e-01 -3.052682871808666820e-01 -2.384369639254991236e-01 6.857588760702516828e-02 2.115396441518751502e-01 9.635307253967687058e-02 1.490695968956439778e-02 -2.427429916967698692e-02 -1.350597884076703836e-01 2.928021462459960422e-01 -2.455096117405485348e-02 1.863911398806704367e-01 -3.634592653085070846e-01 5.326053227957473074e-02 5.147306121858213207e-02 -2.492197474778846608e-02 3.443965107742344434e-01 -1.927281639307610317e-01 4.429053948147092939e-02 -1.586564603852089542e-02 -7.987188246634815969e-02 -1.392149171792926299e-01 -3.344336907220946120e-01 1.896515546254936013e-01 8.393123801664419126e-02 2.081826135145954104e-01 -4.014077057239961444e-01 -5.567810452985379882e-02 -2.368300582422130929e-02 -6.503457616261885954e-02 1.051895041476092439e-02 3.324954066878512693e-01 -1.036624247087946787e-01 -8.083385579390718612e-02 -1.478746105016142398e-01 6.642642412568941501e-02 6.283740919475952480e-02 -2.663852354772786035e-02 8.469734363598901972e-02 1.277615233562664765e-01 -5.215220527485920493e-02 1.181072826540983250e-02 3.130515326535601717e-02 1.258731777938024710e-01 3.289215092180331618e-02 2.818020722344243834e-01 -2.295888787875223214e-01 2.995914236003309750e-01 5.940714775101341855e-02 7.293330921672606937e-02 1.127729796231379394e-01 2.767934500775293127e-01 -1.473870876241846484e-01 -1.174479030047329703e-01 7.477276286440440178e-02 -6.787462687371798031e-02 5.487353208652322872e-02 -2.088913980364705825e-01 2.213982692055506754e-02 -4.521487823405657275e-02 -8.631806796769034978e-03 1.053645876342333698e-01 9.894213010821276827e-03 -3.380405718626295491e-02 -5.950547409055272075e-02 -2.012695581783328080e-01 3.712274843928993484e-02 5.266334486211114892e-03 -1.858940674965803008e-01 -1.443802497081485281e-01 6.619412216266236382e-02 1.738114226132726758e-01 1.650596773867481770e-01 -1.296965967644171935e-01 7.430668729119320470e-02 -2.440812586536283690e-01 -2.744542777441089654e-01 -8.888261332316398089e-02 -1.394584651780316062e-03 -1.152073081276919070e-01 -2.408651403249978673e-01 4.278875755591998731e-01 1.800707599587743346e-01 -1.834284045361308513e-01 8.632509945282600128e-02 7.506422229805610746e-02 1.866912841312141358e-01 -4.782197741877150521e-02 -1.326162359050812589e-01 3.147832404051298383e-02 -2.560748105213277170e-02 1.844256415372128866e-01 -1.719349012169064939e-01 4.305386365037714574e-02 2.117963197120202312e-01 -5.975700645875699213e-02 -6.463012964544727346e-02 1.525727182405717773e-02 2.178581447047624534e-02 1.332510760855783460e-01 -3.601291747807757737e-01 -1.495944913606575902e-02 -3.670260822097257732e-03 -1.066414016142660515e-01 -1.393664233722883006e-01 3.956764240929871307e-02 -1.785751141612703097e-01 1.845301718421464843e-01 3.462424474837724753e-02 -8.838344888539718947e-03 3.274943173311243294e-01 -1.171102590865418513e-01 3.574863053232694710e-01 -8.252484685849319213e-02 3.382041700664830675e-01 -1.680694223945914112e-01 5.283888753571568814e-02 2.454268010968453304e-02 -9.593739163339798370e-02 2.205076876573124622e-01 -8.224690307379275978e-02 1.122348454057791878e-01 5.372635702619317499e-02 2.399881127861604180e-02 1.938430241387734121e-01 3.910414081709522871e-01 -1.737893777271878326e-01 1.335606020082640011e-01 -1.727933441236934042e-01 7.044813286054675550e-02 6.808817214011811392e-02 -3.310012836504815925e-01 -2.326524019156461232e-01 -7.624364751728134049e-02 -8.079730211135280338e-02 -6.953128812005558712e-02 2.689289372266087663e-01 -8.802340491924361132e-02 2.524940360722451871e-01 9.789864852799846917e-02 -1.549586680551982287e-01 -9.060571964361999187e-02 1.715459788960444210e-01 1.432673306771951593e-01 1.313841416207127966e-01 -2.918423342156085676e-01 -1.222746370338737426e-01 -8.097785163492046689e-02 2.681406133919427698e-02 3.087586418827055756e-01 -1.170868412688890192e-01 -7.130242401039417477e-02 5.438239079816845761e-02 -1.213283055164420116e-01 3.858647648834585830e-02 1.941910724304916902e-02 -8.007811480479251620e-02 1.205125733205831134e-01
1.401656249029516466e-01 -4.176072144060084118e-02 8.288680838539981555e-02 -2.953101550479688697e-01 2.210652285395207084e-01 3.209265470163106815e-01 -2.582493095234588698e-01 -4.097769390972710174e-02 -5.361954050967607244e-03 -6.620523051986570984e-02 -2.241649002903232241e-02 -6.629498678055865957e-02 -7.193843609171546305e-02 3.689268357862086206e-02 1.068559005897205261e-01 1.723211998350861196e-01 -3.358842207467399588e-01 2.760375200897177139e-01 -6.529269455234553050e-03 -4.355667897106476477e-02 -1.827159071555445602e-01 5.476733548341226887e-02 -6.723916469660205786e-02 -1.172200209414625827e-01 1.016692560699866271e-01 -1.775800906628972886e-02 -2.405287854419065896e-01 1.138222384861810668e-02 1.045535594660920893e-02 -6.941601049843579285e-02 1.683632287407803019e-01 4.677125571591815578e-02 -5.759716032014858267e-02 1.456399556960729924e-01 -7.667405598864412974e-02 4.872799371226678722e-01 -1.721371231965427850e-01 -2.090716505716609386e-01 5.782130780521161501e-02 -5.876852841115865617e-02 1.172721731434313575e-01 3.499420020593547176e-01 -2.564852249479558366e-01 8.630099119771077187e-02 3.435470301149980421e-01 -4.195398478489829608e-01 1.948216485380411256e-01 -1.670677323520358970e-01 -2.065845379499609835e-01 2.724789044719941322e-01 -1.757283573406025479e-01 -4.871072752650488363e-02 1.316626067079733689e-02 -9.176168879790332772e-03 -3.073096561939304139e-01 5.859319774026211514e-02 1.541420584202120303e-01 1.874670575895888772e-02 -1.916164972807870848e-01 -2.137151759568710896e-01 -2.624894634882467617e-02 2.377036332201347135e-01 1.269593966470413671e-01 5.453852859372392177e-03 1.710996354224835758e-01 -1.093210418607024198e-01 1.618042606569264352e-02 1.810320472135427960e-01 -3.414187413391850945e-01 1.336013814474883432e-01 7.331913966357002377e-02 -2.923890004866911904e-02 5.035889066902293765e-02 2.222959692284962874e-01 -4.733059366266852142e-02 -7.470839703792363229e-02 2.108054244425123513e-01 1.792458668606788930e-01 -1.163223291312703994e-01 3.895242319420350128e-03 -1.771240722052601080e-01 3.128669367922409100e-02 5.822550637683043817e-02 1.941656259901656523e-01 -9.958414419365801962e-02 -1.244376187509370069e-01 2.660703135237253436e-01 1.254070431602597249e-02 -2.065895615169426880e-01 -1.181231912294380959e-01 -2.919140773466471495e-01 7.040096410815238626e-02 1.727718766020581997e-01 1.798445821001593836e-01 -1.057766123524244706e-01 -1.913212538302841610e-03 1.252959953008482841e-01 -6.672274978724353212e-02 1.387156351764569362e-01 -1.174433589442827747e-01 2.467427919242412213e-02 7.683719778921278831e-02 -1.693484750057674681e-01 1.755484485905705327e-01 -2.629447733158376543e-01 2.316998229321514668e-01 -2.798567669793937673e-01 2.890426877660324800e-01 -9.963066270905941713e-02 1.600874686131668334e-01 -5.271058360929850584e-02 -1.278761408394952781e-01 -8.763090204984657142e-03 4.696639709807647056e-02 -9.999959297892907495e-02 4.433300356813264786e-02 -2.802911106703042873e-02 -6.047471224578890303e-02 -1.179543160777389854e-01 -3.383127058947384969e-01 1.195857842940743765e-02 -1.145524347163462686e-01 2.244311266877458411e-01 2.496932071907986550e-01 -3.734532491938895582e-01 -1.417256568740860034e-01 -4.698415371516170835e-02 -8.200206868455439668e-02 -1.325862172350960599e-01 1.989872632513687012e-01 -1.507004228238162380e-01 -1.702663497176099341e-02 8.318181230027447970e-02 2.597952294857433508e-01 6.401303203788633045e-02 -2.946354981540302842e-01 1.345268428648756787e-01 -2.448085455664134324e-01 -5.053593284514523026e-02 7.040799940159757353e-02 -2.245827352184733283e-01 1.481470866557851873e-01 -1.845799356816638925e-01 1.507107585338139655e-01 -2.055510045910605710e-01 -1.752628140890339845e-02 1.032955282401830516e-01 -1.132299413173113167e-01 1.483073945411856609e-01 -2.288960589880221774e-01 8.563075233733838387e-02 -9.776420603476901339e-02 -2.665881391267020395e-01 -1.040784949166198708e-01 2.469731672876431805e-01 5.565133754937987010e-02 1.691283526032283102e-01 -2.017116292764022101e-01 -1.073794067477598646e-01 -1.958989291007612599e-01 1.562974525327097963e-01 -1.658717513970396629e-01 9.186368514356772763e-02 4.401032396256554513e-02 1.467556385150458886e-01 6.055707285368756160e-02 -1.904298647155257609e-02 2.811663921562497157e-02 2.065944850942533495e-01 -1.568755626048323470e-01 -1.276491258035652443e-01 -1.707449573632829343e-01 2.972298017635179382e-02 4.066825286624468072e-01 -1.216252121553015875e-01 3.074181966859848569e-01 -1.022092918569079134e-01 -5.805397969852439145e-03 -1.497757719685702538e-01 -1.158060189895204067e-02 -1.332351413394651518e-01 -2.131222236804528047e-01 2.536365832541544463e-01 -2.143388223387699687e-01 1.510473130622146110e-01 5.228816545072282468e-02 1.407051799615487708e-01 -2.735701083323644478e-01 8.621834003167492405e-03 7.123568987495135230e-02 -1.576472188773821170e-01 1.463002903817556266e-01
5.684284317955886484e-02 1.171780731264089881e-01 -1.090060942465400501e-01 -4.426952837447692413e-02 -3.008606603701228371e-02 4.447988262977575769e-02 1.015459048792658747e-01 -1.371054684363926801e-01 1.155553472992493919e-01 -9.191260881733805121e-02 6.804188400602073639e-02 6.490969680659869345e-02 -2.322517878657545387e-01 -1.503571762406870072e-01 -2.065254278939374633e-01 -4.135040098044324292e-02 6.051047080526432420e-02 6.106574124264210757e-02 2.323550871640626611e-02 -2.070609028931930662e-01 -4.069340110269788202e-02 -7.856726907489108847e-02 -7.476963977208603285e-02 -1.360455217059263755e-01 2.029822746793359667e-01 -1.931637092897215413e-01 1.512605229808349772e-01 2.024478061527178879e-02 1.561066702563781716e-01 -2.579683976624288499e-01 -1.318999597921214351e-01 -6.660245118601014480e-02 1.566880887211699047e-01 -1.020274604479837754e-01 2.302314742714750562e-03 -2.188637350376528012e-01 -3.456044508210462385e-02 2.600622940103978764e-01 -1.126338085487310903e-01 -1.811295707039622038e-03 -3.603062622792393976e-02 -7.388498733267877261e-02 1.676012999317392504e-01 -1.150857153663665255e-01 -4.121934948498356954e-03 1.164204380791881571e-01 -7.109277890977502845e-02 -9.933982539325519889e-02 7.154015063835654498e-02 1.142619224127933847e-01 -2.473392569385113315e-02 -1.711935584220425355e-01 1.585815897034652255e-02 1.831009348487981914e-01 -1.067611625006853297e-02 1.299529054243988013e-01 1.191496881705980809e-01 -1.814388203249475348e-02 -2.769810064257076029e-02 -2.514576354161985328e-01 2.172931725513215645e-02 6.685941621569821414e-02 3.290110310920711378e-01 -6.344793544595794810e-02 -7.532247484863588416e-02 -2.175989718163690856e-01 4.094928035427822938e-02 2.291032603061919082e-01 1.112189717249760373e-01 1.668980910219010627e-01 -9.666425345756500878e-03 1.600294776712883060e-01 1.009785671159937337e-01 1.697906361855584800e-02 4.569139446308672081e-01 2.288504361140624166e-01 -7.428287975966940682e-02 -9.551955772952661072e-02 -1.196991192046462926e-01 8.515088462717614048e-02 2.286446285957641211e-01 -3.040600366608648408e-01 1.125065691410885027e-01 -1.814737027364701771e-01 -4.875312051067356989e-02 3.927011255860237554e-02 2.551427136280232447e-02 -1.614773013130821095e-04 4.703289183535105944e-02 4.166117266587536505e-02 1.212852220799034847e-01 -1.953393475145885350e-01 -2.989991306034959703e-02 1.215979629037447912e-01 6.221193985046824526e-02 -1.356864185584030491e-01 -3.681860917039491699e-01 -1.368391973021495511e-01 2.323593926522604658e-01 1.286011306383134656e-01 6.029162330105160283e-02 2.967388139409795622e-01 -1.651791587287092522e-01 4.801029271608033000e-02 -6.310422392211101350e-02 -1.805745330421332923e-02 1.921388409492792437e-01 1.665264014468972320e-01 4.220904904397367735e-02 -3.689455268047776570e-01 9.949603935940011523e-02 -1.005948086373761596e-01 1.141951589014020829e-01 -1.666941100725025660e-01 -3.014397215930515461e-01 -2.440358536082743446e-01 2.680220095026498717e-01 -2.867273946205524046e-02 1.030876304141784966e-01 2.585640903925447431e-01 -1.860784112533262480e-01 3.150450739272941392e-01 -1.180165901611341522e-01 -3.295518445062793345e-01 5.879955029222360546e-02 -1.277603572189160430e-01 -3.217572781610537613e-01 5.286949975967532300e-02 1.102221343581359994e-02 1.583824214614316592e-02 1.196997555973501326e-01 3.190237985885809313e-01 -3.306723258455879916e-02 -2.249701462629452309e-01 7.724777969718023274e-02 -1.707482637024130001e-01 1.008904521343467406e-02 6.178290691962757403e-02 1.239654241537673368e-01 -1.257000992787317140e-01 -2.260382730103087379e-01 2.019051683161917909e-01 5.939959686044862797e-02 -1.034006500502634568e-01 1.832208963801381929e-01 -3.325199533664213725e-02 3.275274285543949837e-02 9.254954944875924683e-02 -2.025627110167149691e-01 6.249706024211437033e-02 -9.017149627933469802e-02 -1.112683723333774410e-01 2.041242661034867734e-01 9.019110714559568087e-02 -1.625791661808780042e-01 1.081337165413546464e-01 -2.863142352138167701e-02 5.832424331757574826e-02 4.651628897779968436e-02 -3.616261135903475754e-02 -5.805762414777641128e-02 5.726606358387937787e-03 3.741972097915956252e-02 -3.281438089918342071e-01 -1.384921367041018481e-01 1.462505125383847249e-01 -1.342394210115349998e-02 2.849429549676513185e-01 5.470111223326867833e-02 -3.056378299849507249e-02 1.551997057822244834e-02 -1.192133793826012644e-01 -2.080581185427775315e-01 8.101456347911624445e-02 -2.843334628936807287e-02 3.967475310935267285e-01 -1.156198526382750530e-01 -1.495185650650666942e-01 3.566513558916166449e-02 3.072055622442985134e-01 2.047594540487801540e-01 -6.140882523799699039e-02 -6.262769312737496985e-02 4.881427438456466261e-02 1.710310322422315676e-01 -2.299530742418939011e-01 -1.811061711907818450e-01 6.249392783544049923e-02 -6.749025209457731878e-02 -5.617849069098632686e-01 1.963784377404958689e-02 2.350499102603406665e-01
-1.045130518885078498e-02 -1.147660903743331212e-02 -7.008766244713050819e-02 2.979109425701836553e-02 5.885446993536826155e-02 -1.984314026643897166e-01 1.348694289215030817e-01 -1.038497085318103724e-01 -3.538876335977243076e-02 -1.383998937374055112e-02 -2.028728725185358905e-01 1.799984082242873373e-01 9.368329252767748638e-02 1.678050215675232770e-01 -3.651996014560759257e-02 2.155857479786632211e-02 3.260146753992278490e-01 7.719463255920454292e-02 -1.677497487077838079e-01 1.986080011384424859e-01 -1.131118123442643175e-01 3.624553294987097746e-02 -7.533568472353496803e-02 -2.486399614998482388e-01 1.838949342860992167e-02 7.412500160925233894e-02 3.128929040345245632e-02 -1.127827532002054073e-01 -1.468692758273563714e-01 8.433912654855456326e-02 5.075844191941365768e-02 1.110271075491571224e-01 1.133272903424016043e-01 3.624327527633447454e-01 6.176757183813481183e-02 1.766042583546082179e-01 2.894095275619484875e-02 1.562466303251110744e-01 1.457155999787707323e-01 -1.699409027286624962e-01 -1.352346243810107485e-01 -3.026327149825183693e-01 2.548893407828897173e-01 2.277578733037691899e-02 1.044898292075751856e-01 -2.603923306833196838e-01 1.083645047935142963e-01 1.682651726327452357e-01 1.032803796661277418e-02 -1.432752522607773915e-01 -1.647490063667269578e-01 -6.618568295217261248e-03 1.885807135673653323e-01 3.203652783490452127e-01 1.548867598825515168e-01 -1.447821149316841083e-01 -5.386866621543483051e-03 -3.083357194609367274e-02 -1.327606333061971677e-01 -1.075735346741150400e-01 5.949572228851730121e-02 -1.806192419849351194e-01 8.484155754224577406e-02 1.307688390139062976e-02 -3.532465646853216179e-01 -1.174714850847333736e-01 3.465557539221817557e-02 -1.952429525069196703e-01 2.049402447306127861e-01 6.752959527987217880e-02 -2.345929988670815425e-01 -4.690812298515436435e-02 4.338862536005316101e-02 -1.364396473720359089e-03 -2.285261074946763060e-01 -1.014709860278489723e-01 1.972723232567138163e-01 -5.750737531213245129e-02 8.408577927379431993e-02 -1.008503886130020372e-01 7.508415974324309655e-03 1.531475179761457861e-01 7.578506182309825701e-02 -2.587138124476416889e-01 -2.221100312080270256e-01 2.609438711718079507e-01 5.525865777514925303e-02 2.362003096259058244e-01 -5.417963808690982874e-02 1.557624365015636836e-01 1.706543808057862377e-01 -1.621391144578862575e-01 2.657733332995423359e-01 -6.919065277498902267e-02 -1.322608598484225628e-01 -3.495334233323237894e-01 1.331999229815846453e-01 1.144429771212736174e-01 -1.660209113104907652e-01 -1.004611606587934719e-01 8.950186991147143778e-02 -3.134639555008228440e-01 -1.928409929386916757e-02 -1.585003693712722928e-01 1.143033067867388342e-02 1.099201669582948321e-01 -2.109917452960331785e-01 1.138158761998320084e-01 -2.724101480198322101e-01 1.661846014051159559e-01 1.111367886690197426e-01 -4.201891011639162510e-02 4.264519384104505789e-02 -5.996419373964613497e-02 -1.035167384313248895e-01 -2.677024142106981253e-01 2.397392958197399823e-02 -8.172831161991382654e-02 1.727939331291750980e-01 1.969397479460787206e-02 -1.494970454256126235e-01 1.103862476308777561e-02 -1.320939916506029266e-01 -1.802223336911532858e-01 3.156535538772480276e-01 -1.953936006564967465e-01 -9.385579292408135696e-03 -8.362420392868222252e-02 -5.080913718186168271e-02 2.251838399240706501e-01 3.906860820057302813e-02 -1.429734641501753112e-01 -1.836511516521374676e-02 -1.000473890932775667e-01 2.992003446782091070e-01 2.883093070921248779e-01 -2.276596486341190273e-01 -2.266805518314382872e-01 -4.429724980215233449e-02 1.523546870803926256e-01 4.198052163097261424e-02 7.173224087141667760e-02 -5.177423147722784100e-03 7.214278010877553382e-02 2.420707009949941979e-02 1.793295673888327668e-01 -6.760160592966568682e-02 2.004331029434744740e-02 -3.314745502637317376e-02 -1.651191344984166975e-01 3.715840768935042837e-02 1.729648504244573060e-01 -1.369057584678638750e-01 9.149318636333923782e-02 8.039344973966235097e-02 2.022971055723154013e-02 -8.764451499183655014e-02 8.134940810752916418e-03 -4.600844274760681335e-02 2.601033689160857088e-01 6.171398673601879298e-02 8.888620006998088074e-02 7.420193778167730181e-02 5.624851659765589540e-02 -1.574849580352921108e-01 -2.262461553529914458e-04 3.364987921975157170e-02 7.165756895951357064e-02 2.257002481102674818e-01 -5.554341878061557630e-02 -5.757203632155798168e-02 3.450776788107746268e-02 -7.784970972873518635e-02 -4.210577986472723716e-02 7.043011128084913919e-02 3.932838654039414600e-02 -3.186132433854443197e-02 5.170213158197098369e-02 -2.658993949099649479e-01 -1.208160968259113094e-01 1.395715474992575700e-01 1.965851406326650508e-01 -1.153566468601396888e-01 -1.864884661742282068e-01 -9.510215846039678234e-03 -9.151071769083582441e-02 3.113357152050684196e-01 -6.421214539407899598e-04 -6.391177037681119999e-02 1.401159077060383160e-02 2.194137529816732046e-01 -3.465965792318191629e-02
7.776205353931761599e-02 -9.176968720785952383e-02 -1.090877747031405165e-01 2.290054837847419478e-01 -4.987099210274265754e-02 2.334744185287108142e-01 2.365059560367291716e-02 -2.183666052169840055e-01 1.507054354976869737e-01 4.112116291664210110e-01 9.128334981176623730e-02 1.031039019953458036e-01 -5.043644191308792601e-01 6.815003748661944971e-02 1.296586263970860298e-01 8.844154791109772040e-02 -3.091157832997910512e-02 -2.046080758093158092e-01 4.220402910580421940e-01 4.261568389680995411e-02 -1.010315031905948402e-01 -2.225984869774490227e-01 -2.139402301536910342e-03 -1.815481498705675753e-02 -2.232139672506278372e-01 1.289067216116255299e-01 -3.701187199428548208e-02 -3.430257587687980392e-01 -2.020349606533484166e-01 -1.956498646060245150e-01 2.163688451529476586e-01 4.125709547900602986e-02 2.935857192301035701e-01 -2.823389755700222437e-01 -8.799448719486099857e-02 -1.575805665656781693e-02 5.865289914477479077e-02 -2.186484383790536501e-03 1.838484891996017973e-02 -6.376757862801586685e-02 -2.614462809575361923e-01 1.283253168987219250e-01 1.048322140932850116e-01 -1.855613540512518755e-01 9.556797444778422634e-02 1.090180407307373735e-02 -1.930059202509412097e-01 -1.674575248705530428e-01 -8.807060181791466491e-02 2.015580516532964328e-01 -1.604188373471016060e-01 -1.228021127139021090e-01 1.450078040649439293e-01 -2.380404434171254913e-01 1.909602697764184454e-01 -1.365928781117355106e-01 1.991830340432208524e-01 -3.535709999089426403e-01 1.914806973062797013e-01 1.315500616994894761e-02 2.014696982834191519e-01 -2.019564585038257643e-01 2.610349845516579670e-01 -1.078803324375865874e-01 8.738211887693120294e-02 -2.629375657778727504e-01 1.420710388567275051e-01 6.490414209741414420e-02 5.758951431724974174e-02 5.147975425066165373e-03 -4.611547249251807257e-01 -1.472420548052310318e-01 1.366353881056918129e-01 4.258821957040649919e-01 -1.436489558900544972e-01 -1.288472186729810176e-01 1.336510670173867432e-01 1.298431803793349548e-01 -3.552646101680287383e-01 2.269850144549025450e-01 -1.367393770096774763e-01 8.812173994540327404e-02 2.285287229818152854e-01 -1.263838094283022406e-01 -1.039689241963602795e-01 -1.769735719422465825e-01 -1.591408350688621465e-01 1.048085172279283744e-01 1.350063050426295215e-02 -2.790301036827412540e-02 1.049601043651286203e-01 -1.241574835270497362e-01 -4.367294536308284625e-02 -2.440509439774664335e-01 1.405480522214495528e-02 1.679308806372244167e-01 -1.164324414707692129e-01 4.754275377029149041e-02 -5.302805776807630739e-02 2.019856848281789130e-01 2.093657217775012069e-01 2.398071298206847779e-01 5.764101052563394166e-04 -1.363735223653040618e-01 -1.276752645128957364e-01 1.185828799069982287e-01 1.999881813021389121e-01 -4.512203148236026279e-02 3.070628797054411052e-01 -3.962224803958235841e-01 -5.622848336205525654e-02 6.078034316556587754e-03 7.790963034044293134e-03 -9.080436672065522741e-02 -2.016981656559933833e-01 5.860340391374273261e-02 -4.384287688547464784e-02 6.407602082037484881e-02 1.424967053224595326e-01 6.187235238419334926e-02 2.637830978546994512e-02 8.269942105823988032e-02 7.466071123300464796e-02 -9.353021763729259253e-02 1.603792374735215839e-02 2.182609325200838418e-02 9.553181304115125616e-02 -1.076186828796278777e-01 -3.406437147195268828e-02 3.370826378729882000e-01 -1.633223472100176488e-01 -1.382847727449185680e-02 -2.413061465858495347e-01 -1.228012651733230015e-01 6.639584478702946491e-02 5.748295795058579877e-02 -1.274456570719537801e-02 7.123337888696310016e-02 1.755902180681765679e-01 -4.240329667470502106e-02 -3.628662322251207106e-01 -1.476356141914750564e-01 7.584929803729804909e-02 -3.196496425204101155e-01 1.358456143963275020e-01 -8.903681368961099615e-03 -2.322868056009633475e-01 -1.707579782931839193e-02 -1.486255196374316467e-01 -1.944792008652312942e-01 2.900976093303671566e-01 9.258781415378034702e-03 -3.198994234047717877e-01 -2.224769982765762225e-02 -1.709405930127562770e-02 -2.423876246390651856e-01 -3.797499858700328357e-01 -8.603771560899818593e-02 2.119881675250778795e-04 1.724953626132200157e-01 -1.416466043475641534e-01 3.424919633626131305e-02 -8.905133128820156771e-03 6.497883751460524493e-02 -1.756867361231761182e-01 -1.253063213796030972e-01 -3.787975270786475123e-03 -7.202953437645804799e-03 -2.881486085247762507e-01 -2.022113953171898182e-01 8.369709004491591997e-02 -5.630524546588302343e-02 -4.771623463681742144e-02 2.424032531327605187e-03 -1.638209918958273836e-01 1.592306989836874687e-01 -2.057312616542788797e-01 -2.050757932340460110e-01 8.405253543216709144e-02 1.435367944356473191e-01 -3.185583814087696031e-02 1.275610473269962741e-01 2.504935325738024687e-01 3.044824625602988166e-01 -1.197047638326772384e-01 -1.014868012682918902e-01 -1.478776281731986608e-01 -9.233155429479673881e-03 -2.323193257849271928e-02 7.952707765972424903e-02 9.514668884277475980e-02 1.467105132979290849e-01
2.331714855924215402e-01 2.624716066919322369e-02 -1.180035302674585646e-01 2.563066766223451309e-02 1.458561142154101986e-01 -1.953193944882930799e-01 5.078843943050829340e-02 2.421531823772473668e-01 1.765303795033484058e-01 -1.574175802223814480e-01 -1.630490102565736732e-01 1.727162336007955490e-01 3.357370145797574090e-01 -1.001262930848888649e-01 4.281786407440816428e-02 -2.939995889704536888e-02 -2.938016246784286301e-01 2.078802630678741603e-01 -9.056845996052234615e-04 3.087247379613954849e-03 1.597618450509041832e-03 1.255612584896593775e-01 2.713604883772676168e-01 -9.481681231820594802e-02 3.175691520373636889e-01 -2.343348579560873002e-01 7.413972581509992166e-02 4.666000158565251216e-02 -1.870600033788969163e-01 6.841370030331916929e-03 -3.819396728546724518e-01 2.756590381415604529e-01 2.222919755746768644e-01 -2.701785379296872125e-01 -4.598529162759407707e-01 1.853035956259677097e-01 -2.484467960000405484e-01 -2.853404152096811197e-02 1.675612678356964425e-01 8.441874010531240369e-02 4.538032555632916937e-02 -1.644853030149106832e-01 1.957583639025084477e-01 4.917076868734793910e-02 -1.686780686668921669e-01 -1.551324607150167678e-01 -5.138620353466542487e-03 4.485749047493441805e-02 -1.438088347480627749e-01 -1.543791194640320719e-01 7.177392579008052761e-03 -2.908668082197133353e-01 2.537979691350238931e-01 5.621614649133888607e-03 9.305419208744480919e-02 2.382095607743899279e-01 2.541076669965715018e-01 1.540547216031387667e-01 3.706190256784917814e-02 -3.843688371849157126e-01 5.232453197594424954e-02 -1.122581579961271364e-01 1.225740480359019530e-01 -1.162041414939538053e-01 2.280456256234899004e-01 -2.999561392481717159e-01 -2.002909976370947087e-01 9.226592921835274170e-04 3.695564246985594270e-02 -2.703125952403864218e-01 4.604698131200385403e-01 2.752005365617668162e-02 1.860084406346176056e-01 -1.642066468036457172e-01 2.860572759647680985e-01 1.799986168383779506e-01 -1.145343533233060540e-01 -1.071876428366098921e-02 -2.125046037983185920e-01 -5.096451990579355107e-02 3.839153493937063483e-02 2.233506862700540552e-01 1.813561090730345104e-01 1.996709038349164800e-01 1.072275967125391749e-01 -1.299482121927447997e-01 1.041932442386549057e-01 -1.483993458687617450e-01 -3.954635052057411254e-02 9.924728085115426535e-02 -7.422849472390710690e-02 3.543545452021377162e-01 1.261998957243845310e-01 1.620187252414355406e-01 -2.177139540937851336e-01 1.534231384239626364e-02 1.697366485546966397e-01 -4.327193534568509609e-02 -1.793449911091179738e-01 -2.533937307101425951e-01 -4.012823479648060417e-03 7.937663028424946088e-02 -3.911835446847977682e-03 -2.756430544534553898e-02 4.424700424852728853e-02 -1.005918361152179363e-01 8.342679872096050997e-02 -1.150588395880162464e-02 -7.091518590618037243e-02 -9.069998605973754457e-02 7.374727760236696184e-02 -2.804252579591916955e-02 2.915542547682948293e-01 -4.006549773962395089e-01 -6.498519541564208579e-02 -1.922079915547382500e-01 1.638695308644023685e-01 -1.926436829288897812e-01 7.872019128559103185e-02 -7.803035334120955735e-02 1.095481239336129758e-01 -4.419116236597350061e-02 -5.031497555521510789e-02 8.256161703873680924e-02 4.461601339491047535e-02 9.859301557633530499e-02 -5.892724206793201885e-02 -1.049127081366723474e-01 -1.474074601861112277e-01 6.093509392305229699e-02 -2.270634122829732204e-01 2.956732669473334241e-01 -8.785422926073402361e-02 -1.176961237513250019e-01 8.047941783195372567e-02 2.099973849820377936e-01 -8.726291269911537474e-02 1.086385647348454414e-01 6.161981565362333740e-03 -2.286061724271516715e-01 -3.309548144719676871e-02 -3.750722243694485508e-02 2.110157013404135584e-01 5.570384335494325129e-02 6.459338807350395104e-03 3.006139903770265742e-01 -1.694187678964225174e-01 -3.496726671386376495e-01 1.841938094782046842e-01 3.301231492537137768e-01 5.109899041823497828e-02 -2.177205362297548463e-01 2.893621656866777192e-01 4.591592190717782435e-02 -9.061981272221480976e-02 -7.543700289879565202e-02 1.700701274548041819e-01 -1.066270828870386767e-01 1.089304892014973936e-01 4.077876329687715740e-03 1.143025895697416805e-01 -2.949178760640007169e-01 1.366986391626845709e-01 -1.522337727468212054e-01 -1.498426970295174132e-01 -1.246972910606670426e-01 3.095253566964443342e-02 2.085454065724902106e-01 2.342680515448930800e-01 1.002859696950099272e-01 -9.642374258497592165e-02 -1.446774056967367432e-02 4.338380502820508855e-02 2.934613211317989578e-01 9.810987455326254658e-02 -1.003629769839653463e-01 -1.718407670221518016e-05 -8.659778991321744057e-02 -1.716876125446374288e-02 1.607575657432815663e-01 -7.625596496918043976e-02 2.079086678582108272e-01 1.764270692032513313e-02 -2.024179017159362381e-01 2.196485938757671286e-01 1.461605628538813206e-02 -1.632305260878991748e-01 3.436814043617525405e-02 -1.062951252880825898e-01 1.139523656615016450e-02 -8.441519932439064955e-02 -9.420089014038811326e-02
-1.861896736065353150e-02 7.483754353265011094e-02 -1.034065395473874466e-01 1.496510082207077597e-01 -4.038869719359778482e-02 -8.948000439271637301e-04 1.938407587119919395e-01 -7.037644741230988932e-02 1.746402793909727913e-01 -3.673343838935740763e-02 1.133974548866992643e-01 -5.976262404514538079e-02 3.142509555733382642e-01 -6.922201700463952168e-02 -2.866435881646178796e-01 1.051421650681167164e-01 -1.028566606777786413e-01 1.364679813991156732e-01 -1.036879432480015267e-01 -1.820558360253645425e-01 1.373089995512135342e-01 2.398992124355169842e-01 2.591875126712517990e-02 1.095169849687538909e-02 1.657957492355878748e-01 -3.150171458391149426e-01 1.169330955358253016e-01 -1.098443384051440291e-01 9.857858041639992741e-02 -1.188428916193537133e-01 -3.690654364910019303e-01 9.561452723191347924e-02 4.046127108927839028e-03 2.260491298615000810e-01 -3.098637587586908215e-01 8.484974123117977607e-02 -1.591693759289155574e-01 1.984016936391111707e-01 -3.182228039866743380e-02 1.290260935162080604e-02 3.661297011061356854e-02 -1.498405587001033212e-01 1.671247602854827874e-02 -2.506335358609119712e-01 -7.393876818277309373e-03 1.324836403153694109e-01 -2.795222021756625375e-01 -2.431594069725936946e-01 -3.753500149887282339e-02 1.772344879487496028e-01 -2.180724541693732643e-01 8.560314539590822835e-02 1.130379370418706092e-01 1.049042214950741403e-01 -1.134069611211429573e-01 2.161819525848947265e-01 8.114088675959511832e-02 -3.561255730576714379e-02 4.265118906441414115e-01 -2.447299578207768611e-01 -1.575162063513190491e-01 -3.201969344905264414e-01 3.054824617452330665e-02 2.252376414031267704e-01 4.003483056164777731e-02 1.626097902989406818e-01 -3.220278378576735823e-01 -1.929243921512677207e-01 7.104347590645228305e-02 9.198700594610750847e-02 1.480980806814298500e-01 9.459232606242337638e-02 7.188741161232509169e-02 1.562382082412020748e-03 -2.915517082627261392e-01 -1.354857317487423995e-01 -1.014403311127893975e-01 -9.449267027205333902e-02 1.870873897032313826e-01 -2.555442271419426925e-01 1.053473851908753728e-01 -2.799133401777936236e-01 -3.152971976258441278e-01 -1.215395697420730559e-01 1.241661616673206542e-01 -3.086030963531057048e-02 2.424128211628179957e-02 -1.007452697283955784e-01 1.483690079525504524e-01 -6.203059549991252891e-02 -3.328612238277125490e-01 2.921103609378237764e-01 2.675423361836852809e-01 1.039285504581466263e-01 -2.518924496838301219e-01 -2.384515312718919755e-01 -1.470953066281034394e-01 3.655069559789850264e-02 4.146491180551806904e-02 1.722132341168703118e-01 -1.020306315774142658e-01 2.466608017796255783e-02 -3.647510030104376688e-01 -6.020252530300664040e-02 7.536052737140261706e-03 1.310800932140146202e-01 3.429125656618700613e-01 -2.512191536759797450e-01 1.031271804936777364e-01 -1.860804169233642447e-01 -6.666425430909704575e-02 9.393381921237839438e-02 1.983498522633156125e-01 -9.913403427402441015e-02 -2.510392756980031614e-01 -1.043470112395856186e-01 -5.384774837781740840e-03 -9.036807458767581736e-02 -2.394391612206659414e-01 2.615176298125078125e-01 2.466964672915413492e-01 -3.044946216229978964e-01 4.281264145974653795e-02 -1.133223968973747497e-01 1.681922016184151381e-01 9.183066913258934594e-02 8.868829509456338522e-02 -6.247023849056118627e-02 7.583047829034797460e-02 1.544313391126081979e-02 -6.349999620607260642e-02 -1.095265529215802558e-02 1.807549459412248483e-01 -2.123345218609694329e-01 4.976689986330454230e-02 -9.706682995695053995e-02 -1.941031095540537987e-01 1.892931110954923501e-01 2.079051161653862612e-01 -1.936512352008669668e-01 -1.794974175547678075e-01 -1.079900973831428440e-01 -3.869867551058142618e-02 1.632148460664847589e-01 -1.744252332481019963e-01 3.748788351128207741e-01 -2.464836493917845761e-01 -1.336467722754696719e-01 1.180050705607292583e-01 -1.459752745105219185e-01 3.434759230700252242e-01 -1.382432140882595417e-01 1.058143538412592045e-02 -1.122515888900889880e-01 2.893794794928966629e-01 2.438360180254815213e-01 -1.311573155014244263e-01 -4.458136193771256028e-01 1.272857858424344402e-01 1.421000198061297404e-01 7.385376596683199124e-02 -1.946019446912888307e-01 3.131850983351831541e-01 5.213311244797363790e-03 -1.669397043063833297e-01 2.997382718810470692e-02 3.623547606177353331e-02 1.641222964767913295e-01 -4.231823721883757883e-01 -1.992613967431428601e-01 1.919423110972629520e-01 -1.350091832174923345e-01 -2.325116889176980783e-01 -2.868330553647711542e-03 2.376912870657590104e-01 1.175949162682928331e-02 -3.038114233734437453e-01 -2.095611990654203394e-01 -1.375722116658427245e-02 -2.184779268327059071e-02 -9.064841021505339047e-02 -3.834538899265217404e-01 1.136022767242355763e-01 -9.959832122648418218e-02 2.094584730527253580e-01 -1.176677464457119293e-01 -1.151845270201903443e-01 2.287303934412728557e-01 -1.846909734365648759e-01 -3.871694943942598915e-02 1.357533606258681524e-01 6.354035305966547476e-02
3.641772632622601591e-02 8.184910023724299710e-02 9.220265146262079936e-02 5.466047603387055864e-02 -6.429522928060582392e-03 -1.043830903347328365e-01 -8.646679060561664187e-02 5.662219721275744966e-02 -1.724838017896190567e-01 1.416888699353820447e-01 3.914205281417981047e-02 -1.213619288143728964e-01 -3.537301027054998714e-01 -1.893274541047762841e-02 -9.496142446578217933e-03 -8.868578896819960533e-02 1.289841848977812400e-01 -2.272167727723983441e-02 -3.056667936088276662e-03 -6.460746674136531864e-02 4.358328097057103528e-02 1.526047506536939991e-01 -7.245948781709225794e-02 4.014302025863890344e-02 -8.587609636030280047e-02 2.581376114660521859e-01 -1.017862642867490425e-01 1.673425103884259024e-01 -5.794321971693024154e-02 9.419857729790920287e-02 1.934500410749583413e-02 -4.546377360563704645e-02 -1.091142049399541902e-01 -1.895642555754197267e-01 1.914175531961802013e-01 -3.174484419316447870e-02 1.117301213455768744e-01 -2.512478962474736233e-01 -1.287211405874037484e-01 -5.689637316147587269e-03 1.226903746160952213e-01 1.050765290492363113e-01 1.341770558194236018e-01 -1.129243385204061201e-01 2.448560384181638211e-02 -1.464322236899301966e-01 3.454512145290614816e-02 2.910420789652271890e-03 3.083842046493094624e-02 1.467743174112724203e-01 -1.659192633095543934e-01 -4.074219081271305415e-02 -4.809532283617697079e-03 3.443411504364390918e-02 1.075928545904169531e-01 -1.356983302685659809e-01 9.186515157336552773e-02 -5.239131462540219664e-02 6.255970230695939716e-02 4.061452812874378343e-02 -1.833818588967417451e-01 -6.100694081968122129e-02 1.876744062503276928e-03 -2.956665634216959146e-03 -1.033794808535935805e-01 -1.974542425510234789e-01 2.170066905135382140e-01 -8.107773156894600153e-02 -8.084341322620444692e-02 -9.541725577350809728e-02 -2.310843355523219123e-01 1.427133628146943778e-01 -1.345983531386583942e-01 -1.917279410434401254e-01 -1.756509411379235039e-02 -1.027020992394261402e-02 -1.596394799699301648e-01 2.532171265423728279e-01 2.200417776158740957e-01 4.713303270077816992e-02 -4.093164176469061416e-03 -6.815122286335929813e-02 1.528107922663347329e-01 2.539172564522723663e-02 1.459597221043846538e-01 -1.070109586542158375e-01 -1.858563541817160880e-01 1.414117519975513770e-01 -1.129803557549562409e-01 -1.667125440420082205e-01 -8.979977428641378046e-02 -8.535637087420543112e-02 -4.478238340125111072e-02 -3.028018218663539041e-03 1.082012918738839424e-01 -1.864755876906669038e-02 -2.818341197541244028e-02 1.787579358584224509e-01 6.202710495195790791e-02 -1.074404480161193082e-01 -2.079705860164660081e-02 -3.921918061095783226e-02 1.227591138720254826e-01 1.764683857762070762e-01 1.061736191746720098e-01 -1.240009525012283620e-01 -2.622140695863585669e-01 -4.221300356698028111e-02 2.448642911189981633e-02 6.844092949118577018e-02 -1.511179090431893635e-01 -1.091554336539091036e-01 1.050873752181298720e-01 1.691964916739838731e-01 1.117162590460562543e-01 -1.140122025145173662e-01 -2.543228510748150040e-01 -2.346310010534811280e-02 1.785458817991246172e-01 6.624876952756617032e-02 5.789879474070952579e-04 1.664168583694922710e-01 -1.307200063619456676e-01 2.096026583141996358e-01 -1.399860997812664432e-01 7.100208844795011937e-03 -5.872020821465617768e-02 6.775858538010878784e-02 3.838059269751505770e-02 -1.719226280402755963e-02 -1.365975815400024586e-02 -8.100589519872698763e-02 -1.160677499074843355e-01 2.862925337849726859e-02 -1.757480124536438260e-02 1.168481862155970746e-01 1.186042534588537117e-01 -2.730925445039364668e-04 1.158460195313277957e-01 -6.649490503455787738e-02 -7.800500554639290540e-02 1.023329869156337640e-01 -6.616169130319203562e-02 6.206719381043947215e-02 -1.084437405274920607e-01 -4.893800363951321397e-02 -1.313563803957046028e-01 -5.802684038094649971e-02 -9.544667138545726015e-02 5.756503537003555826e-02 -1.476876706212669477e-01 -1.082710521969129230e-01 2.225635970779181461e-02 8.765929245006555404e-02 1.852957120827283810e-01 -3.416341333313660522e-02 -2.175136037766288097e-02 1.843850240614473557e-01 9.121129224428393967e-02 -8.890184477215994086e-02 -2.111000712773372368e-01 1.032540541653491767e-01 -2.534561312519658105e-01 -1.203587740568516223e-01 -2.128179282412239470e-01 -2.862674083432998132e-02 6.210116952736335211e-02 -9.743091029684244897e-02 8.355610088544769554e-02 1.463867997523462736e-02 9.055444585966039572e-02 2.004724717811754986e-01 2.649701824015315149e-02 -3.913306655075481783e-02 -1.029680439644098805e-01 4.859252146373742309e-02 -7.618519654217345560e-02 1.315893496301403787e-01 -2.874012364894771090e-02 1.434165958128008969e-02 -1.994602406631872105e-01 1.391910526307104101e-01 -4.671718505294190915e-02 -6.525857871561878409e-02 9.952361544841805199e-03 4.855158691150831402e-02 2.748997838972282864e-02 1.885909838714339842e-02 1.109054820461544272e-01 -2.204240394623513399e-01 -8.464326790835675907e-03 -2.107098251287095880e-01
